%YAML:1.0
expressionModel: !!opencv-ml-ann-mlp
   layer_sizes: !!opencv-matrix
      rows: 1
      cols: 3
      dt: i
      data: [ 136, 100, 2 ]
   activation_function: SIGMOID_SYM
   f_param1: 6.6666666666666663e-01
   f_param2: 1.7159000000000000e+00
   min_val: -9.4999999999999996e-01
   max_val: 9.4999999999999996e-01
   min_val1: -9.7999999999999998e-01
   max_val1: 9.7999999999999998e-01
   training_params:
      train_method: BACKPROP
      dw_scale: 5.0000000745058060e-02
      moment_scale: 5.0000000745058060e-02
      term_criteria: { epsilon:9.9999997473787516e-06, iterations:1000 }
   input_scale: [ 6.6077508919560577e+00, -6.5177511132584796e+00,
       5.9657476489761905e+00, -6.1740824002192110e+00,
       5.3246220247290212e+00, -5.2801849380443802e+00,
       2.5798717731473259e-01, 1.3835083129585335e+00,
       2.6534778489848965e-01, 1.4098069391235613e+00,
       2.7794641733407394e-01, 1.4284838843835965e+00,
       2.9548143990520159e-01, 1.4504321104452609e+00,
       3.3522669121105442e-01, 1.5058486491025567e+00,
       4.1671069675091293e-01, 1.6081812155192914e+00,
       5.7610042629893565e-01, 1.7888344002247769e+00,
       9.7151200497664703e-01, 2.1781369129387493e+00,
       1.9082516819926638e+00, 2.5020912951624510e+00,
       1.7084682828176430e+00, 7.4971562435147954e-01,
       1.0903198828067051e+00, -3.6765809731661753e-01,
       8.1114281236979024e-01, -8.1517311667150172e-01,
       6.7190790833326997e-01, -1.0434074557604776e+00,
       6.0904971879520620e-01, -1.1647786074500039e+00,
       5.9031725086579845e-01, -1.2189851773926170e+00,
       5.9317438399905709e-01, -1.2620948075906784e+00,
       6.1320971264448387e-01, -1.2892774546148322e+00,
       3.3161777338642789e-01, 1.5548688373867432e+00,
       3.8042907743130899e-01, 1.5918745128293328e+00,
       4.6850264665107516e-01, 1.6335307770241005e+00,
       6.1469853717934153e-01, 1.6971313242500932e+00,
       8.3441520928086821e-01, 1.7609196542034007e+00,
       1.4123037051188343e+00, 1.3292185094050155e+00,
       1.3799980925563755e+00, 3.7945828715427876e-01,
       1.1072858812205031e+00, -4.4074306065108465e-01,
       8.2751488115026506e-01, -8.8626280605310148e-01,
       7.0087081402003171e-01, -1.0770931074543302e+00,
       1.3280417344053403e+00, 1.9955524688710256e+00,
       1.5156738796794762e+00, 2.2486535676935260e+00,
       1.6814455284869880e+00, 2.4508042575437168e+00,
       1.7934420490001350e+00, 2.5589071942206489e+00,
       1.0553437104140242e+00, 2.3563353298050553e+00,
       1.4762810686633143e+00, 2.7167825112867408e+00,
       2.4895471090761219e+00, 3.5728337459644472e+00,
       3.3141945682637384e+00, 3.4135673674074161e+00,
       2.8744248543659738e+00, 1.9349741554710820e+00,
       4.2104365615206729e-01, 1.6349011757148855e+00,
       4.7966793097934313e-01, 1.6676386189210641e+00,
       5.7636306023149697e-01, 1.7131837488417492e+00,
       6.9635757280651422e-01, 1.7543338207116876e+00,
       5.7949544482341397e-01, 1.7235377485583137e+00,
       4.8236672517682144e-01, 1.6729747377889030e+00,
       1.9110344299907656e+00, 1.0365908903322267e+00,
       1.6059715793325062e+00, 1.7785312218278646e-01,
       1.2277185385697518e+00, -4.5297764681889635e-01,
       9.9426325981431529e-01, -7.6736079317710471e-01,
       1.2196103170306560e+00, -5.0725453568109091e-01,
       1.6998563390576749e+00, 1.1567634878752865e-01,
       6.2103368671261738e-01, 1.8710682375295453e+00,
       9.1184331356712922e-01, 2.2004081416757875e+00,
       1.5168449541695892e+00, 2.7685660819449942e+00,
       2.4175685322571048e+00, 3.4469662590884025e+00,
       3.9898584629518208e+00, 3.9918480901597770e+00,
       2.4766871961216133e+00, 1.0279766324749251e+00,
       1.4366926276407515e+00, -1.7178839527151094e-01,
       2.3043408579408515e+00, 8.8815289039711620e-01,
       5.7982009332182889e+00, 5.4738066028763006e+00,
       3.4173015677302541e+00, 4.7966418402365232e+00,
       1.6869085000229289e+00, 3.0982140184664373e+00,
       9.3504553121416456e-01, 2.2585552871468000e+00,
       6.8914155290388368e-01, 1.9217687631823626e+00,
       1.5448126734437144e+00, 2.8212356392449052e+00,
       2.7116927683006762e+00, 3.8491848835805564e+00,
       5.0253280292078433e+00, 5.0056721430674651e+00,
       1.7355273244677147e+00, 1.6686373835423118e-01,
       4.9490530564122794e+00, 3.9482636204035853e+00,
       4.3915343144754226e+00, 5.3731294100686622e+00,
       1.9890136731209171e+00, 3.2657532059045074e+00,
       5.1923234289973585e-01, 1.1245435883433998e+00,
       7.3411441445734515e-01, 8.8076014085555276e-01,
       9.8076488720638955e-01, 1.9985463715003504e-01,
       8.8871774207778753e-01, -6.5312021487240213e-01,
       6.6992229165640704e-01, -1.0758779303943602e+00,
       5.3021383014380075e-01, -1.2541309409201153e+00,
       4.5077906476919150e-01, -1.3462419552059806e+00,
       4.0682809035621165e-01, -1.4027210298187995e+00,
       4.0458330150974597e-01, -1.4412280540847846e+00,
       4.3770694614062677e-01, -1.4659848094038768e+00,
       5.2715288820321282e-01, -1.4709619055094252e+00,
       6.5037071964821047e-01, -1.3852657610786638e+00,
       7.9027823186774337e-01, -1.0667191053594192e+00,
       8.3369104475874301e-01, -3.6364774185686449e-01,
       7.0322919672394546e-01, 3.7123529147025669e-01,
       5.4907462957319220e-01, 8.1372496408816486e-01,
       4.3623081393655511e-01, 1.0571269081322867e+00,
       4.0837290532367221e-01, 1.2326697529863309e+00,
       3.6239129181127083e-01, 1.2632324129206058e+00,
       3.4557812889240364e-01, 1.2483384876119161e+00,
       3.4972263502753986e-01, 1.2301878364369596e+00,
       3.7264309169158538e-01, 1.2068814179020630e+00,
       3.6288274573366491e-01, 1.1982314339859415e+00,
       3.3847348800693000e-01, 1.2111683840237326e+00,
       3.2510155184191958e-01, 1.2054197991433435e+00,
       3.2498857324217745e-01, 1.1722226667838487e+00,
       3.4848269104095164e-01, 1.1111258816341092e+00,
       4.4818762461860412e-01, 1.1296197322751853e+00,
       5.3334092389236099e-01, 9.9566735546426288e-01,
       6.3651353102780239e-01, 7.7588855034379145e-01,
       7.4619373478142403e-01, 4.1834114275518869e-01,
       9.6110884766393623e-01, 1.4093454869089903e-01,
       9.5396681951853068e-01, 1.7345321198558326e-02,
       9.4797967245260217e-01, -7.6355109324708320e-02,
       9.3571254428168471e-01, 4.2728243141543193e-02,
       9.0342839857278878e-01, 1.6735770767943925e-01,
       4.9871178912798364e-01, 1.1722784831012121e+00,
       4.6033832846163097e-01, 1.2003831405521674e+00,
       4.5590457036517978e-01, 1.1885250257385398e+00,
       4.9516041381764475e-01, 1.1359877735523976e+00,
       5.1728667713834398e-01, 1.1376203824997368e+00,
       5.2480048709852845e-01, 1.1460074703838581e+00,
       4.6726828591538022e-01, 1.0968697281681554e+00,
       4.2418213405702321e-01, 1.1360368643215530e+00,
       4.1630488007386524e-01, 1.1231290787404680e+00,
       4.3489000645461628e-01, 1.0727453019319988e+00,
       4.6275622024482344e-01, 1.0518228262683409e+00,
       4.7069922439446060e-01, 1.0625152382351861e+00,
       9.3514456749445662e-01, -9.4272959178607318e-01,
       9.9243754658334327e-01, -7.5936253625945715e-01,
       9.8143839717150216e-01, -6.3852002765393778e-01,
       9.6198188268805052e-01, -7.1068540174436357e-01,
       9.7160591483792003e-01, -6.1672795849033502e-01,
       9.7095181609042980e-01, -7.0682725835285753e-01,
       9.3803701268115414e-01, -8.7054835370100947e-01,
       7.8826144972684054e-01, -1.1969327189292240e+00,
       7.0160223197877547e-01, -1.2548619274154897e+00,
       6.7943520133696567e-01, -1.2570283062467351e+00,
       6.8360391775413309e-01, -1.2409674053432309e+00,
       7.5116915168657317e-01, -1.1807435349390272e+00,
       9.2842134174211677e-01, -9.6651257513245303e-01,
       9.2840072943754803e-01, -9.1494093234063867e-01,
       9.1655267459685330e-01, -9.3700153808932685e-01,
       9.3072011262925769e-01, -9.0344338130565038e-01,
       9.3468886030436116e-01, -9.0856078055452949e-01 ]
   output_scale: [ 5.2631578947368418e-01, 4.9999999999999994e-01,
       5.2631578947368418e-01, 4.9999999999999994e-01 ]
   inv_output_scale: [ 1.8999999999999999e+00, -9.4999999999999996e-01,
       1.8999999999999999e+00, -9.4999999999999996e-01 ]
   weights:
      - [ 9.5507345018717715e-01, -2.9336008193486207e-01,
          2.6818840238003777e-01, 1.6684454656797765e-01,
          8.9903097997811432e-01, -2.2488959314363590e-02,
          6.3245926928418572e-01, 6.3120548774478047e-01,
          -8.4629213602559039e-02, -1.9305770325137266e+00,
          -8.1186616177936510e-01, -2.9562698053826036e-01,
          -3.6058072407674330e-01, -2.7521213455109121e+00,
          -1.4425673494961881e+00, -6.4053530510880574e-01,
          2.0985088288703282e+00, -1.0246052032480357e+00,
          3.8970321858527107e-01, 7.4226167701555115e-02,
          -1.6788753154324971e+00, 1.3033118741828173e-01,
          7.4435670589220138e-01, -1.0680302658567595e+00,
          -7.9872188774838004e-01, -1.1712355717141565e+00,
          1.2652363646399931e+00, 1.7845179299559205e-01,
          -9.7804955157240481e-01, -1.6900948570885590e+00,
          -3.2507385401136193e+00, -2.9962048326352014e-01,
          -3.8444819213112402e-01, 2.3250934580742300e-01,
          1.8339458629227592e-01, 1.0137722368596400e+00,
          -1.1710215299510607e+00, -3.4631314663587633e+00,
          -7.0779107974112421e-01, -1.7609978942692663e+00,
          -2.3476429880699996e+00, 1.1554248019487992e+00,
          -1.0012286978837229e-02, -7.3680386524915620e-01,
          1.5715003254323285e+00, -2.7708302091038237e+00,
          1.8826343982337872e+00, -1.7484337896124946e+00,
          -2.0636872324916573e+00, -2.2165892147211128e+00,
          3.4336898485985730e+00, 1.0578963315208634e+00,
          -6.6843256486656677e-01, -1.5566922978012474e+00,
          6.1781881667621752e-01, -1.8780090592824036e-01,
          -1.2448261899875013e-01, -4.1632994880108404e-01,
          3.4924300730922151e+00, -2.8839691149119817e+00,
          -4.7157426846221184e-01, 2.4843149271665529e-01,
          3.2045458156495260e-01, 7.5886403585563278e-01,
          -3.0452985340360201e+00, 5.2405532729187521e-01,
          7.2138392374405325e-01, 1.2746836660337227e-01,
          5.9122750293343551e-01, 4.6440062309009428e-01,
          1.0495505446946050e+00, -2.1799488636139377e+00,
          -3.0181317243164592e+00, -5.9274713722671335e-01,
          2.2644860404826397e+00, 6.1641071559633243e-01,
          6.0546398492865283e-01, -1.8563499503571255e+00,
          9.0625949298396402e-01, 2.5830430073289130e+00,
          3.8049988991284095e-01, 2.0798204109868070e+00,
          2.0687434511344183e+00, 2.1388660898276108e+00,
          1.4488550118432670e+00, -9.8898973563025838e-01,
          -2.5462144839107772e-02, 1.4627620791055798e+00,
          -1.4843219200955624e+00, -7.5905546064184959e-01,
          -5.8058369500840012e-01, -4.5476010020161722e-01,
          -1.9111673379577840e+00, 2.1355071913954800e+00,
          2.0199086960703720e+00, 2.1371580211244474e+00,
          -1.1691236720607705e+00, 5.3333358265595342e-02,
          -1.1943975031476992e+00, -6.6759005232459867e-01,
          -8.1438340806489563e+01, -2.7521715187844089e+00,
          4.1439106125997649e-01, -7.2381187823515336e-01,
          1.3781534310819936e+00, 4.8439752580096085e-01,
          9.8718139231766588e-01, 2.7690086518029560e+00,
          -2.5619889801420487e-01, -4.6422150674613860e+00,
          1.3876065934338035e+00, -9.8373594083990168e-01,
          5.9130399214698537e-01, -6.1425823177783578e-01,
          8.1260578583469434e-01, -8.1548592882392157e-01,
          3.5844130920768063e+00, 2.8013340379534650e+00,
          -1.3954746506688498e+00, -1.1447817431811727e+00,
          -5.1644687375644205e-01, 2.4694316908977074e-01,
          5.4239680365330008e-02, -1.7629253983229101e+00,
          -1.9576073093014186e+00, 1.2641483968382068e+00,
          1.2576755056081832e+00, 6.9996669049660265e-01,
          3.3608535444996654e+00, -7.1548369361546038e-01,
          -4.7523648936614658e+00, 2.4739562355719844e+00,
          -8.6474759294167769e-01, -1.9770494788744768e+00,
          -1.3941604777423435e+00, -1.4478683847130336e+00,
          -1.2312247855673595e+00, -2.0175576650351026e+00,
          -3.1152428733944987e-01, -1.8686579925802815e-01,
          2.3255854415281858e+00, 2.4375432749730406e+00,
          -6.7680336869883312e-02, -7.3327427477341702e+00,
          4.5677007883688763e+00, 6.0216796325755773e-01,
          3.7456974639502687e+00, -5.1054896064186306e-01,
          -2.9201246870009312e+00, -1.6688723005579422e+00,
          -6.5947920258828772e+00, 4.3176579291623085e+00,
          9.1570827938583610e-01, -8.2732849696702555e+00,
          -1.0923237284145501e-01, -1.2106091718587864e+00,
          -9.7236653784766564e-02, 3.2904250459291338e-03,
          1.1616698612776200e+00, -2.4006632844812681e+00,
          1.5379524905293036e+00, 2.1973843328638573e-01,
          -8.0818991904748083e-01, 9.2822318159729389e-01,
          1.3060359995656861e+00, 2.9917109610812798e+00,
          -2.1290324764668602e+00, 1.0349007404831834e-01,
          -9.4265792320354258e-01, -6.3794932623448553e-01,
          -1.4325561349120224e+00, 7.5794313807117630e-01,
          -2.4669604771067482e+00, 1.6813980220371290e+00,
          8.1146125824918247e-01, -1.6995065475964655e+00,
          -3.0611165441756139e-01, 6.1192751043308313e-01,
          1.3635544980629031e+00, 2.2660437446732060e+00,
          -9.3809284354678024e-01, 4.0663108681982845e+00,
          2.0010026606946778e+00, 3.8146247785493603e+00,
          7.1160823664458217e-01, 6.4403988840365400e+00,
          -1.7716906872831757e+00, -7.7133558444552452e-01,
          -4.9335642684750286e-01, 1.0399981701637433e+00,
          1.8201424690878369e+00, -7.1796283624831148e-01,
          1.7177416884574559e-01, -2.8969024810905206e+00,
          1.0866742122474033e+00, 2.0598222258756147e+00,
          -3.2678149079182521e+00, 8.5876947525013048e-01,
          4.3401733008047338e-02, -6.1833948066441358e-01,
          -5.7035054940406610e+01, -2.6214455549216282e+00,
          1.5901469247606901e+00, -1.0636644971991203e+00,
          8.6204860035101016e-01, 7.3011772652050544e-01,
          3.0849100253602901e+00, 2.2820529265275113e+00,
          -9.1142724412247456e-01, -7.8317065407010373e+00,
          2.2921545962292238e+00, -3.7633287680459486e+00,
          -1.6213409816738384e+00, 9.2169223856711735e-01,
          -6.5330001080822075e-01, -5.7602115891906003e-01,
          2.7452806048296092e+00, 1.1025895087964279e+00,
          -4.3349119394151908e-01, -1.8617218069097869e+00,
          1.1652248565869641e+00, 2.7617325704912005e-01,
          1.9126748513182250e+00, -2.0448810237459125e+00,
          -1.9162071991018086e+00, 3.2596838105219454e+00,
          1.8385579148314671e-01, 9.5952147923753806e-01,
          4.2381055800404450e+00, 1.6067001004634789e+00,
          -2.8429002727291901e+00, 4.7835233349597521e+00,
          7.8148310674487548e-02, -4.9792567254155866e+00,
          -3.8386620364032424e+00, -1.7066814664385286e+00,
          7.4137096778503486e-01, -1.8055104800660429e+00,
          2.3578102129857852e+00, 1.1385156830479826e+00,
          4.2282313746335074e+00, 2.8497354610060985e+00,
          1.3257805186729477e+00, -6.3937385960277204e+00,
          6.6287492396307366e+00, 7.0773149475792030e+00,
          2.2595024192069828e+00, -4.4740726533909285e+00,
          -2.6205472112970516e+00, -1.0903316917123334e+00,
          -9.1185071576415915e+00, 4.7993808255978037e+00,
          1.0314866237404281e+00, -1.4340531024274096e+01,
          -3.2454403600022390e+00, -2.0209869165641945e+00,
          -9.5635371017510851e-01, 1.9379995338169269e+00,
          -6.6630913048578366e-01, -2.7217593235796750e-01,
          1.9680419845249071e+00, 6.0471891829026392e-01,
          1.8438496164601323e+00, 1.2970865468235639e+00,
          2.6598586788438170e+00, 3.8034166875082511e+00,
          -2.4501547482369008e+00, 3.1119723805085792e-01,
          -3.8690107098456394e+00, -1.5445456596773417e+00,
          -3.0799933211627559e+00, 3.8938428596955124e+00,
          -3.4360465475311659e+00, 3.4061016972475668e+00,
          -8.6122910129507856e-03, -5.0749034730638094e+00,
          -7.2401080550364050e-01, 2.2249241089383207e+00,
          1.2511697188904602e+00, 7.6436966992558277e+00,
          -1.5254397581775678e+00, 3.6595371924806774e-01,
          1.6257027971244697e+00, 2.4752706849818003e+00,
          -2.0819786588232470e+00, 2.6805441769759750e+00,
          -3.5585301099319526e+00, -2.7692127320743500e+00,
          4.3913955781505659e-01, 3.0690066782178587e+00,
          1.3096239821349251e+00, -2.7504212108056443e+00,
          3.5888690172446286e-01, -4.6209358728567134e+00,
          1.8737645385608381e+00, 4.0066364722108077e+00,
          -4.7836115994381689e+00, 1.4799074136098395e-01,
          3.0965713289262747e-01, -2.1592441151334280e-01,
          1.7895275176979615e+02, -1.9245795455635284e+00,
          -2.3962997837909392e+00, -2.4319246230649749e-01,
          -3.4611088428670476e+00, -3.7023997294038637e+00,
          8.2511131175357688e-01, 2.7240689364329804e+00,
          -3.7659929408728143e-01, -1.8702380395348324e+00,
          1.3284601058712406e+00, 2.5496811837624234e-01,
          -9.0562714676758382e-01, -8.8199641972065712e-01,
          -3.3758751277616201e+00, -3.7623769404064805e-01,
          1.7192517965955048e+00, -2.7611518337692402e+00,
          3.2131773726195458e+00, -1.7663756333776834e+00,
          5.0176494656522153e-01, 3.3390229700095680e-01,
          7.7711810595337094e-01, 4.4360374226154740e+00,
          -2.3439018679969119e+00, 1.0437911290879234e+00,
          1.9456121211334731e+00, -1.1567940972947270e-01,
          -1.7677163387379433e+00, 1.8156440882764198e+00,
          -1.0720889567562288e+00, -1.0183842300114423e+00,
          5.5607026217594058e-01, 8.3492729122519938e-01,
          2.3056284770977977e+00, 1.0939614275503651e+00,
          -3.2532827538267539e-01, -3.2171462025928785e+00,
          -4.8458582723045796e+00, -6.5321216322358555e-01,
          8.6287505119708274e-01, 3.9340813146025586e+00,
          2.0761699289060451e-01, 2.4697907479855350e+00,
          2.2002955413061533e+00, -1.3633218854059665e+00,
          -1.9864753309306452e-01, -7.2048234392258548e-01,
          -2.0980207312810134e-01, 1.0010108333972760e+00,
          -8.5943348457022817e-01, -5.7781593678435772e-01,
          1.4973485222321762e-02, 3.8785132011753167e+00,
          -9.7446570284045547e-02, -9.5797200093246826e-01,
          -3.9793814132429522e-01, -6.5834647068573693e-01,
          -2.2580528657716386e+00, -3.0335586131060563e+00,
          -2.5076148098821931e+00, -2.4495520911287909e+00,
          1.0227575965882072e+00, 1.0355010523721669e-01,
          1.3067383181059453e+00, 2.3514143433803882e+00,
          4.7876329125928174e-01, 4.3823486122467326e-01,
          2.6944784482450554e+00, -2.4949936197170608e-01,
          -2.1575691624848836e-01, -1.7605550456627210e+00,
          -1.8556731723309003e+00, -3.6798636702206211e-01,
          3.1310708536043130e-01, 4.3765044918656576e-01,
          -4.2902379445549105e-01, 2.4915069354862713e+00,
          1.6678259234349584e+00, 1.7484008556262911e+00,
          2.7447379668053529e+00, -1.4033668943980857e+00,
          3.8463332692328872e-01, 2.8768016818128794e-01,
          -6.0754460274579491e-01, -5.9339247413325402e-01,
          2.3727506299330900e+00, -6.5658197110537733e-02,
          -2.3594754709636607e+00, -2.6602475480946324e+00,
          1.4062922799910886e+00, -2.3699623464517745e+00,
          3.6340720947013487e+00, -6.8661514558002390e-01,
          5.9008542079930293e-01, -1.0118641789889058e+00,
          -2.3748583227644651e+00, 1.3866444607527545e-01,
          -5.8541618624835345e-01, -1.9719254265837667e+00,
          1.8228974099778898e+02, -2.0634489832991250e+00,
          -2.2485465791245609e+00, -2.2548395272138053e-01,
          -3.5445814530778597e+00, -3.7501781620990391e+00,
          8.0121963325432755e-01, 3.1160283828438842e+00,
          -4.4255538204502537e-01, -1.8344170744774977e+00,
          1.3064677715677271e+00, 5.5979733844831492e-01,
          -7.9460844513980455e-01, -9.7029083851643905e-01,
          -3.4853173088900431e+00, -3.2446113479622812e-01,
          1.9107855413759105e+00, -2.7054657116614984e+00,
          3.1804168704993452e+00, -1.6614725824893164e+00,
          5.5879449434131911e-01, 3.4250043783093648e-01,
          6.5381403484557443e-01, 4.3983699452332603e+00,
          -2.3384698301480213e+00, 1.1059187832603086e+00,
          1.9278731606963151e+00, -6.9331894551401999e-02,
          -1.7945881066825080e+00, 1.5779582829693601e+00,
          -1.0815404819743422e+00, -1.0000111976189909e+00,
          3.2989715237832012e-01, 7.9884589663043803e-01,
          2.3747024356421900e+00, 1.1367433250516856e+00,
          -4.0781744493207517e-01, -3.3924049116979988e+00,
          -4.9414336999737172e+00, -8.0596443979123134e-01,
          8.8125594646614902e-01, 4.0880535436579946e+00,
          1.3971174217765003e-01, 2.4559268372032612e+00,
          2.3448948112672072e+00, -1.3530889071845051e+00,
          -1.5475933175780351e-01, -6.1350256535262759e-01,
          -2.3055847658761602e-01, 1.0055942986995441e+00,
          -7.0840082764494250e-01, -4.0580728089418222e-01,
          -3.7804082576799285e-02, 4.6397569394863405e+00,
          5.7624346039301673e-02, -9.7816198743985772e-01,
          -1.3471264367040864e-01, -6.5760645429978104e-01,
          -2.2297558277112715e+00, -3.1205261079348534e+00,
          -2.5294401607219967e+00, -2.4718361050784221e+00,
          1.1499037480995216e+00, 1.1476851764795327e-01,
          1.4552021508134179e+00, 2.5284832409286380e+00,
          4.2278086493851463e-01, 4.7220886759142361e-01,
          2.9041130026599808e+00, -2.1824672737344458e-01,
          -7.7411546802785308e-02, -1.9917648534226966e+00,
          -1.6132150151383060e+00, -4.4997592790293434e-01,
          2.9278434722782065e-01, 5.8519559720411340e-01,
          -3.8045859524035491e-01, 2.3969984696673401e+00,
          1.5629832530300822e+00, 1.5657124750218925e+00,
          2.6994381936613823e+00, -1.2062700813026361e+00,
          3.4526775175110019e-01, 3.4048685110267446e-01,
          -4.1778965290006204e-01, -6.1480855592876993e-01,
          2.6927280215900287e+00, 1.3006636523457560e-01,
          -2.5001243930473422e+00, -2.8282317405257560e+00,
          1.4410196764882155e+00, -2.4730766450545119e+00,
          3.6466677454505625e+00, -3.5470212653547933e-01,
          4.8275417604792559e-01, -1.0676092765858713e+00,
          -2.4616825189638822e+00, 5.8722045067871063e-02,
          -5.5181247468231254e-01, -2.0361116227856928e+00,
          1.8329286646515880e+02, -2.2506975395073345e+00,
          -2.2771565769764832e+00, -2.2064855795807375e-01,
          -3.5641694063443325e+00, -3.9142718057830748e+00,
          8.2470805943695580e-01, 3.4824572149997284e+00,
          -5.0648464293615281e-01, -1.7866117919120399e+00,
          1.3381272466523997e+00, 1.1703621406400828e+00,
          -4.6247040723540150e-01, -9.7522393068735713e-01,
          -3.4951845444851730e+00, -3.9645889892117631e-01,
          2.2396472780393659e+00, -2.6246087029118796e+00,
          3.0922681980084867e+00, -1.5310358266968129e+00,
          5.1363694881134681e-01, 3.2851424872168106e-01,
          4.5231705439689895e-01, 4.3017045632439253e+00,
          -2.3792675298906167e+00, 1.1612738372290035e+00,
          1.8575142262441990e+00, -7.9138848970780842e-02,
          -1.8803044424223263e+00, 1.1065967790420423e+00,
          -9.7689471015379969e-01, -8.6851451827820370e-01,
          3.7037782859017775e-03, 9.4677859528204766e-01,
          2.4838108757237705e+00, 1.1628720234354029e+00,
          -6.4454375396687946e-01, -3.6933438084389638e+00,
          -5.1073040939166079e+00, -9.4505476717508152e-01,
          1.0880923885261418e+00, 4.3137149292178361e+00,
          2.2874985346957907e-01, 2.5643436737514853e+00,
          2.6461681635272960e+00, -1.4410152016739244e+00,
          -1.3081212634492814e-02, -2.2048197991526089e-01,
          -4.2438041209967086e-03, 1.0557315801050828e+00,
          -8.0044073686470574e-01, -2.0238524030638491e-01,
          -4.2651957144329802e-02, 5.6433750398676441e+00,
          1.5049705296129959e-01, -9.8843415157439318e-01,
          3.6404551689025899e-01, -8.0109381113140898e-01,
          -2.3080244466921234e+00, -3.2070365903668394e+00,
          -2.5760535766315713e+00, -2.6496332417766553e+00,
          1.3664234879909467e+00, 1.0592706857997590e-01,
          1.5904341414432122e+00, 2.6769786253000452e+00,
          4.0808860931197760e-01, 4.8979341039714536e-01,
          3.2379670340778821e+00, -3.4957088709349871e-01,
          2.2514672069598954e-01, -2.3039613428370376e+00,
          -1.3558865865626653e+00, -6.2492818632485203e-01,
          6.0437512546922822e-01, 7.2857023192864712e-01,
          -3.7481452010604999e-01, 2.5236944510477111e+00,
          1.7179387112518754e+00, 1.2665156201986749e+00,
          2.4716555936129527e+00, -9.3247461820978050e-01,
          2.1271432145645419e-01, 4.1990478718681917e-01,
          -4.2495035365671846e-01, -4.0566266525112321e-01,
          2.9822359178353133e+00, 2.8799796807785533e-01,
          -2.5989876236426035e+00, -3.0722305341084457e+00,
          1.3414941511745477e+00, -2.5290579905937811e+00,
          3.0910151649361088e+00, 3.4193150827572620e-02,
          2.1659572700489213e-01, -1.7912233826062125e+00,
          -2.5568618878518987e+00, -1.5291818237034976e-01,
          -4.8548599414731358e-01, -2.0624600625700920e+00,
          1.8486439011476816e+02, -2.3852190669468194e+00,
          -2.5079722225611394e+00, -2.6998774411344795e-01,
          -3.3803298460652944e+00, -3.9603100741425523e+00,
          9.2777237688978154e-01, 3.4944158449453373e+00,
          -5.6992917890404404e-01, -1.6247503936315113e+00,
          1.1126929372727996e+00, 1.5917023126155669e+00,
          -3.3226407431485105e-01, -1.2115269650649074e+00,
          -3.3604631097833293e+00, -5.4244196102771813e-01,
          2.5531371672701910e+00, -2.7090834407454500e+00,
          2.9106595387333805e+00, -1.3825412299110662e+00,
          4.1676583442468040e-01, 3.0062514131409146e-01,
          4.1183592227629251e-01, 3.8842078078038353e+00,
          -2.3834712306181953e+00, 1.2167189408391406e+00,
          1.7333550587226392e+00, -8.8021846426398820e-02,
          -1.8555766245625887e+00, 7.7621251280899006e-01,
          -1.0791239260132799e+00, -9.4338639094328103e-01,
          -4.5241945256312538e-01, 7.2696765049528467e-01,
          2.4270861853205092e+00, 1.1207742247100541e+00,
          -8.1182868530158669e-01, -3.9419526341497626e+00,
          -5.0562456555273139e+00, -1.0333353671799046e+00,
          1.3032748178596962e+00, 4.3410144708621843e+00,
          4.0894522827119290e-01, 2.5060734053209655e+00,
          2.3875665779330770e+00, -1.4683517327852595e+00,
          3.0626895591331482e-01, 6.2452519116909218e-03,
          7.8611683740326552e-02, 9.2952611991165268e-01,
          -6.9346227719651665e-01, -3.2368522173153425e-01,
          -1.2099007970307923e-01, 5.7239295001406703e+00,
          3.5168736534152251e-01, -9.2534000971277686e-01,
          5.7888650948074316e-01, -8.4988024316965805e-01,
          -2.4881873161743879e+00, -3.2336884869620279e+00,
          -2.5368517087216911e+00, -2.7132538027448985e+00,
          1.5028576524094146e+00, 9.7824373316933375e-02,
          1.3147773521940900e+00, 2.4624959610790245e+00,
          3.6288177373234792e-01, 4.7236308084164919e-01,
          3.3075227165692986e+00, -4.9074482012348725e-01,
          3.2362219371597190e-01, -2.2469647124512209e+00,
          -1.2201374291550642e+00, -6.5480676877851740e-01,
          7.3306923308898753e-01, 7.6034228617949262e-01,
          -4.2002093480050273e-01, 2.9294762930464948e+00,
          1.6854212446446371e+00, 1.3433142776754701e+00,
          1.9622950378670021e+00, -9.3137229710438296e-01,
          3.0455005774019692e-02, 3.8825360820084909e-01,
          -2.3000747695842383e-01, -2.1469231075226533e-01,
          3.0451194574114244e+00, 1.6259807823019770e-01,
          -2.5492163762744364e+00, -3.2951866927552915e+00,
          1.4214606634379219e+00, -2.5335462528617962e+00,
          2.5954168633471824e+00, -1.4958556408294571e-01,
          2.3442071753069252e-01, -2.1243659439839111e+00,
          -2.4805658000612869e+00, -5.0776823108951086e-01,
          -4.1748846810807710e-01, -2.0014918643029369e+00,
          1.8940641772773722e+02, -2.2428914309347880e+00,
          -2.5585864052429192e+00, -3.4215279609106891e-01,
          -3.7062263855749080e+00, -3.9283107754108371e+00,
          9.8507255014436701e-01, 3.0119406430238009e+00,
          -6.8092711737652833e-01, -1.3521581917002110e+00,
          9.6768842836562630e-01, 1.7773945697835472e+00,
          -5.6010163793490186e-01, -1.6375866799229160e+00,
          -3.2303502007187666e+00, -5.9559466784755988e-01,
          2.7303388573585425e+00, -2.9926755325003382e+00,
          2.5222642670305158e+00, -1.5206498141657685e+00,
          2.2601956870533876e-01, 2.8033859500862374e-01,
          1.8036598199660250e-01, 3.5041335189993315e+00,
          -2.2261590379564660e+00, 1.3875751083938770e+00,
          1.6438910931222481e+00, -6.8176177818126717e-03,
          -1.7730436167297015e+00, 1.0906308434138676e+00,
          -1.1646889379695684e+00, -1.3170156579919061e+00,
          -9.6775720382379171e-01, -3.2011756059411849e-03,
          2.2397004107926306e+00, 1.0281053543685987e+00,
          -8.7193684297206486e-01, -3.7919036676077895e+00,
          -4.9750879551509470e+00, -9.5018141428667346e-01,
          1.4442468671886426e+00, 4.1407087564194347e+00,
          4.7898354706796192e-01, 1.9797089466973308e+00,
          1.8059296715199096e+00, -1.3793196478652794e+00,
          6.1804360274931092e-01, -1.2635363389040169e-01,
          2.3874899154351589e-01, 7.5158951887352021e-01,
          -7.3105424992322099e-01, -3.7919332087285357e-01,
          -2.5656894700233374e-01, 4.6757439338244149e+00,
          7.0454754131011044e-01, -9.8944774045691608e-01,
          4.0190330174270344e-01, -6.8571587919297716e-01,
          -2.6946317497549743e+00, -3.0016287731059283e+00,
          -2.0926564112528170e+00, -2.3745881922876602e+00,
          1.1391566504244126e+00, 1.8656922085946287e-01,
          6.5795070178785098e-01, 2.0554865141477272e+00,
          2.6935403692901566e-01, 4.5658184635218657e-01,
          2.8971180249245490e+00, -4.6297212998853599e-01,
          7.7264754302969044e-02, -1.6648220353337875e+00,
          -9.1346251835837422e-01, -4.4160052135170996e-01,
          5.0234292478301734e-01, 7.0129648131499844e-01,
          -5.2094631453097728e-01, 3.3341613417363631e+00,
          1.4627404969200848e+00, 1.8013332898205008e+00,
          1.2533763267510547e+00, -1.3198777402219328e+00,
          -2.1609828237590356e-01, 1.4453163806127900e-01,
          3.8202465412121606e-01, 1.8888990276481107e-01,
          2.8478808807512732e+00, -3.4603397036495165e-01,
          -2.4053869103457344e+00, -3.5442443356019431e+00,
          1.4876142498398117e+00, -2.3550779667461050e+00,
          2.0733987141244254e+00, -8.9474549030944461e-01,
          8.2061078676806665e-01, -1.4437895953533619e+00,
          -2.2484612834442763e+00, -7.1307699386438772e-01,
          -3.4951851254872562e-01, -1.6374565752905992e+00,
          1.9685532493653403e+02, -2.4876336790343792e+00,
          -2.8100877198000629e+00, -5.4777287122151863e-01,
          -4.4059291210638323e+00, -3.9793096708903208e+00,
          7.5040194944865235e-01, 2.7335369228429403e+00,
          -9.2601366310158284e-01, -1.2146473724140820e+00,
          9.6603540131581656e-01, 1.2704748554645378e+00,
          -5.5138392560217753e-01, -1.8285232517756851e+00,
          -3.1936201395852337e+00, -5.2594613263799916e-01,
          2.6384617715071790e+00, -2.8991559474678636e+00,
          2.3800889405934851e+00, -1.8174047306482315e+00,
          2.4316269291884318e-01, 2.5394730700579554e-01,
          -2.0781964598108621e-01, 3.4309775797923265e+00,
          -2.3560954542690706e+00, 1.3469614060879791e+00,
          1.6963945860612772e+00, 5.0718332986100303e-03,
          -1.6691733399375579e+00, 1.0842977600708248e+00,
          -5.4734461720551764e-01, -1.5124872696653802e+00,
          -1.1661490001145633e+00, -4.8368225502140977e-01,
          2.2281927125054604e+00, 7.0032224457233705e-01,
          -1.0818296426622271e+00, -3.8644549743524630e+00,
          -5.0084372763355711e+00, -7.9016138779186840e-01,
          1.8857722366396004e+00, 4.1187562431504618e+00,
          5.3300336954371275e-01, 1.4132810387877264e+00,
          1.5924853539757362e+00, -1.7176371683612335e+00,
          6.0445011773751800e-01, -5.2887433531391879e-02,
          1.2753716129074019e-01, 7.3286888950848894e-01,
          -6.5978483898443807e-01, -2.1998991975111051e-01,
          -4.2426801614121745e-01, 4.0446821114956828e+00,
          9.5417832190171892e-01, -1.1905077289309225e+00,
          6.9143570425004264e-01, -6.9718007261614168e-01,
          -3.3397189767006172e+00, -2.7284375432484458e+00,
          -1.7307765548370673e+00, -2.1921948744757955e+00,
          6.7857046292626311e-01, 4.9603111801694338e-01,
          2.0206977438155313e-01, 2.0861278385223891e+00,
          3.1747155143268674e-01, 3.6468470532233493e-01,
          2.5885211712834764e+00, -6.4137521231323369e-01,
          2.7969649233633198e-01, -1.4002555845115026e+00,
          -2.1424166410042422e-01, -3.7906839132367470e-01,
          2.4892297183835055e-01, 6.8642056568586696e-01,
          -6.4965785525822839e-01, 3.8541142096467413e+00,
          1.3885308498444591e+00, 1.9592833819489313e+00,
          7.4878512715937728e-01, -1.4816466290098866e+00,
          -1.2315294704304895e-01, 4.5367812959320707e-02,
          5.9205727882246173e-01, 7.7498640835210775e-01,
          2.9148926955531040e+00, -7.3232651786121239e-01,
          -2.4310036446291892e+00, -3.4932619436690242e+00,
          1.7520199496813167e+00, -1.9377845673443816e+00,
          2.9039777513687284e+00, -1.8559027088193056e+00,
          1.3059801385847398e+00, -8.6760833174781582e-01,
          -2.1352896736657558e+00, -7.4960211626226747e-01,
          -2.2589762982051764e-01, -1.5556334005904102e+00,
          2.0637145014135027e+02, -1.9493773877014022e+00,
          -2.8805131193374742e+00, -4.2771993148334692e-01,
          -4.5685881487674767e+00, -3.3159875967065728e+00,
          1.0104860259028057e+00, 1.8406634454703354e+00,
          -7.4779231064982155e-01, -5.8561364560927975e-01,
          4.4979101987402348e-01, 1.1110859272233311e+00,
          -9.4338998888479064e-01, -1.8133523417018114e+00,
          -2.4712253530197774e+00, -8.4415918456756833e-01,
          2.7302818789914625e+00, -3.3307358559998010e+00,
          1.8007919654638362e+00, -1.8470602457947138e+00,
          7.7291976715528038e-02, 1.7634210279886980e-01,
          -3.1413396690579026e-01, 2.3716746981628773e+00,
          -1.8877021372014886e+00, 1.5685033583009851e+00,
          1.3901540386364846e+00, 1.0388732484595928e-01,
          -1.8951731978685566e+00, 1.4647670534085093e+00,
          -9.6426193456972051e-03, -2.0055234755673141e+00,
          -1.8239308456466630e+00, -8.4049702149620165e-01,
          1.7265672745510809e+00, 6.3043705009052431e-01,
          -6.9040688164386022e-01, -3.0452356971706953e+00,
          -4.7802827350911015e+00, -7.2485604200899589e-01,
          1.8136561021829003e+00, 3.6552933057332528e+00,
          1.1316875076578643e+00, 5.3653103476354314e-01,
          1.1743041502445437e+00, -1.4499115431985288e+00,
          9.4494514558712284e-01, -4.0522067098169667e-01,
          2.9442062192885604e-01, 1.9699423476902589e-01,
          4.4589372749208306e-01, -9.7532492617610633e-01,
          -1.1005900903375374e+00, 2.4227131732153859e+00,
          1.5797059607574577e+00, -8.6463371803593880e-01,
          1.3221603700606703e+00, -6.2235626739315553e-01,
          -2.2272555451055540e+00, -2.1264576805639765e+00,
          -8.5077281484058476e-01, -1.7902941077693790e+00,
          -1.5972508226566867e-01, 4.3719927394644481e-01,
          -1.2781779061690290e+00, 1.5732937587707680e+00,
          2.3138329972363350e-01, 3.4725583823963124e-01,
          1.8395844267434007e+00, -9.1281291734461212e-01,
          -5.0098330167697058e-01, -4.5821926914695160e-01,
          2.7582900713714231e-01, 2.8737445687556679e-01,
          -8.6744192153442390e-01, 5.4947052608822966e-01,
          -4.9722778418677532e-01, 3.4741921403701883e+00,
          3.3629474412202159e-01, 2.8855814061147793e+00,
          -3.5731756601142078e-01, -2.4966029151059073e+00,
          -4.9553622838506145e-01, -9.3786840556742312e-01,
          1.7053525864374597e+00, 1.0298170954014165e+00,
          2.2957338707568389e+00, -1.6058664962881259e+00,
          -1.9859224576524068e+00, -3.6599196946846368e+00,
          1.4970767059295098e+00, -1.7620919138151478e+00,
          1.8881210957532462e+00, -2.9939744061669180e+00,
          2.5285270883430737e+00, 8.1991770489143423e-01,
          -1.4806130788244571e+00, -1.4124529018798901e+00,
          -3.1363901043043746e-01, -1.2186105998594985e+00,
          2.1416792632178451e+02, -8.4249924189096759e-01,
          -3.1598183749478954e+00, -4.0177866422335624e-02,
          -4.1442777261027066e+00, -2.2261340755780989e+00,
          1.1103873297953095e+00, 3.0441820059201169e-01,
          -2.9326608906672724e-01, 2.2564200889211652e-01,
          -5.7007500881744144e-01, 1.7308898714108019e+00,
          -9.3697646240371568e-01, -1.2145762170449963e+00,
          -1.5153294540143187e+00, -1.3023911468574261e+00,
          3.2310980821891011e+00, -3.6749919767351984e+00,
          1.2044668890811630e+00, -1.8868796610588672e+00,
          -7.8283980206460421e-02, -4.7837154923534020e-03,
          -1.0114125371469312e-01, 7.5898696184403425e-01,
          -1.4099476408414584e+00, 2.4647368678417503e+00,
          6.1396407028527566e-01, 2.4719589216406904e-01,
          -2.2953958475918124e+00, 1.7013260446729008e+00,
          1.0408550509393024e+00, -2.6938408369844198e+00,
          -2.9638825110976956e+00, -1.5575174855254983e-01,
          1.3727411586806924e+00, 4.1863087547177830e-01,
          -6.0513358709507213e-02, -1.5294106865848556e+00,
          -3.5794622595998424e+00, -6.8784333099516826e-01,
          2.2334506662569376e+00, 2.3877418941661146e+00,
          2.3859385122096333e+00, -7.8228088117733441e-01,
          6.0550590172141816e-02, -1.0742331599741020e+00,
          2.1916647468668073e+00, -1.3510049129485109e+00,
          4.0284063490074062e-01, -4.5955612539702356e-01,
          1.8201721072741242e+00, -2.2019938609035314e+00,
          -2.2147610335860741e+00, 3.5293823415058079e-01,
          2.2135026105804694e+00, -1.7308708415227286e-02,
          2.1715653828789430e+00, -6.9830054444794476e-01,
          2.5796354981338053e-03, -1.1743915118823236e+00,
          5.3076825285499107e-01, -1.4034780775002185e+00,
          -1.0514345834033665e+00, -1.3353475779784910e-02,
          -2.8431987611321916e+00, 1.5438343039918698e+00,
          2.2540972305473778e-01, 1.9038660072099012e-01,
          8.6156255171568175e-01, -1.6707951738952784e+00,
          -1.6010746340792625e+00, 1.4270086782690632e+00,
          7.8105269114033482e-01, 1.1752802182169335e+00,
          -2.5944259306889430e+00, 2.3962304284638472e-01,
          -1.9946800223438241e-01, 2.9897929902998568e+00,
          -1.7200240845002099e+00, 4.3930497997100426e+00,
          -2.0595534781839948e+00, -4.0833548001411817e+00,
          -1.4906728804353417e+00, -2.7821754568015220e+00,
          3.1106401971580064e+00, 7.4255860001336216e-01,
          9.8043670027204455e-01, -3.1787708517789208e+00,
          -1.3012433068180598e+00, -3.9507950734670243e+00,
          1.1302363191631091e+00, -1.5690944081557805e+00,
          -7.8241486005864092e-01, -4.4433666909206302e+00,
          3.8259599890573464e+00, 2.6274129578097325e+00,
          -2.1145132795384516e-01, -2.6207990636136724e+00,
          -4.3250013136735660e-01, -3.5666848986716532e-01,
          1.7951567241110592e+02, -1.3302836107522684e+00,
          -3.9715328770123719e+00, 6.9856985772532587e-01,
          -2.9408641818959302e+00, -1.2178607288206851e+00,
          4.2828105420010348e-01, 8.4144683148441002e-01,
          5.3101382758680427e-01, 1.3510944476890456e+00,
          -2.8302530077860450e+00, 2.5996572601418535e+00,
          1.2023304262733836e+00, -2.8107711386538026e-01,
          5.8524783661978430e-01, -1.0122989563503673e+00,
          3.9782839577548681e+00, -2.1177553291846820e+00,
          7.2581762505560898e-01, -1.8236293461380380e+00,
          2.3811795378771203e-01, -3.9261367292697386e-01,
          -1.4917533028719532e-01, -7.3287031922091372e-01,
          -1.0978296724798970e+00, 2.7958119665370882e+00,
          -2.1195052627488609e-01, 1.6475496995055613e-01,
          -1.7768898799366961e+00, 1.4270197074316417e+00,
          2.6213775856381147e+00, -3.6199533041201772e+00,
          -2.6434860915138128e+00, 2.0264714889868145e+00,
          5.3730705706238868e-01, 1.7143414020831071e-01,
          -9.5468003687290526e-01, -3.6360665918191294e-02,
          2.7449773699309943e-01, -8.5200133328879069e-01,
          5.1261831591137836e+00, 3.5683645068290420e-01,
          2.0164477529040803e+00, -3.0945607902765309e+00,
          -1.2389991079844960e+00, -1.4077366178257065e+00,
          3.0192422115004431e+00, -1.0848497307893026e+00,
          7.9080306364812702e-01, -8.3229884024587231e-01,
          5.0135171013884268e+00, -3.1826544392504434e+00,
          -4.1180522853349162e+00, -2.9781987052227659e+00,
          2.7537593234513846e-01, 1.4988497377448311e+00,
          4.3518235590269132e+00, -3.8009370906358281e-01,
          2.5581451740245198e+00, 1.5262736807134944e-01,
          2.1739146837802692e+00, -2.5787016753548770e+00,
          -6.1839397970322285e-01, -8.5971870868933176e-01,
          -1.6285806075960869e+00, 2.9205472069652827e+00,
          -1.0145418730428668e+00, -2.0132310361149769e-01,
          1.7085768269171597e-01, -2.9885039271643565e+00,
          -1.2170313381399336e+00, 5.4721636213618563e-01,
          2.7729881136676915e+00, 1.0192422195260697e+00,
          -3.2910797626312758e+00, 4.8437043479216974e-01,
          6.0495149145806482e-01, 1.3413495532923112e+00,
          -6.3922064169531652e+00, 4.0991558877156331e+00,
          -3.5836958508050687e+00, -4.8724260639391286e+00,
          -3.6208517031066347e+00, -4.4768596329371322e+00,
          4.6928684898499409e+00, 2.3185760989483546e+00,
          1.7930983687379571e-02, -4.8457160895550819e+00,
          -3.6595415188742336e-01, -3.3147823733251895e+00,
          2.9419494047195767e+00, -2.3503832379772240e+00,
          -7.1121247045625280e+00, -3.7219697225899839e+00,
          4.1402567267886301e+00, 4.0920044643486415e+00,
          2.1623416161484035e+00, -3.4560037431490898e+00,
          -1.8924856347646693e-01, -7.8878733067037229e-02,
          -1.6517842938156456e+01, -1.9679816118452618e+00,
          -3.8859062378551914e+00, 7.6902010151323430e-01,
          -2.0577197996421268e+00, -8.3379503855956227e-01,
          -1.0835862101527278e+00, 6.0029993308079419e+00,
          1.1025567803265950e+00, 3.0327409047361475e-01,
          -1.2145296101690481e+00, -1.0105010830471086e+00,
          3.7192650743162003e+00, 2.6966517101984353e+00,
          -1.9568285005466892e+00, 1.5393354639735932e+00,
          6.9189690235205881e-01, 3.2251259419393103e+00,
          3.8078417601254397e+00, -2.0359603816640295e+00,
          1.7885465924213484e+00, -4.7031295571547604e-01,
          -1.3521242027329048e+00, 2.0945611765009353e+00,
          -1.3973460460480402e+00, -3.3288711208307031e-01,
          6.1149178026051487e-01, -2.3500222613924771e-01,
          2.4793273734153982e+00, -1.1494306948544779e+00,
          2.1796224676416598e+00, -1.3494003439411519e+00,
          1.6128913970139547e+00, 4.3737315893254678e+00,
          2.1665205337639808e+00, -6.7335144084511334e-01,
          -3.8960760992618595e+00, -2.2365920039581062e+00,
          -1.1111081244567791e+00, 7.7877261919874297e-01,
          8.1251558556860051e+00, -1.7988935405237352e-01,
          -2.5045448740168537e+00, -2.1319537681384110e-01,
          1.8260724070490049e+00, -3.4132731369619904e+00,
          -9.5099503731468016e-01, 2.1790566370276450e+00,
          -2.8708859002506486e+00, 7.5830488209575464e-01,
          3.7866846883337293e+00, 2.8229025485453152e-01,
          -2.5935500735948569e+00, 1.6762297106749338e+00,
          -3.4434165061948332e+00, 1.8052461729472549e+00,
          3.9218415191557812e+00, -1.4628538498691393e-01,
          3.2733511468462422e+00, -8.4516832082410931e-01,
          1.0060920077872015e+00, -3.9559328604481889e+00,
          2.0962998475593988e+00, -1.0072327064091415e+00,
          7.6113820086935373e+00, 4.3719331146659215e+00,
          -7.8394522204394690e-01, -5.6130234320253725e-01,
          1.1115411176874197e+00, -2.1951234353094411e+00,
          2.9646185364589970e+00, -3.6270950542458378e+00,
          3.7930521842022986e+00, -1.6260521091448490e+00,
          3.2979532041976847e+00, 2.0960011658642159e+00,
          1.4383275377341496e+00, -1.2894869792112391e+00,
          -5.0763561330747571e+00, -1.9712440188310094e+00,
          2.0453336320040076e+00, 5.2699089072371995e-02,
          -2.6309580394778882e+00, -1.1065396259732363e+00,
          9.1088964011090442e-02, 3.7931484807998701e+00,
          4.6907150135366621e-01, -6.0791524596383939e-01,
          -9.6155945931133580e-02, 3.8540241714328088e-01,
          5.2379635599958867e+00, -7.2396622041100189e-01,
          8.2590095032289779e-01, 2.2365214897794186e+00,
          -1.9852151760102612e+00, -1.7669602797881889e+00,
          1.2757597592401058e+00, 9.3236193131768022e-02,
          7.6068131668306560e-01, -9.1608874808983298e-01,
          -9.6813349049501781e+01, -1.2348050245204747e+00,
          -3.4703873498872078e+00, 9.8545533824256559e-01,
          -6.9014465785908785e-01, -1.3635723933713398e-01,
          -1.2253930628135015e+00, 7.0844408076590817e+00,
          1.5499825612059630e+00, -4.5961910055394523e-01,
          -1.0748165111333885e+00, -6.7606588053513150e-01,
          4.0714729742565829e+00, 3.3093234047764870e+00,
          -1.9152778063086968e+00, 1.9909061634838550e+00,
          -2.4772000853454110e-01, 4.3732593357080258e+00,
          5.0211562246251180e+00, -7.0395686012155101e-01,
          2.0114505717140125e+00, -3.7925915039368396e-01,
          -1.5928875585614481e+00, 2.0221659155110436e+00,
          -2.3853805476090844e+00, -6.2585455121211253e-01,
          2.1153201722549367e-01, -3.4427623926192197e-01,
          2.6937254036026128e+00, -2.0810824430122365e+00,
          1.9718922197179534e+00, 8.7812864198238438e-01,
          2.8015170958458304e+00, 4.2275497295131403e+00,
          2.3079164808689225e+00, -7.5159645287485988e-01,
          -4.1884851162063361e+00, -2.0898927194073869e+00,
          -1.7860686496987732e+00, 9.2312372020754918e-01,
          5.6835819072615026e+00, -3.3678830440400492e-01,
          -3.5351067046926805e+00, 6.3855211871856932e-01,
          1.9429757153764851e+00, -3.6543750710198371e+00,
          -3.2201996078398309e+00, 2.6895379992525976e+00,
          -3.8731389214242968e+00, 4.8068686382022024e-01,
          2.3539799254378684e+00, 1.7008115134372077e+00,
          -1.4768499793875336e+00, 4.4346785778356841e+00,
          -3.2007398581710618e+00, 1.7859944139240773e+00,
          2.7028463344156188e+00, 6.7572375500993986e-02,
          3.8131044765747615e+00, -2.1045182549182280e+00,
          1.3252777686683548e-01, -5.0614226103972300e+00,
          1.0796804363150678e+00, -1.5203950395796069e+00,
          9.9616736471068350e+00, 3.6427739677173077e+00,
          -1.1459184554622599e-01, -4.5102633049846030e-01,
          1.4246558997133285e+00, -1.4055035084519769e+00,
          3.9632484672456507e+00, -3.6754359572358664e+00,
          2.5258017130323980e+00, -2.0494214821945547e+00,
          4.8209351123296198e+00, 1.9600942669383772e+00,
          1.8404911642613320e+00, -2.1627600768286985e+00,
          -3.0501412236833496e+00, -2.7419689001261482e+00,
          4.9416767209778376e+00, 1.7727786778629220e+00,
          -1.9694030555831736e+00, 9.5734667851437016e-01,
          -3.0302337092706386e+00, 2.0941748576184080e+00,
          3.7328783042905195e-01, 9.6871891568144231e-01,
          -2.2063689571747588e-01, 1.2458231715336920e+00,
          3.4471171258369773e+00, -7.3185834530698257e-01,
          5.4941121329279170e+00, 4.1832724470001343e+00,
          -3.4967587728053129e+00, -4.8035273060550585e+00,
          9.5238478940930216e-01, 1.0856824115467394e+00,
          7.1510047636918994e-01, -1.0947827874674561e+00,
          -1.0346119156720133e+02, 8.3057477652114509e-01,
          -2.9567885326284529e+00, 1.0692917061778384e+00,
          2.6625294587532056e-01, 6.8487504415495248e-01,
          -1.1439492807733505e+00, 5.2560928477507431e+00,
          1.7647539121610343e+00, 3.8485472308419016e-01,
          -1.2124209571670657e+00, 3.2150339257335576e-02,
          3.2483979481676184e+00, 3.0954610455660307e+00,
          2.6785139075422010e-01, 1.3101582230246982e+00,
          -1.4343739597504296e-01, 3.6592805869856613e+00,
          3.7251796244640616e+00, 5.8667959092178867e-01,
          1.3987182902770696e+00, -4.1532231299130085e-01,
          -1.2557640211307290e+00, 3.9312341891051189e-01,
          -2.5964671451919039e+00, 6.7323763271112536e-01,
          -5.6105950350218092e-01, -4.2882231954124606e-01,
          2.4800699561939825e+00, -1.3278639839717272e+00,
          1.7012901941441503e+00, 5.9122969757638244e-01,
          3.0942603605227075e+00, 2.4192098286676607e+00,
          9.5274004249462618e-01, -9.2980306006638636e-01,
          -3.9967748088441790e+00, -9.9545018682212194e-01,
          -2.9966932515702743e-02, 1.5102899939665475e+00,
          3.7330456392855003e+00, -1.2755560443143208e+00,
          -3.2750178225343376e+00, -7.4743363884795866e-01,
          -3.1771624725892428e-02, -2.1539958038015072e+00,
          -2.8178073454967727e+00, 2.0866423589762233e+00,
          -3.6048376431191267e+00, -3.7037226120181638e-01,
          2.3673423562447291e+00, 1.0887038809638794e+00,
          -1.6996389539373002e+00, 1.8288515351353161e+00,
          -1.7456687737336791e+00, 1.7185289512069042e+00,
          1.5907393577317024e+00, 3.4070031157288105e-01,
          4.4467844701659685e+00, -8.1364168569768536e-01,
          6.5143361111693621e-01, -4.1644284373475529e+00,
          -7.9768506417175800e-01, -1.6002926642939486e+00,
          7.0449215670421923e+00, 1.3023224215975762e+00,
          -5.5331548191543323e-01, -3.6710335327637922e-01,
          2.4434369758677210e-01, -9.8974539578803877e-01,
          2.4675862808646265e+00, -9.4016763232469769e-01,
          1.6935629988669783e+00, -1.4200552583460500e+00,
          2.6325390791977079e+00, 1.4692606662455672e+00,
          1.9821447545030690e+00, -2.3231753585646802e+00,
          -3.1553706024561912e+00, -1.1281295804831404e+00,
          3.7236014539398679e+00, 5.9668862846118464e-01,
          -2.4111813529736632e+00, 8.7620987608904977e-01,
          -2.4383063153868938e+00, 4.0341226174884087e-01,
          -8.0200197693049857e-01, 2.2116630248577071e-01,
          5.1830080087279595e-01, 9.7653699487245837e-01,
          1.7055246070668111e+00, -3.6645618330738311e-01,
          2.9266515472647132e+00, 2.3538362743605656e+00,
          -1.7571836690007117e+00, -2.7682941857365084e+00,
          1.5142625716923361e+00, 5.4005104431921247e-01,
          5.2974903038152099e-01, -1.7350341005103448e-01,
          -1.0048098504193933e+02, 2.8184928224837922e+00,
          -1.7403750050302103e+00, 1.1823647106890254e+00,
          8.0595081914099109e-01, 1.4106764708686212e+00,
          -1.1240315927053608e+00, 2.9665515062194845e+00,
          1.9058686986776967e+00, 1.2861791588490319e+00,
          -2.2498408809817150e+00, 4.5810379282018349e-01,
          1.9130680540357088e+00, 2.5534107646095956e+00,
          1.9447334152793327e+00, 1.1145518010331879e+00,
          1.4189804795761571e-01, 2.6141541016983769e+00,
          2.3923095468917559e+00, 1.6979638550424114e+00,
          4.2780372294164049e-01, -4.2174643823219915e-01,
          -6.4168054174792577e-01, -7.5572636701367102e-01,
          -2.2079174199129032e+00, 1.0843875151208080e+00,
          -1.5264696502000228e+00, -3.9738641646885742e-01,
          1.8613601780249280e+00, 3.2950884610709819e-01,
          7.1912828578956950e-02, -2.5280213300665821e-01,
          3.0650733211230450e+00, 4.9556043580839465e-01,
          -1.7383965049954400e-01, -1.1734105419130076e+00,
          -3.4481195271696778e+00, 4.4791932139997331e-01,
          1.9185182620934575e+00, 1.5001551732756471e+00,
          1.7611868020848671e+00, -2.2505569105684833e+00,
          -2.6617836179164747e+00, -2.2019426724785283e+00,
          -2.7247969101518104e+00, -6.2090071488186671e-01,
          -1.6166170872865451e+00, 6.2299924348350688e-01,
          -2.4869150382064773e+00, -1.2545630268850723e+00,
          2.6434175033058365e+00, 4.0551106943202719e-01,
          -2.0088677772884775e+00, -2.2896928488067525e+00,
          -1.2134802052436022e+00, 1.7077740077253349e+00,
          -3.7550558858412193e-02, 1.0829576173631359e+00,
          5.0107384783827875e+00, 6.7506287341247861e-01,
          1.5010803623058797e+00, -2.0156779543432539e+00,
          -2.6979605944659508e+00, -1.6289040102108183e+00,
          4.1421221859367705e+00, -6.6664030401845942e-01,
          -1.4113522295198666e+00, -3.8748072526469607e-01,
          -1.1468505463364722e+00, -3.6078952979730561e-01,
          -2.1264824999173504e-01, 1.5259942399604598e+00,
          5.6696829983306274e-01, -5.0907377145150967e-01,
          3.3466491733761994e-01, 1.0291995972494641e+00,
          2.0146949373592187e+00, -3.1484275174365197e+00,
          -3.6423736674254896e+00, 9.2337722361861396e-01,
          2.1019839309231121e+00, -7.8506176625731405e-01,
          -2.9484209015993375e+00, 1.3542305232242180e-01,
          -1.1897360530042143e+00, -1.1018942540598597e+00,
          -2.0982036133389470e+00, -6.4252821747284083e-01,
          1.2799040945920652e+00, 4.9927691902886956e-01,
          8.5607366030214038e-01, -6.6777518431188537e-02,
          -4.7152737937897491e-03, -2.2594977677022038e-01,
          -1.5369261699841946e-01, 1.1292009676097994e+00,
          2.6720101369001337e+00, 7.4730647850396667e-02,
          3.8775060370408293e-01, 9.9091138701183845e-01,
          -1.0608558740338650e+02, 3.7612715751820649e+00,
          -1.0199793003949229e+00, 1.3854715635054289e+00,
          5.0061468142397769e-01, 1.3859246472060216e+00,
          -1.1632762795182292e+00, 1.2184233558060786e+00,
          2.1541711995370036e+00, 1.7938748204665307e+00,
          -3.2679783994978133e+00, 2.2198102049559457e-01,
          1.1528076492246138e+00, 2.0829713118520696e+00,
          2.8099445969401651e+00, 1.2443777557434512e+00,
          5.9581669927419467e-01, 1.9084298094349348e+00,
          1.4196488447579514e+00, 1.9072068918776455e+00,
          -1.7972164985417313e-01, -4.2269504516728806e-01,
          -3.0798611359467926e-01, -1.0930086170695139e+00,
          -1.5209765589443447e+00, 8.9400460731102027e-01,
          -1.7278508548565890e+00, -3.3589510235093079e-01,
          1.9566163743238680e+00, 1.3816128044100466e+00,
          -1.1818747655565454e+00, -8.3453650756739106e-01,
          2.8501121169892172e+00, -6.2488690493255794e-01,
          -8.2917392378971178e-01, -1.3998291348398979e+00,
          -3.0719358378705990e+00, 1.4014240193138234e+00,
          2.2238637759680864e+00, 1.6730559950566606e+00,
          3.2067299765491702e-01, -2.9379971482830669e+00,
          -2.3657983224017372e+00, -2.5612154789074042e+00,
          -4.8290215213165206e+00, 4.9753919525266255e-02,
          -1.0815264364507995e+00, -2.8788173958851715e-01,
          -1.6234797377448607e+00, -1.6527044085695963e+00,
          2.5402880445642815e+00, 3.0462415904441892e-01,
          -1.8888992790239765e+00, -4.7881463135849858e+00,
          -1.2710204509177236e+00, 1.6842672608401477e+00,
          -1.3783246228942774e+00, 1.6692152598861560e+00,
          5.3343252350089392e+00, 1.5588379187929211e+00,
          2.0519533935312286e+00, -6.1376185394175653e-01,
          -3.8134004069552243e+00, -1.8017607549622741e+00,
          2.9348795044062808e+00, -1.8398212610643472e+00,
          -1.4940208272551398e+00, -4.0028356944927351e-01,
          -2.3023173613619856e+00, 2.5879014325852184e-01,
          -1.6690416162630104e+00, 2.9085712771341599e+00,
          -3.1942240997947513e-01, 2.4122152655642998e-01,
          -1.2104325648631755e+00, 9.5599925387682738e-01,
          2.0478538014158003e+00, -3.6205539364400452e+00,
          -3.0702814000618326e+00, 2.3180564865027309e+00,
          1.0347291719941580e+00, -1.6536295458563071e+00,
          -3.1586513596802064e+00, -3.7939072064115104e-01,
          5.9624168544044611e-03, -1.7025820554820887e+00,
          -2.8103546392211154e+00, -7.7328434377005395e-01,
          1.7060612447279300e+00, 1.0920690088470482e-01,
          5.6949519492906997e-01, 6.0396112772510266e-02,
          -8.2386068021017722e-01, -1.7261239341465693e+00,
          5.9085218820237551e-01, 3.8626986705273705e+00,
          3.5437358609938405e+00, -2.7549438304277607e-01,
          2.9714056063839372e-01, 1.5743702891512754e+00,
          -1.1543289366370757e+02, 4.2966393150843842e+00,
          -5.4176448600258298e-01, 1.5799285297416683e+00,
          8.3342997320336842e-02, 1.1353108724252088e+00,
          -1.1936360025907617e+00, 5.7802779849792141e-01,
          2.2978247000281984e+00, 1.7462842116454393e+00,
          -3.8995623998564404e+00, -4.0280167030129030e-02,
          7.5482567212569973e-01, 1.3833602894080765e+00,
          2.8840117959700318e+00, 1.4538241701364476e+00,
          9.0743879730864896e-01, 1.6130288013874408e+00,
          9.1629809598923140e-01, 1.8292157505366866e+00,
          -6.6807584338892545e-01, -4.0872080604580968e-01,
          -3.1047210487156840e-01, -6.2123829806054720e-01,
          -1.2822285991320119e+00, 5.8945526801915904e-01,
          -1.6392499164459629e+00, -1.5660377174300250e-01,
          2.1762270421618854e+00, 1.6877738130373370e+00,
          -2.2855508659027697e+00, -6.6816772311042205e-01,
          2.6446677708440385e+00, -1.1184350809482597e+00,
          -1.4703108965924951e+00, -1.3733643630004939e+00,
          -3.0765260239451564e+00, 1.4058479068866656e+00,
          2.0698886035483142e+00, 1.8831299630789258e+00,
          -2.7555799747198439e-01, -2.7547564506342290e+00,
          -2.4442967393723163e+00, -2.5184814942484124e+00,
          -5.4282982482037676e+00, 2.7361519460206368e-01,
          -6.0055471240847846e-01, -6.3442886430406931e-01,
          -1.6089001463569914e+00, -1.8141918020897194e+00,
          3.2638987831147119e+00, 6.3050393505825109e-01,
          -1.8947864048216401e+00, -5.6832866377136373e+00,
          -1.6003063906228172e+00, 1.6723075731365766e+00,
          -1.9496082050361294e+00, 1.6536351203955058e+00,
          5.7411270490363417e+00, 1.7243162114445123e+00,
          2.1366064539298879e+00, -1.3669415296411558e-01,
          -3.9754450920561286e+00, -1.9446091901172438e+00,
          2.5718546018289272e+00, -2.3891703948018792e+00,
          -1.2180660827642940e+00, -3.7961125895681619e-01,
          -2.7568336377375062e+00, 6.9620656922621948e-01,
          -2.1190224001384199e+00, 3.6100747755181990e+00,
          -1.0550706569349835e+00, 3.9849245597346383e-01,
          -2.4127438058188262e+00, 8.9407833601664199e-01,
          2.0473984321671179e+00, -3.5924921538233199e+00,
          -2.0099135340322949e+00, 2.8516885806680414e+00,
          4.4865919891464390e-01, -1.4123943775661931e+00,
          -3.0996005152211143e+00, -5.5756363003233785e-02,
          7.6961321853609210e-01, -5.7858902478341545e-01,
          -3.0344539247693305e+00, -5.2114994011829374e-01,
          1.9232885990550483e+00, 1.7985132148123989e-01,
          6.1314263018707282e-01, 2.9156168692068091e-01,
          -4.2086615395725580e-01, -1.8929130428586325e+00,
          6.8716213157960482e-01, 5.3799880294704350e+00,
          3.6455770138537553e+00, -7.5043943474451674e-02,
          2.7056758388088298e-01, 1.8704974220259381e+00,
          -1.2019031269514757e+02, 4.4134168363339858e+00,
          -7.1280465571899887e-01, 1.5756486103051062e+00,
          3.6527975567982995e-01, 7.2722624059486551e-01,
          -1.0917989172900482e+00, 1.3058935552775006e+00,
          2.3269504045849465e+00, 1.0719571741297136e+00,
          -3.7789451286361557e+00, -1.0814464998894366e+00,
          1.7297089203050564e+00, 1.7259956560743039e+00,
          2.4001673900997065e+00, 1.4584139674602501e+00,
          6.6230066828350065e-01, 2.1966519972623146e+00,
          1.3440100915631601e+00, 1.7566936976611902e+00,
          -5.2030534674091655e-01, -3.5055996953067786e-01,
          -7.7463931202879266e-01, -3.7108809073341847e-01,
          -1.8720661700095893e+00, 3.1683137493499602e-01,
          -1.2757165174202854e+00, -1.8165990195551768e-01,
          2.6628431974033901e+00, 1.2026031782591700e+00,
          -1.8100809544193994e+00, 2.3629144284924639e-01,
          3.0792955246375699e+00, -7.6768783904235727e-01,
          -1.3660138752492446e+00, -1.3312851861956849e+00,
          -3.2919673616739233e+00, 8.2795345025226730e-01,
          1.4555320775903415e+00, 2.2061564283318980e+00,
          -5.8784416001433575e-02, -2.3121271930637448e+00,
          -2.8397056319614502e+00, -1.8008669247480866e+00,
          -4.9310453444205242e+00, -2.6449554621609361e-01,
          -1.5498312344754364e+00, 3.8393765319993822e-01,
          -1.8410056356793181e+00, -1.5933672575866862e+00,
          2.6201880064849901e+00, 1.3165626313546910e+00,
          -1.3487299562161408e+00, -4.7435436234639905e+00,
          -1.7274944943853718e+00, 1.4651308256023106e+00,
          -1.3625603485079030e+00, 1.1184429804195339e+00,
          5.4358740865112694e+00, 1.1934513640638553e+00,
          1.7984640198165533e+00, -9.9479492409361647e-01,
          -3.7647782752666297e+00, -2.0034935447265352e+00,
          3.5624009552595468e+00, -2.0589771377558228e+00,
          -8.3933095645074496e-01, -3.0338809660250565e-01,
          -2.3492979446406848e+00, 5.3497724867758523e-01,
          -1.2338203149627325e+00, 3.2021725266726695e+00,
          -8.7294624408195487e-01, 3.3927705105295934e-02,
          -2.1943970879453567e+00, 1.1269349684521486e+00,
          2.0054135174849961e+00, -2.6168337053540318e+00,
          -1.0437786862291629e+00, 2.2545820438911033e+00,
          1.0524825960608146e+00, -4.3919929759838283e-01,
          -2.8910581194801770e+00, 7.1294212608102303e-01,
          2.4221116977509330e-01, -7.6562188396273156e-01,
          -2.3316296591583128e+00, -1.8003863506586082e-01,
          1.6617634039963938e+00, 3.5151513298211212e-01,
          2.1799786015814973e-01, 2.4729892352355784e-01,
          1.7678009762646876e+00, -1.5691260510796108e+00,
          -2.4377465089298378e-01, 4.2960525273399277e+00,
          2.9138408512667540e+00, 2.0645082177740220e-01,
          4.0055486827487680e-01, 1.7745295220662736e+00,
          -1.1450414560965525e+02, 4.5088928353259066e+00,
          -6.0096169802534771e-01, 1.6838317071107887e+00,
          -1.9700458097666518e-01, 3.1499862811435096e-02,
          -1.2448597779017629e+00, 2.1370128451434738e+00,
          2.4380817379194286e+00, 6.3203801929361125e-01,
          -3.7408993730800235e+00, -1.9377279290407876e+00,
          2.1490691590346716e+00, 1.9505544486162920e+00,
          2.3455953799279174e+00, 1.6560474659137505e+00,
          5.5187551446940020e-01, 2.7332703197136445e+00,
          1.9375419076848901e+00, 1.6295440203801372e+00,
          -2.5730717669273045e-01, -2.6959346045151344e-01,
          -1.3589971537065773e+00, 4.1920408629696516e-03,
          -2.2319549939399135e+00, 5.6082465383143232e-01,
          -8.6308928161374754e-01, -1.6274508619100822e-01,
          2.9772422671859644e+00, 1.3074573740452891e+00,
          -1.9687715172079543e+00, 6.0243365118161618e-01,
          3.4044141895082785e+00, -4.8254079468735123e-01,
          -1.2043730597178310e+00, -1.2697783341624862e+00,
          -3.7520962075175297e+00, 3.6186700733201205e-01,
          9.9793720366820149e-01, 2.3577415403563720e+00,
          -2.1102416104627267e-01, -1.9319660141605275e+00,
          -3.3798390072731097e+00, -1.3868104206449445e+00,
          -4.6769609520818811e+00, -4.5949230803479935e-01,
          -2.2976616137802908e+00, 6.0782036539834738e-01,
          -2.4478688904517334e+00, -1.5585720991980914e+00,
          2.8327685739601329e+00, 1.8928130335937396e+00,
          -1.0028537315614283e+00, -4.2113853465136390e+00,
          -1.5229667567743099e+00, 1.2894368169152470e+00,
          -1.7881809115232030e+00, 1.2228846963112736e+00,
          5.0200733808653668e+00, 8.9742821880479196e-01,
          1.6051860345588231e+00, -1.5156984026635891e+00,
          -3.8909739303443893e+00, -2.1131805187218977e+00,
          4.4682232087730069e+00, -2.1160680171365049e+00,
          -6.8760840158683945e-01, -2.6597534288152219e-01,
          -2.2187486868213551e+00, 8.8808077039886657e-01,
          -7.2849239753470230e-01, 3.6690788132405991e+00,
          -7.9807130955143102e-01, -4.3059759207117571e-01,
          -2.7961937719541892e+00, 1.4451339819139095e+00,
          2.0747360987746379e+00, -2.1291168201540493e+00,
          -3.1523785317206748e-01, 2.1883498097385128e+00,
          2.1113939476294834e+00, -2.7275889944250775e-01,
          -3.0611755492874200e+00, 1.1418944517186074e+00,
          -1.7887120371417423e-01, -4.7827522842231079e-01,
          -1.7954092426192108e+00, 9.5631419800379688e-02,
          1.3971382045955480e+00, 8.1837224099250164e-02,
          -1.0029571768789389e-01, -3.2394882123118002e-02,
          3.8896975293242915e+00, -1.5246389325289775e+00,
          -6.6028470322480082e-01, 4.4120541120495735e+00,
          2.5551845839428866e+00, 5.2521515032511568e-01,
          4.4867228327271758e-01, 1.5939790972925953e+00,
          1.7578582948080933e+02, -3.2717357055401403e-01,
          -8.4545484424083106e-01, 6.5369388033729908e-02,
          -2.8605760793726911e+00, -3.3659499098790207e+00,
          1.1490727749230347e+00, -1.0194832623425888e-01,
          -1.9343582597551709e-01, -1.0324726438594007e+00,
          1.0093017717203181e+00, 9.7484625432759819e-01,
          -2.2957408329429256e+00, -1.7975883451307142e+00,
          -1.0513417837552441e+00, -6.8156268413604326e-01,
          1.5772853105162696e+00, -3.7232787903322082e+00,
          1.7181678050363904e+00, -1.5060413727911337e+00,
          -1.0196842225032469e-01, 3.7516975904022304e-01,
          1.4940288843724014e+00, 3.8333545286070052e+00,
          -1.0770259100038990e+00, 1.4993222997674540e+00,
          1.7421891288612608e+00, 3.3678374271519852e-02,
          -2.3383544258947890e+00, 2.9194025803434811e+00,
          -2.0707902201368045e+00, -1.6350664026087069e+00,
          5.9570236916107891e-03, 2.6470834774598306e-01,
          1.6429604953622197e+00, 1.3675272983108147e+00,
          6.1345541346341581e-01, -1.2724894731796805e+00,
          -2.4979060114618350e+00, -1.1622047607172341e+00,
          -6.7517832252239851e-01, 2.4091752123720482e+00,
          6.9940223037950866e-01, 1.5616922105884752e+00,
          3.0041281142898585e-01, 1.1499418234518406e+00,
          1.2269736364122301e+00, -2.4829126471615619e+00,
          9.8880828532502274e-01, 3.8527191660640481e-01,
          1.3382935659396857e+00, -1.7955503500829200e+00,
          1.9874647883523719e-01, 4.4988706126787564e-01,
          9.1660050908758717e-01, -6.5772788930239512e-01,
          -2.4222605534280235e+00, 2.7792657044479918e-01,
          -1.6660250079481143e+00, -1.6476656197371868e+00,
          -1.8792021683788496e+00, -2.9937232219692106e-01,
          2.2170339795264465e-01, -1.0212521593790282e-01,
          -1.0509509160021577e+00, 2.1580530068600240e-01,
          1.8056181040585875e-01, 4.7567880486337560e-01,
          1.5704186271328917e+00, 7.6707371699312465e-01,
          -2.1915314287079934e+00, 2.1297731498718217e-01,
          -2.6812667784360702e+00, 8.4049502368277268e-02,
          -1.5614178280126234e+00, -4.0800006965288604e-01,
          -3.4955927949808596e-01, 1.9302616236390133e+00,
          2.0126636045323043e-01, 2.8714891554431832e+00,
          1.2392941676405278e+00, -3.1138488798643249e+00,
          3.9645335183691643e-01, -2.1365345509885261e-01,
          5.1904769943293017e-01, -1.4190727313695743e+00,
          9.7887287474519535e-01, 2.7344091423881733e-01,
          -1.3649236022136948e+00, -2.1981523404438277e+00,
          5.0594930612803490e-01, -2.0996811436490677e+00,
          1.0458216512946259e+00, -2.4794528247354779e+00,
          2.3393424424126903e+00, 8.5136088226127815e-01,
          -7.4896814423439850e-01, -6.9598570260198311e-01,
          -9.4436818410008383e-01, -1.0326186469625096e+00,
          1.7260865816076844e+02, 6.3239498306082220e-01,
          -1.2813683644998322e-01, 2.4414590366146857e-01,
          -1.5379460814144401e+00, -2.8858765001658098e+00,
          1.3841810323411134e+00, -1.8561604710668516e+00,
          2.0237471144959655e-02, -1.4743703552877369e-01,
          7.7445146179806146e-01, 1.9912553422023287e+00,
          -2.6215810472961136e+00, -2.1732140048511699e+00,
          2.4531899382039163e-01, -1.2510725056533971e+00,
          1.5614563375402588e+00, -4.0530651737245904e+00,
          6.4623770662683000e-01, -9.8795669824877230e-01,
          -4.8462782782625041e-01, 3.4797696802901762e-01,
          1.8965706036999077e+00, 2.6622095678178246e+00,
          -5.7821443587306598e-01, 1.7468925802448763e+00,
          1.2011339572949420e+00, 6.9176113942975556e-02,
          -2.3691035160838418e+00, 3.6682233405173599e+00,
          -2.3785733468421899e+00, -2.0652401560113200e+00,
          6.6447296831485800e-02, -5.8342701954062737e-01,
          9.4973321513677933e-01, 1.3350668879275294e+00,
          1.3497522410768743e+00, -9.2775164411560678e-03,
          -1.0894769896040117e+00, -1.0307302787502266e+00,
          -1.4346770138065652e+00, 1.7460621462599324e+00,
          1.2960288039586125e+00, 8.0643680929853867e-01,
          -9.1011079602314027e-01, 2.3475253266500666e+00,
          1.9653658188615288e+00, -2.8580155430211098e+00,
          1.7062752214367110e+00, -1.0391830332237105e-01,
          1.8637398205500406e+00, -2.3720845026665764e+00,
          7.2571057944982614e-02, -2.0919346199269264e+00,
          1.7567025896448394e+00, -4.4109620606011435e-01,
          -2.9207135129495216e+00, 3.4084448803318051e-01,
          -1.1024765756013772e+00, -7.9786818792101288e-01,
          -1.6528971777838533e+00, 5.8565548193927819e-01,
          -2.2945059817094754e-01, -2.1585240756347879e-01,
          -3.0264013001025258e+00, -1.0157043896683760e+00,
          -3.0666877971176426e-01, 5.3515321280266603e-01,
          8.5049640167824581e-01, 1.2398750997060406e+00,
          -3.2622119020630391e+00, 1.3984421507581228e+00,
          -3.2273498826434985e+00, 6.6024483037946913e-01,
          -2.7418009214765813e+00, -9.2064760348475927e-01,
          -2.5004232499262569e-01, 1.5026464104089357e+00,
          -1.1221948828309444e-01, 4.0772422716185339e+00,
          1.0070249948372742e-01, -4.0232298692553385e+00,
          7.8408559985387358e-02, -6.5872954017233465e-01,
          1.0671637029597612e+00, -2.5560228413275241e+00,
          1.4188762824789039e-01, -3.0419123427145950e-01,
          -7.3819840891022703e-01, -2.2797832345785070e+00,
          -3.6513496423143771e-01, -1.8545884159311501e+00,
          -8.1466106411922223e-01, -3.9669296471838034e+00,
          3.3316226296818052e+00, 2.1923884404412384e+00,
          9.9729314207738548e-02, -1.1429110579688597e+00,
          -1.1410545494986919e+00, -4.6475824644369695e-01,
          1.6306446191339336e+02, 7.2810410122467595e-01,
          2.3134431134908379e-01, 1.8432124097787225e-01,
          -1.6153063518241049e+00, -2.6697170653492326e+00,
          1.1657741582294667e+00, -1.8430152533501778e+00,
          -1.2171266557382853e-02, -3.4770807156722966e-01,
          1.2189149792843901e+00, 1.7452012182757042e+00,
          -2.5477319813734480e+00, -1.8195130305496348e+00,
          3.3484046941259016e-01, -1.1614822930613766e+00,
          7.8514447097472873e-01, -3.4997958653929926e+00,
          4.9837204637550370e-01, -1.3185146651773407e+00,
          -4.4959383556972610e-01, 3.9933882422498518e-01,
          1.6829250207943125e+00, 2.6556174371978081e+00,
          -6.6245261947323697e-01, 1.6464912381858388e+00,
          1.2836203067740319e+00, 6.8479408179075330e-02,
          -1.9894913975606023e+00, 3.4799234874607681e+00,
          -2.1275483805436450e+00, -1.6148606839390556e+00,
          4.4534232083674957e-01, -6.5786285072738326e-01,
          1.2920399933803259e+00, 1.2360980878223164e+00,
          1.4982315123755579e+00, 1.8175234546980858e-02,
          -1.2054464859870451e+00, -7.2614443675537177e-01,
          -1.7799361457681087e+00, 1.6869759461337990e+00,
          1.2600325964508292e+00, 9.8098799793160951e-01,
          -9.2856032051397697e-01, 2.5179459913312785e+00,
          1.3663716389527585e+00, -2.4263325431050791e+00,
          1.6300023871061968e+00, 1.1889525327214000e-01,
          1.5279174826611732e+00, -2.1887034024437355e+00,
          5.6613060524827852e-01, -2.0617924298361170e+00,
          1.6989266106071998e+00, -6.4560848381526892e-01,
          -3.2619751930049050e+00, 2.2632177891663696e-01,
          -9.6734797909988457e-01, -4.8711145762545160e-01,
          -1.7228216328959505e+00, 3.6571566765895774e-01,
          -3.9666684395091750e-01, -1.2858240651227443e-01,
          -2.7870096681020944e+00, -1.4281607432092989e+00,
          -7.6966338894885453e-02, 5.4892143485780698e-01,
          8.7372470797353496e-01, 1.2140939973095841e+00,
          -2.9504052839529487e+00, 1.3809757982011339e+00,
          -3.0496932802559469e+00, 7.2495078911575039e-01,
          -2.6657141218053648e+00, -9.8382651124321652e-01,
          -3.0817417871123093e-01, 1.6616721669668195e+00,
          3.9181450960031711e-01, 3.4251999379678404e+00,
          7.9021756794985820e-01, -4.3817858338757398e+00,
          4.1892054429092412e-01, -2.8372778187525438e-01,
          6.3548156814238599e-01, -2.8567652322073380e+00,
          1.8038966714692195e-01, -1.5248968139919769e-01,
          -5.7276658043597561e-01, -1.8704663091194529e+00,
          -5.4058282827385196e-01, -1.3512533175965109e+00,
          -7.8559712638881285e-02, -4.1492003502962733e+00,
          3.6329559270191289e+00, 1.7303532668101524e+00,
          5.2792544898454065e-02, -1.0969244227089352e+00,
          -1.1215698152958908e+00, -2.4709178093336459e-01,
          1.4405080480236435e+02, 1.0155183024279336e-01,
          3.6862904600243673e-01, 1.1928820110888576e-01,
          -2.3625331199889259e+00, -2.6713884379473098e+00,
          7.7618205585305888e-01, -1.3738623445456566e+00,
          -1.7204021509288382e-02, -1.2840107156169560e+00,
          1.9949484860350069e+00, 1.0176884869027518e+00,
          -2.2120371032688237e+00, -1.2330679451731215e+00,
          -2.5428423675778974e-03, -1.0364933130671663e+00,
          -2.4347527150710749e-01, -2.2856100807071962e+00,
          8.3363060058597593e-01, -2.0161256970444263e+00,
          -1.6615083603599726e-01, 4.7055100426748314e-01,
          1.4217328064950092e+00, 3.4144253436348864e+00,
          -7.7811979296957112e-01, 1.1122614784362157e+00,
          1.8664273072030757e+00, 4.4724842907091007e-02,
          -1.3134728802361209e+00, 2.8170895552360511e+00,
          -2.0569687663671266e+00, -6.0618084929799154e-01,
          8.6537884992394598e-01, -3.2298135390495841e-01,
          1.8285536938557061e+00, 1.1780547281045592e+00,
          1.3159270132130279e+00, -4.7304462537150938e-01,
          -1.8341030663954658e+00, -5.4463063458401251e-01,
          -1.8920789833056562e+00, 1.5848240678504735e+00,
          9.1324000777162451e-01, 1.6910904747023383e+00,
          -5.4516606690735991e-01, 1.9785998046366264e+00,
          1.1586189021729495e-01, -1.4416096653721313e+00,
          1.1525795757770625e+00, 6.6708097716996673e-01,
          1.3183093328010274e+00, -1.8535935383945399e+00,
          1.5574384686061324e+00, 1.2740588731447565e-02,
          1.4551839263500657e+00, -7.5815210644219266e-01,
          -3.2589397303928163e+00, 1.6388756591673026e-01,
          -7.8069502495101040e-01, -5.1922687541277623e-01,
          -2.1185371502365764e+00, -1.4068933332863193e-01,
          -2.2477525714143481e-01, -9.6943981160506509e-02,
          -1.1853176257029461e+00, -1.5463030845873351e+00,
          5.5262060717008943e-01, 5.2904708504966846e-01,
          1.4098976100644940e+00, 1.0722550512126092e+00,
          -2.2774638327593553e+00, 7.9426204213448737e-01,
          -3.0181987425200116e+00, 6.6434762337219000e-01,
          -1.6784178470344242e+00, -9.6541831416166346e-01,
          -3.0458984779672149e-01, 2.0618075519473495e+00,
          1.4372158833376696e+00, 2.2096861177346367e+00,
          1.9219993274638680e+00, -4.4090666821561300e+00,
          9.2298277564020226e-01, 7.1626943330980741e-01,
          -7.8433422631592653e-01, -2.3970019434976684e+00,
          5.4295673563543712e-01, 6.9337698901590339e-01,
          -6.2680488771812659e-01, -1.3224824457340154e+00,
          -3.9390421419999971e-01, -7.4926425244105210e-01,
          1.3865688482450791e+00, -3.7244653099685827e+00,
          3.4431857646898352e+00, 2.3866564576756624e-01,
          -2.9796680967240591e-01, -8.9557144298392144e-01,
          -1.1044048153339792e+00, -2.6220940560966305e-01,
          1.0877152037388841e+02, -1.7736679037688616e+00,
          5.0723151402377242e-01, -1.8528098394059181e-01,
          -3.7711514383130700e+00, -2.7034929249475783e+00,
          8.8253303938654881e-02, 1.7970020253432198e-01,
          -1.4236288618903573e-01, -3.0743865137054458e+00,
          3.0482001175570801e+00, -5.7935291043324899e-01,
          -1.5547839987749761e+00, 2.1497676797327550e-01,
          -9.4310946624648173e-01, -6.1806718788730186e-01,
          -2.3580710478207623e+00, 1.6286320682504629e-01,
          1.3619572438454104e+00, -2.7287451076552438e+00,
          3.9007235629444265e-01, 5.2368686355163208e-01,
          7.0789379362560545e-01, 3.7049006916306455e+00,
          -1.5025295984682949e+00, 4.9142422597902602e-01,
          2.7210794408623804e+00, -4.9045903607649870e-02,
          -1.4468659937539466e-01, 6.3975739923793673e-01,
          -8.6721680413844648e-01, 1.2620532452137103e+00,
          1.4933305274812805e+00, -7.3986777746080049e-02,
          2.5863320270199095e+00, 8.6122682533439332e-01,
          8.2817779085836418e-01, -1.7958343426694663e+00,
          -2.8922306602935244e+00, -2.5990249458529541e-01,
          -2.0106469881278595e+00, 1.5291105527531939e+00,
          1.3589209083277023e-01, 2.0648206550882673e+00,
          6.4621037421383509e-01, 8.8335003726962247e-01,
          -2.1782469089396188e+00, 1.8866597991812489e-01,
          3.2770142184346857e-01, 1.5816915536750535e+00,
          -8.9748045357075409e-02, -5.3330077899790840e-01,
          3.1601755644643936e+00, 2.8397019063223214e+00,
          8.0092834672522228e-01, -1.1493881309045182e+00,
          -3.2854189500246247e+00, -2.6908727181075853e-01,
          -8.0011771869763726e-01, -5.8938685237353017e-01,
          -2.7453675074299317e+00, -1.8352005130236517e+00,
          -5.6525796928494909e-01, 2.9096325010878094e-01,
          1.6737174236918730e+00, -1.2189744976194976e+00,
          1.6675338147849268e+00, 5.0579413705766763e-01,
          1.7808671210915625e+00, 4.8694231570759927e-01,
          -6.2987642699300650e-01, -2.5784378581421724e-01,
          -2.5476716744539223e+00, 5.7438923760381400e-01,
          -6.0983002621597920e-02, -1.0356567635015759e+00,
          -2.8577438439629077e-01, 2.4020021860177514e+00,
          3.1552265195907969e+00, -9.7177414465917966e-01,
          3.9173967265167895e+00, -4.1086004053673095e+00,
          1.7565796176924751e+00, 2.6004459700489546e+00,
          -3.5128835815743344e+00, -2.2146328817385865e+00,
          1.1189799782751995e+00, 1.7109714916201524e+00,
          -8.2892931703720552e-01, -1.0319975910269087e-01,
          -3.3213133223957531e-01, 2.8711250819212408e-01,
          3.6528994580158716e+00, -2.8952204043268615e+00,
          2.9410794368220770e+00, -2.4694309645145029e+00,
          -1.2788102364232663e+00, -7.0301336568760964e-01,
          -8.8787383612922999e-01, -4.0612471578548681e-01,
          -3.0975840668488896e+01, 3.0939075361702875e+00,
          3.2349441298969142e+00, 1.2235557091101399e+00,
          -1.5113768209811562e+00, -1.6313087426817019e+00,
          1.1457613664628756e+00, -2.0831648661398994e+00,
          3.3419591514792829e-01, -6.7114493980844669e-01,
          -1.6380641197510662e-01, -9.3353523202171296e-01,
          1.9540312315187374e+00, 1.3314409806957863e+00,
          2.8850627385592746e+00, 2.4477519540174764e-01,
          -1.3799644838689833e+00, -4.5125036213036640e-01,
          -1.7296002882785522e+00, -1.7603943626527336e+00,
          -1.0982216642754081e+00, 4.1416226933980971e-01,
          -6.2331150050474071e-01, 2.2326465685543009e+00,
          1.3531637415527713e+00, 2.4491974045523275e+00,
          3.1263124422345570e+00, -3.1922253961285607e-01,
          -5.2220964416214444e-01, 7.7006272370720785e-01,
          2.1903565079169951e+00, 1.6532954203333412e+00,
          6.5016088135234962e-01, 1.2946207793567366e+00,
          -4.4320773527692641e+00, 7.2727820534493848e-01,
          1.8694515732541153e+00, 2.4831417334946271e+00,
          1.5416850342144961e-01, 1.9099419985253780e+00,
          -2.2952206224031588e+00, -6.5464256503943319e-01,
          1.4014828920581079e+00, 7.0119583334953806e-01,
          -2.1366687872876335e+00, 1.7403789576708764e+00,
          -2.4702519271459549e+00, 1.3979266943982205e-01,
          2.3415247960339931e+00, -1.4647849324786135e+00,
          -4.2877695062429719e+00, -9.5426673046107191e-01,
          4.6888331496651965e+00, 2.3699974751169668e+00,
          -4.9244553941304661e+00, 4.1740270472336932e-01,
          -9.9412847187354170e-01, -6.4923375820169438e-01,
          -1.9141178153758114e+00, 3.8526653420831125e+00,
          -1.1213149335695823e-01, 5.2488723670200055e-01,
          -3.1238663470794675e-01, -1.3809772569884102e+00,
          -3.6043513010456523e+00, -2.4355557665465994e+00,
          1.8606502345651941e+00, 4.2846524987245066e-01,
          -3.9471872196200981e+00, 6.3974328055183505e-01,
          -2.2803370055343524e+00, 2.1070475606797197e+00,
          -2.6394843735333046e-01, 7.7884182762325116e-01,
          -3.9890038956203631e+00, -7.9455905968233276e-01,
          -5.8155616131727816e-01, 2.0461665662626096e+00,
          2.1004104937158599e+00, 9.9277552986016968e-02,
          1.3416720448606485e+00, -1.6981393838978855e+00,
          -6.7446420309634381e-01, 2.5730960528331668e+00,
          -2.4905915821056021e-01, -2.6386920290655116e+00,
          -2.7525623499947200e+00, 1.4431897553064204e+00,
          4.4391254682009945e-01, 4.1304142952970341e-01,
          -2.8090518493774188e+00, -1.2732759985143380e+00,
          -3.2316223053319990e+00, -2.5197188489138491e+00,
          -8.0042124700433814e-01, -1.3713771424793013e+00,
          -1.1882329198975241e+00, -5.1015087402375855e-02,
          3.2538892594151064e-01, 1.6515481093005149e+00,
          -1.2453295808702502e+02, 3.0962293338305913e+00,
          2.3793612554781416e+00, 1.2251610205016525e+00,
          -2.1727806073035687e+00, -3.1178244201115662e-01,
          -2.6830735206630446e-01, 3.9802852669836669e-01,
          5.9020875062743516e-01, -9.2454739628827975e-01,
          -1.3656469396382664e-01, -2.8210922881147327e+00,
          3.4002074372079409e+00, 2.6106671857243682e+00,
          2.5278467619959959e+00, 1.1106718436397442e+00,
          -1.9084811852332784e+00, 2.4268522674859949e+00,
          -1.4540514785611698e+00, -1.8865273810443919e+00,
          -8.9057621839941203e-01, 2.6861019817865028e-01,
          -1.9185018046572566e+00, 1.2571150979906414e+00,
          1.4454836059027332e-01, 1.9597810541984699e+00,
          2.2259193319198456e+00, -4.1444989782491598e-01,
          1.0854492147921404e+00, -5.4855467944078196e-01,
          2.8899199620538396e+00, 3.6477898059789498e+00,
          1.8779758789266299e+00, 4.4852810649556463e-01,
          -3.7995930552193133e+00, -1.3030848006304582e-01,
          -9.4638554210654327e-02, 2.1849653361907775e+00,
          -2.6524883892339401e-01, 2.4645488602660501e+00,
          -1.8723031704514124e+00, -1.8354395008999052e+00,
          -1.8971055429295966e-01, 6.6737718233352195e-01,
          -2.0115908462344869e+00, 9.4206666416736706e-01,
          -5.3930895423608369e+00, 2.3305620338245374e+00,
          1.0424959382138719e+00, -1.2896381718039680e+00,
          -3.4067795644747565e+00, 9.5414156266729111e-01,
          5.0594876226238341e+00, 1.3691299865671738e+00,
          -5.8879558837826060e+00, 4.0308281376334937e-01,
          -4.1612381178077507e-01, -2.4272178272572412e-01,
          -2.0220314418795500e+00, 3.8268237584710212e+00,
          4.1675827846884356e-01, -1.4082708398386334e+00,
          -2.2594247060670782e+00, -1.4652053235602689e+00,
          -3.2482222816687706e-01, -2.7514218848712138e+00,
          1.3409677432208502e+00, 1.8473531895855008e-01,
          -4.9477645528314351e+00, 3.4929829526948536e-01,
          2.1514803020713202e-01, 2.0923935322595533e+00,
          1.2624868444584343e+00, 7.4949872849937504e-01,
          -3.3235574123188334e+00, -7.7790391458860775e-01,
          -9.2805738667722654e-03, 6.2653586485180890e-01,
          1.7238648753204080e+00, -2.2508609596580160e+00,
          3.3634772815912464e+00, -6.8291741319133759e-01,
          -9.6653216635517258e-01, 3.6982612768795566e+00,
          -2.0050421357552666e+00, -2.9179262818678322e+00,
          -3.2097997795025162e+00, 8.4371662780311396e-01,
          1.0246781705977390e+00, 1.5438327001659968e+00,
          -2.0223951870049413e+00, -1.0305107107373928e+00,
          -2.3766022415082042e+00, -1.8202244306223194e+00,
          -1.4622119630871562e+00, -1.4116274278254368e+00,
          -5.4028257355932419e-01, 6.6889388624842538e-01,
          9.7710570669967911e-01, 2.0770616790034921e+00,
          -1.7830160638995739e+02, 2.1715182861782099e+00,
          7.3655925804571709e-01, 9.8693027542887957e-01,
          -2.7178546979204965e+00, 2.5205295912911907e-01,
          -1.2683390662176708e+00, 3.0637452843500133e+00,
          6.9264781770482853e-01, -1.8045041281670104e+00,
          -3.0671296581170260e-01, -3.9545284935451526e+00,
          4.7578211138982427e+00, 3.0539686442755607e+00,
          1.4688000034428184e+00, 1.8152223614913854e+00,
          -1.8134588376691940e+00, 5.1098609448680978e+00,
          6.8995457718036932e-02, -1.9169906411666877e+00,
          -5.3548838954220412e-01, 1.2056087679370159e-01,
          -3.3561337744004565e+00, 1.1775406987087180e+00,
          -9.2845094634625924e-01, 7.1866484524274854e-01,
          1.7332726060315884e+00, -4.4542892654475952e-01,
          2.5583993798583133e+00, -2.2744016163461676e+00,
          2.7301231085138458e+00, 4.2873598621718489e+00,
          2.7348115006835481e+00, 1.3998221630027281e+00,
          -2.1738799919821394e+00, -5.3951671547291946e-01,
          -2.4854694605517520e+00, 5.7365419411197494e-01,
          -1.3197377309310774e+00, 2.6508352065375589e+00,
          -1.4767894190880074e-01, -1.9773022534814213e+00,
          -2.0747831459303114e+00, 5.2647130507485607e-01,
          -4.1311799953353362e-01, -8.4638055902063425e-01,
          -6.4931064541138772e+00, 3.8595948975931362e+00,
          -1.2482244939278531e+00, -5.6918870612274186e-01,
          -1.1445376097949647e+00, 2.5399382166170339e+00,
          4.2777238033784366e+00, 2.3720768825515344e+00,
          -5.6011881588409391e+00, 2.6912138040172418e-01,
          5.8959055776994684e-01, 6.3823038997728967e-02,
          -1.1078241529855690e+00, 2.0638138606689460e+00,
          4.3887919626029043e-01, -2.8632673493330412e+00,
          -3.1237534536383844e+00, -1.2692911125075883e+00,
          3.6833397586243466e+00, -1.8126572580999676e+00,
          1.3813672542051454e+00, -1.3276080276654897e-01,
          -3.5706092921633448e+00, -4.0531726425088943e-01,
          2.1699117338543381e+00, 8.8542987857495037e-01,
          1.9813938919398790e+00, -9.1134745549717330e-02,
          -1.7569923379568657e+00, 1.9595463342756900e-01,
          3.2135638735601191e-01, 2.0594219390465901e-01,
          2.4327244259395115e+00, -4.4781539641406578e+00,
          4.4534016904241671e+00, 9.9842129415471359e-01,
          -5.6253537496477835e-01, 4.6020888159363720e+00,
          -3.2402330028915269e+00, -2.3807918148495139e-01,
          -2.1435196228190452e+00, 1.3298075123909663e+00,
          7.0882458229387046e-01, 2.2226561456721212e+00,
          1.8221194515926988e-02, -3.3770344187499624e-01,
          1.2569337636656102e+00, 5.7497439021122698e-01,
          -2.6921332373969751e+00, -2.5201082401826955e+00,
          -3.4609744886683314e-01, 1.5785977389474950e+00,
          1.3810474992902091e+00, 1.6124679492387040e+00,
          -1.8419077739876965e+02, 2.1315460176414307e+00,
          2.9840086248999464e-01, 6.5933251028022188e-01,
          -2.4429690813306455e+00, 5.7418193132913597e-01,
          -2.2002407257790826e+00, 3.5488826387239927e+00,
          6.7804945414340945e-01, -1.5664660161586887e+00,
          -5.3733174539601902e-01, -3.8596040959178657e+00,
          4.6775974388499888e+00, 3.3917745245130280e+00,
          1.1167424576337144e+00, 2.0175886297560952e+00,
          -1.8770240611206410e+00, 5.7414251337073923e+00,
          4.8406015523957896e-01, -1.6442110234686946e+00,
          -3.7673695573306420e-01, 1.4198449844627611e-03,
          -3.4278388262372057e+00, 5.2264008676175111e-01,
          -1.7876618824645323e+00, 2.4043381568397620e-01,
          1.2935037049987979e+00, -3.4572515159195721e-01,
          3.3508215170003894e+00, -2.6103657049007438e+00,
          2.9185820100010322e+00, 3.7467128924441893e+00,
          3.1961682198966632e+00, 1.4477965231878165e+00,
          -9.2398782671107649e-01, -1.1334335361270975e+00,
          -3.1874630673680966e+00, 6.8913417099066857e-02,
          -9.9366463400685778e-01, 2.7804444112681450e+00,
          7.3266269131001904e-01, -2.0358622575539371e+00,
          -2.8365249704837163e+00, -2.6762460354638545e-01,
          -2.8562675316957413e-03, -1.4609475375033312e+00,
          -6.5165247136150031e+00, 4.1614520433607387e+00,
          -1.8554152913498889e+00, -5.8468822995189372e-02,
          -1.3419299587273088e+00, 3.0305528798990697e+00,
          3.0944956450430761e+00, 1.2838267676695874e+00,
          -4.3758738598515263e+00, -5.3639643444431092e-03,
          9.7021963001033362e-01, 9.5285817032758083e-02,
          -6.8686188324585762e-01, 1.2869040634045894e+00,
          7.0347074090785700e-01, -3.1254798292503700e+00,
          -3.7754206047013716e+00, -8.8551718684723213e-01,
          5.0632173418798940e+00, -1.1754942475790484e+00,
          1.0046675139370906e+00, -3.2688492188764134e-01,
          -2.5337014080340547e+00, -8.4935904360358216e-01,
          3.0642268573369904e+00, 6.7142008676090059e-01,
          2.6632653029414914e+00, -3.8409539150742050e-01,
          -4.6605615285047719e-01, 7.0122425216352691e-01,
          3.6064360832302617e-01, -3.1784738425310860e-01,
          2.3436182284965184e+00, -4.7502150871694608e+00,
          3.9886844932794623e+00, 1.6347300521829258e+00,
          -4.6790983003922620e-01, 4.0839591901279952e+00,
          -3.1888914858840605e+00, 2.5540730277346063e-01,
          -1.1927618401822424e+00, 8.2679571552424691e-01,
          7.4187907133600306e-01, 2.4569423480370807e+00,
          7.1952252887793489e-01, 2.9518972336943233e-01,
          2.2361365952101728e+00, 1.1842601795921726e+00,
          -2.2030091447334486e+00, -2.8687109077804913e+00,
          1.4223718759376819e-01, 1.6236824699608257e+00,
          1.6121467815398467e+00, 1.5793567039304202e+00,
          -1.8031532094738262e+02, 2.2830632714429844e+00,
          2.7757658949477428e-02, 6.2812976112120311e-01,
          -9.9571710809275604e-01, 3.7377801215036771e-01,
          -2.1949011759559638e+00, 3.3537454573714562e+00,
          8.8361495534084566e-01, -8.6802075953708080e-01,
          -1.2312086987030340e+00, -2.7197511871503766e+00,
          4.5557067148063553e+00, 3.5294425617814933e+00,
          1.1415916347772193e+00, 1.5985967727570480e+00,
          -1.4262211212758873e+00, 5.7583917656297192e+00,
          5.7116825437993402e-01, -5.6137004809939117e-01,
          -2.8770214093786484e-01, -9.7227929103606253e-02,
          -3.0266085358807029e+00, 3.0433821352507950e-01,
          -2.5764606558306498e+00, -2.5636991484349331e-01,
          6.8943835976522994e-01, -1.6650072565519858e-01,
          2.9297774117889777e+00, -2.5191895839682781e+00,
          2.2291834009257068e+00, 3.4938130255122872e+00,
          3.3676018373918586e+00, 7.6951774582250465e-01,
          -1.1072936614285460e+00, -1.4021349897640789e+00,
          -3.3267482888961997e+00, -9.1687888006978213e-01,
          -8.7206442212932067e-01, 2.5032930123662251e+00,
          1.0547354846343613e+00, -1.7924118097894537e+00,
          -3.2581954037371963e+00, -4.1219804558318784e-01,
          -3.6826750966715804e-01, -1.6859628794221544e+00,
          -5.6396653862587574e+00, 4.1823293671272399e+00,
          -1.7078318374610493e+00, 2.8912319841942785e-02,
          -1.8262937697108146e+00, 2.9877460932404505e+00,
          1.9484429399663583e+00, 6.1511023716472335e-01,
          -2.7930489048667893e+00, 1.2309644118226297e-01,
          1.7082786766579816e+00, -2.3788929326388517e-01,
          4.7539424584183793e-01, 1.1221957100981037e+00,
          6.3417728421764896e-01, -2.6385567109133112e+00,
          -3.4320044831892615e+00, -9.0237295287619235e-01,
          5.2249474728725200e+00, -1.1863232299026056e+00,
          5.4185615950282173e-01, -2.9747360201390871e-01,
          -1.9168071831503712e+00, -6.2972208733092094e-01,
          2.5406876560832474e+00, 7.8627551398186779e-01,
          2.2504790615552541e+00, -8.1073122386985152e-01,
          1.0818340055864253e-01, 1.0470449111234597e+00,
          4.8902054300397096e-01, -7.8857473635977515e-01,
          2.3121187147796283e+00, -3.7020769245149401e+00,
          2.9950445907296745e+00, 2.5138978235769498e+00,
          -9.2954846052703588e-01, 3.7186467797730298e+00,
          -2.9964227585689507e+00, 2.6911208248259205e-01,
          -8.7813403708176996e-01, 2.0069515205320076e-01,
          1.0023644702299366e+00, 2.2657496478504924e+00,
          4.6156350036163135e-01, 6.3524645042671624e-01,
          2.0712751877099631e+00, 1.3025444958613615e+00,
          -2.0279813588846185e+00, -2.0315480541414210e+00,
          4.9790585198826787e-01, 1.3240604934917815e+00,
          1.7099098884899706e+00, 1.3845255079472949e+00,
          6.8088105957287866e+01, 1.1052709775498968e+00,
          2.3872668799439354e+00, 8.0168151107394314e-01,
          -2.6525235313447624e+00, -2.3756960349327749e+00,
          5.3000102859997489e-01, -1.6706384835597732e+00,
          1.7497282448686582e-01, -1.3406828650989053e+00,
          1.0880548554219320e+00, 4.0063137083189987e-01,
          -5.2372470662728399e-01, -5.0176408598762268e-01,
          1.7941119626338826e+00, -6.1126692429848339e-01,
          -1.4790520477949280e+00, 5.1472311495745743e-02,
          -1.3430863649852492e-01, -2.4985327178267172e+00,
          -6.9804111347633613e-01, 5.2341547474846484e-01,
          5.7262968465916086e-01, 4.0097632628816298e+00,
          3.6985975292026751e-01, 9.8758968754761212e-01,
          2.4609680019537361e+00, -7.4410739811701543e-02,
          -5.9631467823357609e-01, 1.2057567370992834e+00,
          -8.5528480299207721e-01, 1.2674078845459908e+00,
          1.1806925912982839e-01, 8.7460471321287669e-01,
          -7.0385681308494785e-01, 1.2850687827281209e+00,
          2.1282045847474587e+00, -2.8480773932384468e-01,
          -2.1743345528130820e+00, -1.3706208524321190e-01,
          -2.5717647488757587e+00, 6.6510569037858835e-01,
          5.4559509448936261e-01, 2.3598357485867676e+00,
          -4.0018150239779110e-01, 1.7404097867673125e+00,
          -6.0130998095579313e-01, -7.1240281313073195e-01,
          1.7936335399418646e+00, 1.3061847469278431e-01,
          -2.5999316640090472e-03, -1.2464582234133854e+00,
          2.9683439683183277e+00, 1.8150540223624332e+00,
          -1.2812012748802213e+00, -3.4693448894616780e-01,
          -2.5163125422286963e+00, -1.8659157083824546e-01,
          2.3402670407577056e-02, 9.9619982770628357e-01,
          -1.7679559246152139e+00, -1.9718418429094842e-01,
          5.7704939347968964e-01, -6.6805940840177791e-01,
          -4.8933004484860043e-01, -2.3403267823932672e+00,
          1.3929594943882764e+00, 4.8246094465641010e-01,
          -5.6684759015634945e-01, 9.9192705857845287e-01,
          -3.0735216496027458e+00, 4.3834713869403658e-01,
          -2.8047611656745182e+00, 1.3600201582232299e+00,
          -2.8102607825678363e+00, -1.2412323490029384e+00,
          -3.5392069066457987e-01, 9.9012371512907549e-01,
          3.4099979656231607e+00, -1.3856986150665623e-01,
          1.1652591680672926e+00, -3.8630655607110334e+00,
          8.0776865633067718e-01, 2.0010104856494300e+00,
          -1.4294703768562418e+00, -2.6804964466708920e+00,
          -2.8427924204618460e-01, 1.6094884017678157e+00,
          1.5515213482048254e-02, 1.7371824943502253e-02,
          -1.0236818035743938e+00, -2.3222705411619060e-01,
          1.1911507532192072e+00, -1.9237126194959238e+00,
          1.3310360738425522e+00, -1.2048973325967567e+00,
          -3.9043112501048283e-01, -7.7644150916906984e-01,
          -6.4997571133889909e-01, 6.7421354446664705e-01,
          5.5611463548573980e+01, 1.6517578205692420e+00,
          3.7299423383667891e+00, 8.1697560013471482e-01,
