%YAML:1.0
expressionModel: !!opencv-ml-ann-mlp
   layer_sizes: !!opencv-matrix
      rows: 1
      cols: 3
      dt: i
      data: [ 136, 500, 2 ]
   activation_function: SIGMOID_SYM
   f_param1: 6.6666666666666663e-01
   f_param2: 1.7159000000000000e+00
   min_val: -9.4999999999999996e-01
   max_val: 9.4999999999999996e-01
   min_val1: -9.7999999999999998e-01
   max_val1: 9.7999999999999998e-01
   training_params:
      train_method: BACKPROP
      dw_scale: 5.0000000745058060e-02
      moment_scale: 5.0000000745058060e-02
      term_criteria: { epsilon:9.9999997473787516e-06, iterations:100 }
   input_scale: [ 7.9221794120466274e-02, -1.2485619841137432e+01,
       7.8484249744179585e-02, -1.2449665423851807e+01,
       8.0079433266739108e-02, -1.2625997769603368e+01,
       7.2878910228440924e-02, -1.7232659845458220e+00,
       7.4238791621057204e-02, -1.7990336966372715e+00,
       7.3611842276603168e-02, -2.0203408626952659e+00,
       7.1751446338747041e-02, -2.2855927474573989e+00,
       7.2456339251075794e-02, -2.8895599436342287e+00,
       7.4550138708795885e-02, -3.8908170424934716e+00,
       7.5048629206131798e-02, -5.0238396751903620e+00,
       7.1280579787693935e-02, -5.9847196961783329e+00,
       6.9651898704017862e-02, -7.1681856962172992e+00,
       7.0171211657512805e-02, -8.5031915960462978e+00,
       7.1235957938497074e-02, -9.8217612329330972e+00,
       6.9616176951642059e-02, -1.0607963886423084e+01,
       6.7102740447494938e-02, -1.1027984597976431e+01,
       6.5773703511253320e-02, -1.1333177166249961e+01,
       5.8257953228146545e-02, -1.0235152853526014e+01,
       5.9412157340841640e-02, -1.0539789757151210e+01,
       5.9917610578122359e-02, -1.0628754587908587e+01,
       8.9073313139390362e-02, -3.2140227788351283e+00,
       8.9247064333220105e-02, -4.1286503403725474e+00,
       8.8556493378717502e-02, -5.3499054574656810e+00,
       8.6379813695233676e-02, -6.4851451766454149e+00,
       8.2151129134593048e-02, -7.2421401166183914e+00,
       8.1369437061711222e-02, -9.1345540774545579e+00,
       8.1956020585452247e-02, -1.0353859000261416e+01,
       8.0200563738101582e-02, -1.1264617455544030e+01,
       7.6332525083651376e-02, -1.1800439084715187e+01,
       7.4117076134238083e-02, -1.2187621133910456e+01,
       8.8582640453193640e-02, -8.8841408257718104e+00,
       8.3775001424632650e-02, -8.3969910570334836e+00,
       7.7415340667418495e-02, -7.7643031837360006e+00,
       7.0959758408287901e-02, -7.1275600731485413e+00,
       8.8300863544401753e-02, -7.4595229147685753e+00,
       8.4993723073773300e-02, -7.8505183876056286e+00,
       8.0230361427544597e-02, -8.0638543561110687e+00,
       8.1143335970885605e-02, -8.8437842292345117e+00,
       8.2866088659198561e-02, -9.6577991383300397e+00,
       1.0121212513198498e-01, -5.2788379398123713e+00,
       1.0430734226994537e-01, -6.3029249653867074e+00,
       1.0888049647363816e-01, -7.7024920114604853e+00,
       1.1030742210349229e-01, -8.8266799439828478e+00,
       1.0426267265382237e-01, -7.3642760584005993e+00,
       9.5658744034974832e-02, -5.7895044966620590e+00,
       1.0357765491509237e-01, -1.2511514015862888e+01,
       9.6862567085150564e-02, -1.2573781605203228e+01,
       9.1303738176799876e-02, -1.2759388644985931e+01,
       8.1700730964123988e-02, -1.2098214038269361e+01,
       8.7434231887981176e-02, -1.2287984613909744e+01,
       9.5650028288956662e-02, -1.2481986406647961e+01,
       8.9273323684154096e-02, -6.1683387714590507e+00,
       8.9927575137618912e-02, -7.2772084266955019e+00,
       8.6574906217542547e-02, -8.0248605595675553e+00,
       8.4730003622447786e-02, -8.5414556918424562e+00,
       8.5356828403728408e-02, -9.3553076996413314e+00,
       8.5617293994760257e-02, -1.0437431965751486e+01,
       8.0845921190550840e-02, -1.0777121199882984e+01,
       8.0101584440969584e-02, -9.7988822699230358e+00,
       7.8649511517275048e-02, -8.6856900556099461e+00,
       7.9043633438417166e-02, -7.9764813618183616e+00,
       8.0605006430707060e-02, -7.4240047521318093e+00,
       8.4211552153734270e-02, -6.7924160697181417e+00,
       8.8311864249263267e-02, -6.5028113902028748e+00,
       8.5149322635249408e-02, -7.8850280839919895e+00,
       8.4780609206672491e-02, -8.5507984858442683e+00,
       8.4403715681894850e-02, -9.2516603159016810e+00,
       8.1287126940920190e-02, -1.0469374972674764e+01,
       8.2035449221927820e-02, -8.9989464425838186e+00,
       8.3035851889839474e-02, -8.3795431983509836e+00,
       8.3072563283928647e-02, -7.6769389138973940e+00,
       7.6110311185721841e-02, -6.4579392023052993e+00,
       8.1812529394960296e-02, -8.5466050584173718e+00,
       8.4344978704410947e-02, -1.0525587094701908e+01,
       8.2030810117383390e-02, -1.1814672452437133e+01,
       7.8704209979779213e-02, -1.2751022532005337e+01,
       7.6394595171457774e-02, -1.3588337152205195e+01,
       7.4322221439255154e-02, -1.4196818204348043e+01,
       7.2779971578014038e-02, -1.4625107219642409e+01,
       7.1966702173052843e-02, -1.4665945268693205e+01,
       7.2399395623666402e-02, -1.4470688774816823e+01,
       7.4228624033153320e-02, -1.4021988848833990e+01,
       7.5637300044845771e-02, -1.3289676589837033e+01,
       7.7266140657565888e-02, -1.2354550462886214e+01,
       8.0214121460909615e-02, -1.1317707381546354e+01,
       8.2619198019831960e-02, -1.0003942357575374e+01,
       8.1421981266305385e-02, -8.2397501534241311e+00,
       7.6497603202086831e-02, -6.2349145579222380e+00,
       8.6436067988572257e-02, -5.8104778714507255e+00,
       9.0618670903895346e-02, -5.2372882565275285e+00,
       9.5435581234124406e-02, -5.2982087868647083e+00,
       1.0083343729735378e-01, -5.8190477369783498e+00,
       1.0837896917597213e-01, -6.8928545292666143e+00,
       1.0680342307228939e-01, -6.6895154076304841e+00,
       9.9314482186812145e-02, -5.6717315096034131e+00,
       9.2598546737981652e-02, -5.0631487343809338e+00,
       8.6944716147139639e-02, -4.9637128216208195e+00,
       8.3400170553052599e-02, -5.5001843155566261e+00,
       1.2241669486558902e-01, -9.6252223313310665e+00,
       1.2615468920736847e-01, -1.1622545956022726e+01,
       1.1696931339443674e-01, -1.2341292683099830e+01,
       1.0244030611130296e-01, -1.2200077861932856e+01,
       1.2034742008260357e-01, -1.5312317621089132e+01,
       1.1822627784747557e-01, -1.5374415615397037e+01,
       1.0852454922467264e-01, -1.4340947381666236e+01,
       1.1050352018872704e-01, -1.4331613322667293e+01,
       1.1277191046908953e-01, -1.4323461431251955e+01,
       1.0794300231244458e-01, -8.7709384538042645e+00,
       1.0994100240976680e-01, -8.3637878628182580e+00,
       1.1730467097497516e-01, -8.9488977137665024e+00,
       1.2907266741713083e-01, -1.0697077240459635e+01,
       1.2296423499547758e-01, -1.0411295511070152e+01,
       1.1619170124889019e-01, -9.8566390926096261e+00,
       1.2723726214234024e-01, -1.0489017567710658e+01,
       1.1522133118440404e-01, -8.7238429101127970e+00,
       1.0790545608910458e-01, -8.1467140482876097e+00,
       9.6451957839669131e-02, -7.7619512822021646e+00,
       1.0431796306402880e-01, -8.8006609636119038e+00,
       1.1022240683454573e-01, -9.3174053658600204e+00,
       9.4977810437953364e-02, -1.4322361892064052e+01,
       1.0326542484858249e-01, -1.5078229879580226e+01,
       1.0609240174325506e-01, -1.5263387967682482e+01,
       1.0411802167642356e-01, -1.5184593902726665e+01,
       1.0536000904588208e-01, -1.5157791198871189e+01,
       1.0148098640627586e-01, -1.4820738417461719e+01,
       9.3067596659111018e-02, -1.3995255292263305e+01,
       9.8918834905314390e-02, -1.6050290763063551e+01,
       9.4533076534317112e-02, -1.5833437888538183e+01,
       9.3313052133742372e-02, -1.5725559000750007e+01,
       9.4106785626620740e-02, -1.5774019428705053e+01,
       9.8892509437959242e-02, -1.6059693470594574e+01,
       9.8546621907645002e-02, -1.4933570787826955e+01,
       1.0001949169602747e-01, -1.5081262499411450e+01,
       9.9738921437483669e-02, -1.5129635817275879e+01,
       9.9845867490556559e-02, -1.5058476174957878e+01,
       9.6960898014131547e-02, -1.4656539146581888e+01 ]
   output_scale: [ 5.2631578947368418e-01, 4.9999999999999994e-01,
       5.2631578947368418e-01, 4.9999999999999994e-01 ]
   inv_output_scale: [ 1.8999999999999999e+00, -9.4999999999999996e-01,
       1.8999999999999999e+00, -9.4999999999999996e-01 ]
   weights:
      - [ -1.2428611870428294e+00, 3.2569887854954516e-01,
          4.5281506773783947e-01, 5.6167557251058348e-02,
          1.9501829697071241e-01, -5.6719432867118336e-01,
          1.9336919152516160e-01, 1.0382814193171150e-01,
          -2.4999728377101912e-01, 3.6993210364345147e-01,
          -2.2516261889041315e-02, 4.9960326992491805e-01,
          2.5157965051747033e-01, 3.5408014739273241e-01,
          -6.4486097832959566e-01, 1.2930374430804384e-01,
          2.3445782658624420e-01, 2.0577971565156825e-01,
          1.0389217477014535e-01, -4.6532752857263487e-01,
          -2.6171017234661664e-01, -4.2909589762917699e-01,
          -2.4448628179711207e-01, 3.6257060879989650e-01,
          -7.6918560359970156e-01, -1.4788385127996242e-01,
          4.1952049325496144e-01, -1.9148699828966798e-01,
          -5.9418644448445923e-01, 3.0657239721785046e-01,
          2.0728883306791385e-01, -3.2400721493180767e-01,
          3.9260762183696035e-01, -5.0055049386166661e-01,
          7.3526613926024464e-01, 7.1863113925605915e-01,
          -2.4534720190522108e-01, -3.3837275017628959e-01,
          -7.3872659211820668e-01, 4.2297682220029748e-01,
          -1.8731765880198023e-01, -1.0420037223155568e-01,
          -1.1501109733138315e-02, -4.0668166197340821e-01,
          -2.1594833250759249e-01, -2.7215986384575774e-01,
          7.2443941312917884e-02, 2.7121608613296291e-02,
          4.3283805892494469e-02, -1.3445199422041103e-02,
          -2.3589110677815017e-01, -2.4331622208781080e-02,
          3.3921866011465851e-01, -1.3050981623964808e-01,
          -9.1713583610379915e-02, 2.1992974488054229e-01,
          7.4361306472685895e-01, -6.4841150806945669e-01,
          -5.0024991003741104e-01, -3.2214485988781755e-01,
          5.2551765637628881e-02, 1.8055970254165882e-01,
          1.0463496482333938e+00, -4.8869150712117670e-01,
          5.6096238348539140e-01, -4.3775018853122660e-01,
          9.0952252304217163e-01, -2.1211268200459926e-01,
          -1.4716246530621299e-01, 3.5619578648726297e-01,
          4.5957442853441166e-01, -4.7760227170917602e-02,
          2.3250551412061971e-01, 1.4643878122049320e-01,
          -5.6602212389484829e-01, 1.0190493995140357e-01,
          -4.2013994093348928e-01, 3.7703224786064454e-01,
          -3.0269246731756738e-01, 2.4452520853305174e-01,
          -7.2113616871980729e-02, 3.1658270787631149e-01,
          -7.2588406239056102e-02, -3.6730235288605062e-01,
          9.0364278030743062e-01, 8.4680467945556212e-02,
          2.7391642192394855e-01, -6.7989327529063937e-01,
          1.0772523457859666e-01, -8.8654752306119508e-02,
          5.8021567072584712e-01, -4.6771425098330294e-01,
          4.0807230945694828e-01, -5.2099280958989969e-01,
          9.8328383394319974e-01, 7.5239289889911951e-02,
          -2.4231613176511724e-01, 3.8683987290122851e-01,
          8.6757704258769525e-02, 1.1486546646074768e-01,
          1.3010364157958457e-01, -1.7440088098509182e-01,
          6.1079679454807367e-01, 5.2630723969792452e-02,
          2.0430176858101609e-01, 6.3127640186973566e-01,
          -4.0730081605533097e-01, 5.2154164690680682e-01,
          -1.6406930320213772e-01, -4.4256968463938734e-01,
          6.4660859760619238e-01, -3.1150163785851248e-01,
          -4.0392540746615898e-04, -5.5140908365278118e-01,
          -2.0731241581903009e-01, -3.7859369644163759e-01,
          -1.4645169027521004e-01, 2.6351171323176986e-01,
          4.3675117477111486e-01, -3.2248640799555206e-01,
          -6.3936440266550454e-01, 1.1528301803440035e+00,
          6.9906633842899746e-01, -1.2195239549714955e-01,
          1.0584898248465081e-01, 2.6746081389863052e-01,
          -7.9308736716379769e-01, 9.3837010164760939e-02,
          1.0541948474823749e-01, 2.1460121566525225e-01,
          -7.4702046195131666e-01, -2.7126366159352672e-01,
          1.4038466803261127e-01, -1.1568342332705821e+00,
          1.9406737059611442e-01, 2.2234144935882908e-03,
          -8.0397295458579342e-03, 3.0214329122009548e-01,
          1.8914602002474490e-01, 1.9518410083379359e-01,
          7.4481101161763907e-01, 1.8409581354574336e-01,
          5.7851660204789379e-01, 3.5265922164705435e-02,
          1.0450860067051058e+00, -2.3639245767488709e-01,
          -2.7245002591691426e-02, 2.2839488828126323e-01,
          1.0709168705814718e+00, 9.1479248949063743e-02,
          3.3716062243785128e-01, 2.7434477964030226e-02,
          -1.1042823913461719e+00, -6.3054471274740687e-01,
          1.5049772467984054e-01, 3.1437928430730661e-01,
          -3.0930519108584081e-01, 7.2893557804307862e-01,
          -2.5684614988055804e-01, -1.2450702960732041e-01,
          -3.0398333731136123e-01, 2.9187067537821160e-01,
          1.1128386239497374e-02, -4.2783300532346213e-01,
          8.1309593188879858e-01, -5.8842603688891082e-01,
          -2.3122951485557469e-01, 3.5836924049373213e-02,
          -7.6898576074790870e-01, -8.6737692217974849e-01,
          7.8115293199041494e-02, 2.8847514818476627e-01,
          1.2642490891071714e-02, -3.2068234667412591e-02,
          4.1135012043558067e-01, -2.2978279927064298e-02,
          8.7866725157456749e-02, 5.2511290352159130e-02,
          3.9771762147429263e-01, 3.7629327639317575e-02,
          1.5116815985149470e-01, 2.2267259567373948e-01,
          -1.3830428346337981e-01, 9.2033622721785791e-01,
          -1.6252053028571598e-01, -2.9261221864285529e-02,
          -4.0236266541913179e-01, 6.6401612660216669e-01,
          -7.2540904986312469e-03, 1.0204600275846332e-01,
          2.7979015982256839e-01, 4.6729722120752765e-01,
          -5.1666254191087402e-01, -1.0911501210450387e+00,
          5.4526082792036001e-01, 1.4866577527355734e-01,
          -2.4855640049854685e-01, 2.9969945826880190e-01,
          -1.8331378836474480e-01, -5.9447518810227207e-01,
          -8.5039608931362887e-01, -2.0643258618051852e-01,
          1.6512714546378296e-01, 1.7976335041095240e-01,
          6.4990828731438699e-01, 5.2753057853788066e-01,
          -3.1613137762193244e-01, -1.5810271409761045e+00,
          -5.0914569694908662e-01, 5.7669212035491857e-01,
          -2.1513627254657847e-01, -2.2377852042975305e-01,
          7.9326874350677881e-02, 2.9920654297691029e-01,
          -6.7378827791660445e-01, 3.8044489712071861e-01,
          2.2249099844242087e-01, -1.6702034397290687e-02,
          3.8200526544974417e-01, -2.6110853601910078e-01,
          3.0699152748026232e-01, 4.5639476446619903e-01,
          -9.8108343574289505e-02, 2.8476587132538439e-01,
          -7.0999302113083588e-03, -6.4612301036335307e-02,
          2.0310579426003372e-01, 3.8013014027433334e-01,
          -4.4709898035146028e-01, -2.3014041347710231e-02,
          5.0812671696938672e-01, -9.5886233601898241e-01,
          5.2507169486395100e-01, -5.5861967422209582e-03,
          6.7939452071851911e-02, 3.3991158975473328e-02,
          -2.1613392402773898e-01, 2.1421058254689315e-01,
          4.3004436511159472e-01, -2.9266804247973571e-01,
          -5.3895028999650441e-01, -4.7856925799586464e-01,
          7.0473629802084437e-02, -2.1923131678046753e-01,
          -2.2286000087295965e-01, 4.1409394706822478e-01,
          -2.1063399123763160e-01, -5.8257920251842266e-01,
          6.3330617753632065e-02, 1.2745246207002317e-01,
          -6.5832019340848646e-01, 2.3976527137004675e-01,
          2.9532609058639930e-01, 2.9797302783767531e-02,
          2.3011387538424016e-01, -1.7567304938684808e-01,
          -6.6790595870367631e-01, -1.0810800814893107e+00,
          -1.0196737541683869e-01, -9.6608095243009762e-01,
          -1.5412750002701950e-01, -1.6950929842559506e-01,
          -1.2914498028549767e-01, -8.4459467928521090e-02,
          -2.1152295843718322e-02, 1.1811872141444819e-01,
          5.5360778938863064e-01, 3.4983084527021141e-01,
          2.4744362029564201e-02, 1.8394275829243228e-01,
          -2.9546188160344600e-01, 9.5916799188567312e-02,
          -2.0121766094547183e-01, 2.3262091010157376e-01,
          5.1735081283046158e-01, -3.4987749055045347e-01,
          -1.4794577955398630e-01, -4.6003649124800794e-01,
          -2.8912877250295549e-01, -6.3465632612333167e-01,
          -2.5037678879291442e-01, 1.1594661005957030e-01,
          1.2489784858037324e-01, -1.5071023222287180e-01,
          3.8381111623928388e-01, 5.2149909712221032e-01,
          2.7934963650528455e-01, -1.7504776154537538e-01,
          4.6596018903319503e-01, -1.1363354335926312e-01,
          1.4513344363138100e-01, 6.7931279893727589e-02,
          -8.8701660694680898e-02, 4.9621152614780184e-01,
          -1.4602742310039507e-01, 2.6691861053184956e-01,
          1.0302061822805295e+00, -2.7924241434146162e-02,
          1.6030373729209660e-01, -4.0857398458280549e-02,
          3.8948709763602107e-01, 2.5969198755886158e-01,
          1.3027420449603475e-01, 5.0629845534499340e-01,
          -1.5870250016968315e-01, -4.5199756432897059e-01,
          -6.9720408552336821e-01, 3.7437907314847263e-01,
          -4.1040798208800661e-01, -3.1257010747734720e-01,
          4.2239098293628147e-01, -5.3384366604512301e-01,
          3.2508684716173838e-02, 3.2003895292881768e-01,
          8.9729931565187757e-03, 2.4957049782872506e-01,
          1.2727491283751444e-01, -1.7695834075551270e-01,
          -4.3756482540744901e-01, -2.0025774073023295e-01,
          -3.9288193327618104e-01, -1.6198436241853054e-01,
          1.3783345748121242e-01, 1.0759831055244388e-01,
          -1.6656451343852638e-01, 3.8098093892442580e-01,
          -3.1147262915782808e-01, 1.9006696072323195e-01,
          4.4910887937376846e-02, -4.9684307934044825e-01,
          -2.2670605336855293e-01, -9.7226333167743950e-01,
          2.3129735279798455e-01, -1.1660912261400783e-01,
          -5.3692184094801676e-01, 4.8678953569540284e-01,
          2.9421618078626594e-01, 1.3493927052405630e-01,
          -5.7855587664080965e-01, -1.1238312477342863e-01,
          9.5980728732651052e-02, 1.9671890947310333e-01,
          4.4089324997914503e-01, 3.7063756569272042e-02,
          -2.8582709512462684e-01, 3.5133079662375055e-01,
          1.7268752635041515e-01, 4.1300315959652434e-01,
          9.1485716729448752e-01, 3.7553964231008941e-01,
          -1.8088925449335685e-01, 7.4408498419353120e-01,
          -1.3320545536421013e-01, -2.7587929982270609e-01,
          8.9595394826925093e-02, -1.9437693586507504e-01,
          1.4934701092230093e-01, -3.1163319657390096e-02,
          4.6814431010971286e-01, 2.9730285896391462e-01,
          3.0699628637791815e-01, -1.2477343269244483e-01,
          -2.1572551786431104e-01, -2.3774425908795432e-01,
          -4.6140944330071584e-02, 3.4658651155507281e-01,
          -3.7897909012268594e-01, 6.5329218997790683e-01,
          -2.6543630917864725e-01, -1.4532409471885205e-01,
          -1.0365619634444410e-01, 3.7969038289345208e-01,
          -2.3439383739484557e-01, 1.4179893526454423e-01,
          1.0162340613761933e-01, -2.6383784442334124e-01,
          1.6137089485884734e-01, 1.6844906057026487e-01,
          -8.4750501616324039e-02, -3.7462397818760695e-01,
          -5.8195566689543998e-01, 1.4402827699718032e-01,
          -2.5139376370087507e-01, -1.1807089091052603e-01,
          2.9358915388777851e-01, 2.9523034442096174e-01,
          -3.7951615471056588e-01, 1.0462127086895590e-01,
          -2.4383498700348558e-01, -2.5307611471951269e-01,
          -2.4501970543737317e-01, 1.8726885888898462e-01,
          2.6248443880612504e-01, -1.1223113904949613e+00,
          2.1724583227325674e-02, -5.4579146521668309e-01,
          1.3583539511498949e-01, -1.0360620531302453e-01,
          -4.3013156979663536e-01, 1.1135299828863002e-01,
          4.1466081776588276e-01, -2.4983150775837520e-01,
          5.6511029560423073e-02, -3.6024123513856093e-01,
          -3.0157313798807811e-01, -3.3690365750927528e-02,
          3.6589642103855846e-01, 1.7922373202511682e-01,
          4.4069605512300392e-01, -8.0622009411941142e-01,
          -2.5056373442029458e-02, -1.0198325521039504e-01,
          6.9533075374570308e-01, -9.7814226410344554e-02,
          4.5447008174113468e-01, 5.3672249702995634e-01,
          3.6172529169449374e-01, -4.5112112146409944e-01,
          8.5489319821645449e-01, 8.8298440629546060e-01,
          -2.1770344867219571e-02, -7.9922703395527900e-02,
          8.2023795571566915e-01, 2.2581488724688531e-01,
          -2.7015414097721696e-01, 3.0801605329666786e-02,
          1.5288318621832992e-03, -2.3701178400564740e-01,
          1.5722485713467754e-01, -7.7626467166832769e-01,
          6.5709274490850653e-05, 1.9242506576740867e-01,
          -1.3949064969276190e-01, -3.7647932053853278e-01,
          7.7475867377110630e-01, -2.0919438143395791e-01,
          -2.1715922086678552e-01, 1.7353791514144820e-01,
          -6.4389418002614407e-01, -2.0331235151038121e-01,
          1.7703670577198213e-01, -1.2946505747102841e-01,
          3.6942362813025306e-02, -8.4571631937342717e-01,
          -9.0834832990078485e-01, -4.2335028240093941e-02,
          -7.7936007926103135e-01, -1.4746493340688849e-01,
          2.9066169065165059e-01, -2.4638158348098307e-01,
          1.4730893164443110e-01, -3.1305910468250270e-01,
          -1.6623207828254213e-01, 1.0268684826857065e-01,
          -9.3785189136269431e-02, 8.1630131080313001e-02,
          9.0616375237540014e-02, -3.8854574124400815e-01,
          -1.1590532581454543e-01, 4.7506801181376529e-01,
          -7.7942419879081881e-01, -2.7277615503057717e-01,
          -4.7122149619940917e-01, 2.4859153662751775e-02,
          3.2542313965599562e-01, -5.0762110840540588e-02,
          5.5630369977296557e-01, -2.2735969065095193e-01,
          6.9750092910773953e-01, -2.2777383201141749e-01,
          -1.7709299163430631e-01, -2.8071031388291101e-01,
          3.2255376350811715e-02, -2.4272583608531445e-01,
          -4.6008837543790743e-01, -4.3441704038318918e-01,
          -2.6054355974353561e-02, 3.7441969471961944e-01,
          4.2077985763425407e-01, 8.2329987498201951e-01,
          6.5997800830306630e-01, 6.8070333831219002e-03,
          3.2153655135572795e-01, -9.8364284481809394e-02,
          -8.9526205922461966e-02, 1.8270445882749356e-02,
          4.5985047499050274e-01, 4.3823516759561737e-01,
          2.7482884475337488e-01, 5.3916155271105701e-02,
          -3.5716975155120656e-01, 8.2499828385737051e-01,
          1.0452534628526390e-01, -1.5428375302194078e-01,
          2.3551179926093721e-01, -2.0318807933432723e-01,
          -5.6237348707413060e-01, -8.3210083755168810e-03,
          2.4952809851855853e-01, -2.5595983639293485e-01,
          -1.2131463920886374e+00, 3.9923416271575668e-01,
          4.1247803939368916e-01, 1.1071120084984473e-01,
          2.0976809864945131e-01, -5.3763665314414588e-01,
          2.3100301131910425e-01, 7.7044707773670826e-02,
          -2.1910318680851312e-01, 4.4473485252650824e-01,
          2.8803127951738711e-03, 3.7438806339601682e-01,
          2.0945267146415381e-01, 3.4705170900545695e-01,
          -6.2726870784310962e-01, 1.3549720518487754e-01,
          2.8907308580917596e-01, 2.2304954352193126e-01,
          2.0374422222383989e-02, -5.5718923974312817e-01,
          -2.2487190934498696e-01, -3.4806285847223806e-01,
          -2.6482253257905469e-01, 2.7527099862551679e-01,
          -8.4296753407873015e-01, -2.2896700730497277e-01,
          4.4869619721746484e-01, -1.6036706880342855e-01,
          -5.2961034506907434e-01, 3.0925280285858259e-01,
          1.9167180514245374e-01, -3.4518628368133342e-01,
          3.5638729557692722e-01, -4.9895906066318202e-01,
          6.9318972756572361e-01, 7.8042055081168571e-01,
          -3.4122006989510539e-01, -3.3032211145259693e-01,
          -8.4672553611775248e-01, 4.2442514195745651e-01,
          -1.5340146761986717e-01, -1.2052404291615099e-01,
          2.0450653096053487e-02, -4.3005884926309917e-01,
          -2.4154187469516111e-01, -2.6403811495945828e-01,
          1.8847067673755061e-01, 1.4430903089038553e-02,
          4.6159148022172504e-02, 6.0822948778539668e-03,
          -2.2000524268142435e-01, -2.8414521624944341e-02,
          4.3253751695023901e-01, -1.4403792089845283e-01,
          -1.6417026876621482e-01, 1.4426329766417081e-01,
          8.1928101671136966e-01, -6.6893952436821724e-01,
          -4.7733120800705359e-01, -2.8163920629686656e-01,
          7.7128819359873910e-02, 1.7505701166554125e-01,
          9.7240415302264571e-01, -4.6338490421099621e-01,
          4.7233010207495696e-01, -5.2415804686195500e-01,
          8.2921150326165871e-01, -1.5918836972850620e-01,
          -1.2294715606708265e-01, 3.5145297120603103e-01,
          4.4671078959455607e-01, 2.7673183146807032e-02,
          1.7109602907926530e-01, 1.1535377348048631e-01,
          -5.1698881623856519e-01, -2.3819976389948792e-02,
          -3.8833000279095287e-01, 3.3551014034716120e-01,
          -3.4759878005994738e-01, 2.3043367094082726e-01,
          -1.5890286010750460e-01, 2.0274843462791795e-01,
          -8.3468476139974365e-02, -4.1902979492014747e-01,
          8.7509314890263257e-01, 1.7138434651437803e-01,
          2.7394302536220111e-01, -6.5737277995961774e-01,
          8.9986301446691161e-02, -7.9168500586812379e-02,
          5.2699193795329524e-01, -5.0350357900318066e-01,
          4.3789155614717851e-01, -4.9941882682024802e-01,
          9.4804597531696722e-01, 1.3200753170788992e-01,
          -2.3411848362969684e-01, 4.8922331500029387e-01,
          7.9829080144960526e-02, 1.0864007775274642e-01,
          1.5754867700487982e-01, -1.3753573650042264e-01,
          6.4581885445306386e-01, 1.0509114017888957e-01,
          1.1934956291363166e-01, 6.4631881048527517e-01,
          -3.7172477717262348e-01, 4.3594215117998736e-01,
          -1.7702560567512513e-01, -4.2974294501647503e-01,
          7.0641782294852351e-01, -3.3561981036808392e-01,
          1.9844926077923299e-02, -5.5321142221123898e-01,
          -2.6044357449486055e-01, -3.3018772351453557e-01,
          -1.4174715477758532e-01, 1.9343715224389710e-01,
          4.8516223244713630e-01, -3.0816323474361873e-01,
          -6.6022448965853087e-01, 1.1706262471070312e+00,
          6.3556380040905802e-01, -6.6400621108781074e-02,
          1.0699479261218771e-01, 2.3639855583615244e-01,
          -8.1889773917069675e-01, 9.9116230872744751e-02,
          1.4887949310835857e-01, 2.0837060731559240e-01,
          -7.0797911882654496e-01, -2.6288663184491046e-01,
          9.7460483583126700e-02, -1.0264903892150097e+00,
          1.8391918098264110e-01, -2.1214592583075280e-02,
          -1.5230023534674231e-01, 2.8635827249956386e-01,
          1.8151599406243601e-01, 1.9595732589025874e-01,
          7.2432559734114632e-01, 1.9510700137243286e-01,
          5.7194863414090025e-01, 3.8820875159987556e-02,
          9.5061105400809764e-01, -2.4781492051355988e-01,
          -5.6564947907737376e-02, 2.4062004695591521e-01,
          9.4277717427817054e-01, 8.1995732858425499e-02,
          3.2954367902588166e-01, 3.5496634307825729e-02,
          -1.0922200548343401e+00, -6.1874324215038234e-01,
          1.4623062842029577e-01, 3.3238878410815936e-01,
          -2.5167798603540753e-01, 6.5971149168183396e-01,
          -2.6610546944923075e-01, -1.4662624955311240e-01,
          -2.9024732969929995e-01, 2.4846355318901173e-01,
          -2.0873229921240556e-02, -4.5963498838299105e-01,
          7.9450555236973452e-01, -4.9455418295429299e-01,
          -2.3306159567919521e-01, 3.9669932872567031e-02,
          -7.9247544371716072e-01, -7.3381987961257100e-01,
          6.8258296370176247e-02, 2.3933759443355898e-01,
          2.9950729263875570e-02, -6.7789212805170293e-02,
          4.2024642829811620e-01, -6.7038766054059423e-02,
          5.4797514802847232e-02, 2.7802374862902521e-02,
          4.0516483234486794e-01, -4.8550003924023574e-02,
          1.1741913581336341e-01, 1.8786437839408190e-01,
          -1.4551810520576874e-01, 9.5865789324448136e-01,
          -2.4409287234840207e-01, -7.1276135762664986e-03,
          -4.1117995525737383e-01, 5.9424078555463733e-01,
          1.1227744706519219e-02, 1.2551751939479480e-01,
          3.2349728958937679e-01, 4.9302010412706099e-01,
          -5.0318703566542600e-01, -1.1534715256713644e+00,
          6.0830322934047865e-01, 1.6512575781173888e-01,
          -2.4462314387109504e-01, 2.7552511284218317e-01,
          -2.0004295523832349e-01, -6.1969266208277873e-01,
          -8.9113938361538969e-01, -2.0309178878287834e-01,
          1.7364281560962505e-01, 2.0872009102385558e-01,
          5.7968632771576045e-01, 6.2633993263162580e-01,
          -3.6566244020979899e-01, -1.4786480352404017e+00,
          -4.9066300803080420e-01, 5.2649185152364564e-01,
          -2.1061116966875995e-01, -1.8878583956161740e-01,
          8.1916220618682284e-02, 3.1311967941041319e-01,
          -6.4926741641251162e-01, 3.3994848422719276e-01,
          1.7026903899571535e-01, -1.9999755096901810e-02,
          3.7281570000721526e-01, -2.4915138451832153e-01,
          2.7562153942062773e-01, 5.2218999206674777e-01,
          -1.0506560665499758e-01, 2.7954008431823985e-01,
          8.8951171794591187e-03, -5.1054632825615960e-02,
          1.8783846116712366e-01, 3.1468921338403510e-01,
          -4.4156847148636064e-01, -1.4775135300068140e-03,
          5.4440682890121539e-01, -1.0272841530392147e+00,
          4.7104936707076267e-01, 3.7467193332679019e-03,
          3.5228885246069791e-02, -5.7337336785160904e-02,
          -1.1701430823695180e-01, 2.3318537715388013e-01,
          6.1963550014556779e-01, -2.8323374094932829e-01,
          -5.2795219211676514e-01, -4.6682599326663793e-01,
          7.1010279168970583e-02, -2.2394636882271107e-01,
          -2.1561948532061193e-01, 4.2725689225168423e-01,
          -1.0044234540931109e-01, -5.6100855900290214e-01,
          6.4815960682148469e-02, 1.4127735503666128e-01,
          -7.2548525729189606e-01, 2.7168194896624231e-01,
          2.9748919353215059e-01, 2.2210310529669583e-02,
          2.3809978109003976e-01, -1.7889456606281484e-01,
          -6.7721489076583430e-01, -1.0030009749010138e+00,
          -1.0677378494573599e-01, -8.3317732989369120e-01,
          -1.6614816595957185e-01, -1.4461532678234026e-01,
          -1.4137948595836466e-01, -4.9628150102578379e-02,
          -2.1691032822023514e-02, 1.3336525780437625e-01,
          5.7762535506365109e-01, 4.5997619572920445e-01,
          4.5897621713354125e-02, 1.6621758111708126e-01,
          -3.8193779253274557e-01, 1.1299982505062638e-01,
          -2.0044074883496227e-01, 1.7662954003378206e-01,
          5.4803111884427447e-01, -3.0052037164336010e-01,
          -1.3861065705547118e-01, -4.9246304391146783e-01,
          -2.1702086523038081e-01, -6.3561735762159444e-01,
          -2.3691574245602540e-01, 9.6897399781082971e-02,
          1.2787665802401596e-01, -1.6671496379672426e-01,
          4.8399708424281013e-01, 5.7734505759762844e-01,
          2.5249809991469035e-01, -1.4283481586196514e-01,
          4.5946843516354291e-01, -5.5829953788764000e-02,
          1.9635183686895252e-01, 3.7011952243965099e-02,
          -7.7465052922089675e-02, 6.2406402868123778e-01,
          -1.2791300525616991e-01, 2.0174291902549552e-01,
          9.0957773490888305e-01, -4.5987186965458379e-02,
          1.7057751664479148e-01, -2.2414097615603517e-02,
          4.4210862202429074e-01, 2.8716272523590991e-01,
          1.4437954073786533e-01, 5.7588278616922006e-01,
          -1.5799102774980447e-01, -4.8840884635598308e-01,
          -6.4749902871740572e-01, 3.4627131910386605e-01,
          -3.5014434001337336e-01, -3.0917399931231521e-01,
          4.0631447076319199e-01, -4.8850932017315796e-01,
          6.6592675809404550e-04, 2.7206452582126239e-01,
          1.4823620526106571e-02, 3.8522305810201612e-01,
          1.2110191664574786e-01, -1.4156698567084036e-01,
          -5.0310259680916525e-01, -2.4076468676413143e-01,
          -4.1162474848342889e-01, -1.3174654521579715e-01,
          1.8284292919379025e-01, 3.1955673119952240e-02,
          -1.1912004242744184e-01, 4.0317562457377087e-01,
          -3.5341380069917827e-01, 2.3366697345340734e-01,
          -5.1856192714231242e-03, -4.1160169586030304e-01,
          -1.6845630702314118e-01, -9.5894332518890035e-01,
          2.5068907432747212e-01, -1.2229902253384413e-01,
          -5.1784748525733049e-01, 4.6582833769026510e-01,
          3.1617638443477375e-01, 1.4796445163224611e-01,
          -5.0847082806387911e-01, -1.3386082088335197e-01,
          9.3429401777432794e-02, 2.1454467253708637e-01,
          3.8878318750988483e-01, 4.6040631041525518e-02,
          -2.7689294877240667e-01, 3.3361522797198623e-01,
          1.5143536557998308e-01, 3.5145525849953868e-01,
          1.1000783810427599e+00, 3.5582597811028177e-01,
          -1.9185583229059450e-01, 7.6707893870320221e-01,
          -2.4003730966284459e-01, -2.8651878980343692e-01,
          3.6425100134720681e-02, -1.8169402056937278e-01,
          1.1752314021992463e-01, -5.1513395625080692e-02,
          5.4233837220939973e-01, 3.1864317828080319e-01,
          2.9654645784492134e-01, -3.4558796173391544e-04,
          -1.9787585797166463e-01, -2.5510426908548595e-01,
          -1.7846322916699638e-02, 3.5868731471094550e-01,
          -4.4793597680818387e-01, 5.2258767919534821e-01,
          -2.6759943902338285e-01, -1.9082535223637970e-01,
          -1.4641107588544866e-01, 3.9014141295687171e-01,
          -2.5911722700064715e-01, 1.2490226258000311e-01,
          1.2762682797403377e-01, -3.0269953542014194e-01,
          1.9773254141213154e-01, 2.2510595426495594e-01,
          -9.6919546274968224e-02, -4.6895358631037354e-01,
          -6.2964893245763387e-01, 1.5159272851552844e-01,
          -2.4956214976797428e-01, -8.0878168097562819e-02,
          2.8795932921294926e-01, 3.1053846781496458e-01,
          -3.5569041190046158e-01, 9.3450454001836103e-02,
          -3.0294613953503086e-01, -2.3947924164125420e-01,
          -2.4094790125353996e-01, 1.9156519339998762e-01,
          2.5924733921761584e-01, -1.0771436746925371e+00,
          -1.5618237793069331e-02, -5.5011860033073046e-01,
          5.2335744483576606e-02, -8.6512865349731238e-02,
          -5.3969922215209487e-01, 9.0166855127986112e-02,
          4.4419361335131941e-01, -3.1145611768374803e-01,
          5.9339434508195836e-02, -3.6468602777489656e-01,
          -3.2453023658573849e-01, 2.3189357275341334e-02,
          2.6931310467632869e-01, 1.3838425889041217e-01,
          4.1344322126553906e-01, -7.6841484767095569e-01,
          2.3852398963598066e-02, -1.0139154168451774e-01,
          6.4415676558850488e-01, -1.1343350339085526e-01,
          4.5173461927501990e-01, 5.3418130901376293e-01,
          3.6913506550424113e-01, -4.7252084288708041e-01,
          8.9354786776033801e-01, 8.1640692786296609e-01,
          -5.7829350581380348e-02, -9.5121321418422972e-02,
          7.7168773036779492e-01, 1.9960606370908443e-01,
          -2.9471106163154026e-01, 6.1198405746288785e-02,
          -2.6071225260243618e-02, -2.5985309446708771e-01,
          1.0562528054926147e-01, -6.4756562093398073e-01,
          -3.3615305699603991e-02, 1.8857789291815935e-01,
          -1.8023606719067420e-01, -3.5021066581902177e-01,
          6.8755244163413720e-01, -1.9487572490798882e-01,
          -2.1111379092661323e-01, 2.1368981971566173e-01,
          -6.4804934065819220e-01, -2.0922183854276849e-01,
          2.5395661601628566e-01, -1.4262324702992968e-01,
          1.0967414070851041e-01, -7.9953210894557880e-01,
          -9.4899919072897854e-01, -7.7371112066534631e-03,
          -7.6722132441951463e-01, -1.4881135572219747e-01,
          3.0813165970354972e-01, -2.1192121966670668e-01,
          4.9349989533933436e-02, -2.9471507803081048e-01,
          -1.6510137775341649e-01, 1.1584308906663968e-01,
          -1.6815292906307830e-01, 1.2545966107677756e-01,
          6.6714905413108649e-02, -4.0244047432691388e-01,
          -3.4957003159741595e-02, 4.7298064958469632e-01,
          -7.8882725888566940e-01, -3.1697133513862275e-01,
          -4.6645559615326004e-01, 6.0653234706363621e-02,
          2.5333907720823184e-01, -1.2794339934679662e-02,
          5.4347843087663672e-01, -2.0795425646191878e-01,
          7.3058143495083061e-01, -2.3682891405980172e-01,
          -2.1638372649434681e-01, -2.7413043092566014e-01,
          2.3665787668810855e-02, -3.0548028331418453e-01,
          -4.8361239952413770e-01, -4.9865932718645289e-01,
          7.8356149496135050e-02, 3.2333558246189370e-01,
          3.7171241756694329e-01, 8.5454225200446887e-01,
          6.6717294321734033e-01, 9.3371027375844448e-03,
          2.9185583316594854e-01, -8.9564372560519259e-02,
          -1.6588338075776723e-01, 1.7650510145882887e-02,
          3.0972608178397726e-01, 3.7439456072368893e-01,
          3.3002618528904404e-01, 1.2709662728092666e-01,
          -3.5949059187217575e-01, 7.1261904233825535e-01,
          4.9154893009964305e-02, -1.8147360235070137e-01,
          2.1558605529470146e-01, -2.1745453351817043e-01,
          -4.4650239117908808e-01, 1.3449218609172838e-02,
          1.9764707639652634e-01, -3.3919238349071534e-01,
          -1.2208667380257043e+00, 4.3101251524250261e-01,
          4.3768785206003807e-01, 1.6362476124087688e-01,
          2.0450503330482742e-01, -4.9365924201302774e-01,
          2.7958197521813427e-01, 5.1790109143714652e-02,
          -2.0059526793042159e-01, 4.8020621210749725e-01,
          -4.6032147233298286e-02, 3.1440380220766556e-01,
          2.4027698995774269e-01, 3.4506245136870550e-01,
          -5.9753551686759332e-01, 1.5727640369164725e-01,
          3.8225084591511715e-01, 1.6678075245182586e-01,
          5.3470251551352821e-02, -5.8949382147795681e-01,
          -2.2358346744243904e-01, -2.7486407326143075e-01,
          -2.6912837389232741e-01, 2.0009040601739136e-01,
          -8.3489682435954815e-01, -2.5050951385950682e-01,
          4.7480154972643424e-01, -1.4486296017133057e-01,
          -4.5628563152152202e-01, 2.7216741077897294e-01,
          1.7562293437113161e-01, -3.9889470003780636e-01,
          3.2610188182359628e-01, -4.4266789801654105e-01,
          6.5380032384600784e-01, 7.8631042508236726e-01,
          -3.7508288386804667e-01, -3.2036337447687580e-01,
          -1.0789548443296266e+00, 4.0389823411336684e-01,
          -1.1513098486538516e-01, -1.0675114158897771e-01,
          4.9230490299525344e-02, -4.6221710220075246e-01,
          -2.6854551245950536e-01, -2.6200551030268482e-01,
          1.3403451740821573e-01, 1.4166943538747399e-02,
          -2.7293485244963521e-02, 2.7271284734417221e-02,
          -1.9515568973008676e-01, -2.6271309225534511e-02,
          5.2795713085394569e-01, -1.4867655139630676e-01,
          -2.1520655406032965e-01, 2.0610763993778983e-01,
          8.7216366681438628e-01, -6.8939922690631239e-01,
          -4.0958968572135618e-01, -2.6414250242373000e-01,
          7.7349370574276613e-02, 1.7372585798025109e-01,
          9.6779547803633270e-01, -3.7631277866394269e-01,
          3.8412775062556098e-01, -5.8439185923152437e-01,
          8.3988218566608519e-01, -1.1101564646680893e-01,
          -1.5151425458802911e-01, 3.2719259749354529e-01,
          4.2960407029747300e-01, 6.6148911308091168e-02,
          1.1018199565371410e-01, 9.1144996334448600e-02,
          -5.0353251204978933e-01, -1.5931745832263433e-01,
          -3.3055031112001015e-01, 3.0236744135308985e-01,
          -3.9579856951119630e-01, 1.9623754133461696e-01,
          -1.7141854561007461e-01, 1.4342188503317191e-01,
          -1.1101242730633468e-01, -4.6254564761135053e-01,
          9.5727109587182913e-01, 2.2893518876057289e-01,
          3.0047399354209697e-01, -6.5434916480493421e-01,
          7.7546026044893482e-02, -1.0081699430587018e-01,
          5.0517456866183630e-01, -4.8230583871191773e-01,
          4.2820389058046382e-01, -4.6885740052898639e-01,
          9.3463655934432210e-01, 1.2683869437533338e-01,
          -2.1503353736343606e-01, 5.5024284739049567e-01,
          4.7721661807836963e-02, 1.0343319000465247e-01,
          1.5591348435713326e-01, -1.6609029580028772e-01,
          6.6992626834109203e-01, 1.3814654080873334e-01,
          9.0901136006772687e-02, 6.8629079594935449e-01,
          -2.6050869776730307e-01, 3.7114966075527622e-01,
          -1.5685614511353124e-01, -4.0486243608944988e-01,
          7.3932472329785026e-01, -4.0554673951167469e-01,
          3.6366987039082067e-02, -5.4794975001660018e-01,
          -2.8563470289086285e-01, -2.6705926321387052e-01,
          -9.5725319153511207e-02, 1.4038003327494253e-01,
          4.9845139799407945e-01, -2.6874906748845345e-01,
          -6.8074060959274796e-01, 1.2239701071089584e+00,
          6.1158311003965737e-01, 3.0539381765816243e-03,
          1.0140971227946577e-01, 2.0769037593219819e-01,
          -8.3222167456131824e-01, 6.1544934773302813e-02,
          1.5475366485529654e-01, 1.7160596927872374e-01,
          -7.0551401108347322e-01, -2.2002060778338184e-01,
          1.0790341504633970e-01, -8.5531526787661416e-01,
          1.5442497385099876e-01, -4.5305736953531003e-02,
          -1.9634674706840122e-01, 2.8285499802061054e-01,
          1.5515043420258218e-01, 2.1240869984632191e-01,
          7.1203885439104753e-01, 2.2539512063303951e-01,
          5.0219941211077912e-01, 8.4883577836998444e-02,
          8.1876203512094259e-01, -2.3851188822466127e-01,
          -3.9786826972563069e-02, 2.4633756450221606e-01,
          8.6490564899400446e-01, 8.9610737722528283e-02,
          3.1070586476149570e-01, 9.3231653205511408e-03,
          -1.1146709049132986e+00, -6.3769897599203751e-01,
          1.1116908050192172e-01, 3.4285046680846781e-01,
          -1.8673680574189272e-01, 5.8767784534639111e-01,
          -2.7881475572129077e-01, -2.1330579554237264e-01,
          -2.8583887574358274e-01, 2.4818480373931009e-01,
          -6.9168799566367789e-02, -5.1220984309251649e-01,
          7.7214463454393367e-01, -4.6205799533338943e-01,
          -2.1692951344394570e-01, 6.6282377594868491e-02,
          -7.7490498083624648e-01, -6.4218530680390062e-01,
          7.8557898192207792e-02, 1.3538819612289218e-01,
          6.9335492378395411e-02, -7.7522457495915742e-02,
          5.0774455496005910e-01, -9.9474298823746463e-02,
          1.4384343325698315e-02, -4.6357736426859412e-02,
          3.7761156035204618e-01, -1.7193826679421911e-01,
          1.0617751163881284e-01, 1.5798359524429093e-01,
          -1.7960528002168327e-01, 9.5491785479736069e-01,
          -2.7949810527361385e-01, -1.2914736887003649e-02,
          -4.6908074157077428e-01, 5.2975283339962276e-01,
          6.1911767637505270e-02, 1.2070768871893232e-01,
          3.8553115116881892e-01, 5.1638397857578466e-01,
          -5.0604503866712458e-01, -1.2345062366244597e+00,
          6.5815169722873978e-01, 1.9795357112201267e-01,
          -2.8387231166832450e-01, 2.5870027427078984e-01,
          -2.3689276209522991e-01, -6.1510725681663103e-01,
          -9.1566933553447460e-01, -1.9163097049617581e-01,
          1.7515376874352642e-01, 2.4215382053219306e-01,
          5.3101787751405116e-01, 6.3028429426860422e-01,
          -4.7016120215212126e-01, -1.3217055929071813e+00,
          -5.1282468044018115e-01, 4.9437672048320414e-01,
          -2.6484719962689357e-01, -1.1083095789668992e-01,
          1.1510119621540472e-01, 3.1122926683877983e-01,
          -6.0700355056640110e-01, 2.4897755625295606e-01,
          1.4164427447853631e-01, -2.0437919058463892e-04,
          3.5506443440874014e-01, -2.1651539617449722e-01,
          2.1019877511170582e-01, 6.0859299680172130e-01,
          -6.8974935524233991e-02, 3.1003702023999474e-01,
          1.1655393287040549e-02, -2.5011612265151972e-02,
          2.0156636758307095e-01, 2.9467975209652336e-01,
          -3.9763665961871331e-01, 1.7855734162199267e-03,
          5.5998445981688172e-01, -1.0334076236448624e+00,
          4.4253550534457481e-01, 1.9763818857532152e-02,
          -6.5659615277108299e-02, -1.4008716073103344e-01,
          -7.3265036730804742e-02, 2.3849082222750700e-01,
          6.9249649884215758e-01, -2.8406308512953582e-01,
          -5.5069480013372818e-01, -4.5713003292725252e-01,
          9.0884200278895433e-02, -2.1480718997313308e-01,
          -1.9388092327972720e-01, 4.4424145426749595e-01,
          -7.6433658135494673e-02, -5.4577532605831214e-01,
          4.7700184405853323e-02, 1.2883875393121261e-01,
          -7.7973001274067666e-01, 2.7456122406977262e-01,
          2.8967080762229047e-01, 4.0125813024352905e-02,
          2.8020639410271619e-01, -1.8166247868850072e-01,
          -6.4760004379602698e-01, -9.5659564402313124e-01,
          -1.1371174188293091e-01, -7.3494825384709650e-01,
          -1.3896057670569686e-01, -1.3851320133520673e-01,
          -1.1741150168534975e-01, -5.5082841780001529e-02,
          -6.3339066456858731e-02, 1.2370647985954790e-01,
          5.7523533235058544e-01, 4.6245933070637485e-01,
          4.6998573013056655e-02, 1.2510556450807828e-01,
          -3.7144250137593787e-01, 1.2711279764106784e-01,
          -1.9707731193104855e-01, 1.2118538662969144e-01,
          5.7727614472098487e-01, -2.5700467878901917e-01,
          -1.0238694218036987e-01, -5.8178229749339994e-01,
          -1.8193861275230558e-01, -6.6199898867548335e-01,
          -2.3041804747499792e-01, 1.1043882786926362e-01,
          1.3474788397840146e-01, -2.1406837023362540e-01,
          5.5428903511828920e-01, 6.5779546739216443e-01,
          2.1955775589969720e-01, -1.1339663307034162e-01,
          4.5541460150213309e-01, -3.1396247033770606e-02,
          1.8212714202842148e-01, 1.4738765233259361e-02,
          -7.8308803186962594e-02, 7.8315545745807358e-01,
          -1.0806006382770129e-01, 2.2270700665926516e-01,
          9.1460324628061651e-01, -7.3665927255556804e-02,
          1.7249507401648498e-01, 2.2890266337030018e-02,
          4.6783756997869447e-01, 2.7187207394728341e-01,
          9.4539539952215590e-02, 6.5920669023746303e-01,
          -1.6358641390292894e-01, -5.0552444228256355e-01,
          -5.8118896056083558e-01, 3.1536221523501029e-01,
          -2.9972072823898727e-01, -3.0669026085412215e-01,
          3.7540789772248345e-01, -4.7410080097052293e-01,
          -8.5039780572503387e-03, 2.1173198863624232e-01,
          6.9747963891250667e-02, 4.8338281585259202e-01,
          9.8200464477121982e-02, -9.2051141825477995e-02,
          -5.3247274299483272e-01, -2.3026956098752813e-01,
          -4.4160656252147279e-01, -9.1665052181544956e-02,
          2.4228218447520933e-01, -3.6451579444467088e-03,
          -8.3723590779550786e-02, 4.1202874245116361e-01,
          -3.7650963526998832e-01, 2.9899451864772708e-01,
          -3.5109450538058488e-03, -3.7130489805071981e-01,
          -7.5746371248897118e-02, -1.0090366545916758e+00,
          2.8236883676410357e-01, -8.6677592621113797e-02,
          -5.3021333092555512e-01, 4.9394483537159400e-01,
          3.3200694425939853e-01, 1.2712001223214070e-01,
          -4.5348493512661597e-01, -1.0145931485834907e-01,
          1.0734613904629879e-01, 2.5467482846651757e-01,
          3.7402344430434536e-01, 2.9692227424166752e-02,
          -2.3622569231732365e-01, 3.2883218530243297e-01,
          1.4002876415094651e-01, 3.2796353182743487e-01,
          1.2633429818292423e+00, 3.3146473144745453e-01,
          -1.7643489661145303e-01, 8.1102796550916667e-01,
          -2.7836032101709296e-01, -2.9994253018047984e-01,
          6.0152845554898998e-02, -1.8184022048915591e-01,
          1.0532114964609907e-01, -6.4726830941493507e-02,
          6.0211198079247419e-01, 3.4734290469005380e-01,
          2.5939626395407356e-01, 9.5368150294530329e-02,
          -2.1516546480835258e-01, -2.4192361436767446e-01,
          -2.5360886382359657e-02, 3.7714512260998334e-01,
          -5.4982847957679970e-01, 4.2959034368442595e-01,
          -2.6169526839098373e-01, -2.1136142095397981e-01,
          -1.6777738874464743e-01, 4.2275516266082419e-01,
          -2.3801223147332870e-01, 1.5374480214022201e-01,
          1.3527020076408974e-01, -3.5292418765775763e-01,
          2.2559048309286234e-01, 2.7481507502511310e-01,
          -1.0458899057369497e-01, -5.7017367126555285e-01,
          -6.8441781258057866e-01, 1.4966076344288295e-01,
          -3.4730254559236245e-01, -1.7376896525351196e-02,
          2.8126444264738282e-01, 3.0590695634418713e-01,
          -3.0496753448187075e-01, 8.7276597092212971e-02,
          -3.7781326658379638e-01, -2.0033968176673131e-01,
          -2.7392593533920845e-01, 2.2108718330847987e-01,
          2.3013115606667650e-01, -1.0563282717588700e+00,
          -1.2069302412457416e-03, -5.4624043740989625e-01,
          -5.9613621038740454e-02, -8.8302970092871150e-02,
          -5.9494470006542610e-01, 9.0119787877665405e-02,
          4.4285915881263760e-01, -3.4629998491032982e-01,
          3.3622583553582164e-02, -3.8426118937319131e-01,
          -3.8113629213186417e-01, 5.2078520474858642e-02,
          2.5091542177814929e-01, 6.1887574118636081e-02,
          3.8810511957640642e-01, -7.3631729988096373e-01,
          6.5703945462930652e-02, -8.3607368544114727e-02,
          6.2602378603633146e-01, -9.8491547168626195e-02,
          4.4047380661506774e-01, 5.1366504516382816e-01,
          3.9736480896711224e-01, -4.2003269577700836e-01,
          9.4867136979532940e-01, 7.7653484222823199e-01,
          -1.1570120443953542e-01, -8.6436968871721323e-02,
          7.7069152827629583e-01, 1.8650159277242270e-01,
          -3.1274581853183114e-01, 3.7309714477001737e-02,
          -4.0634156504224174e-02, -2.5355692950519193e-01,
          4.7802189520156961e-02, -5.6013901195445026e-01,
          -2.4242840513481474e-02, 2.2785581133590491e-01,
          -2.1551043312680371e-01, -2.9873665763984741e-01,
          6.1424362392547582e-01, -2.0857973444870254e-01,
          -2.2817767408366840e-01, 2.8530251823114250e-01,
          -6.6570877683561158e-01, -2.5069080648342057e-01,
          2.8234230829401935e-01, -2.0463758084314285e-01,
          1.4470588782625285e-01, -7.2071044349406232e-01,
          -9.4933579644216126e-01, 8.7160350796302629e-03,
          -6.9534260182569985e-01, -1.7259805068753983e-01,
          3.0469041143787950e-01, -1.8694246271938086e-01,
          4.2405998542375832e-02, -3.1821856574433677e-01,
          -1.4265608909758504e-01, 1.2811658922325220e-01,
          -1.7290420224777078e-01, 1.3457858380687240e-01,
          2.9298142463951359e-02, -4.0840340711962253e-01,
          9.1639427845568944e-02, 4.8564497335546958e-01,
          -7.7049551195518351e-01, -2.9405895840834489e-01,
          -5.0418303355886362e-01, 8.6104911145587298e-02,
          2.4867455750598427e-01, 4.3825897436952824e-02,
          4.9500343719506179e-01, -2.2719453555957855e-01,
          7.7269215406917613e-01, -2.6860047143738131e-01,
          -2.2226458509379848e-01, -2.5595685889307540e-01,
          -9.8579586712758908e-03, -3.3394565083528999e-01,
          -5.3471512371671071e-01, -4.8917220033952863e-01,
          1.6133448522863167e-01, 2.9621128208130937e-01,
          2.8605628846639153e-01, 8.8254387196987738e-01,
          6.9967080025484929e-01, -6.1372329962201188e-03,
          2.6260974101308221e-01, -8.8786128120122224e-02,
          -2.2783327825467378e-01, 7.1999187886992985e-02,
          2.7770919286715029e-01, 3.5105776999514043e-01,
          3.7914482705896402e-01, 1.6412732313897130e-01,
          -3.3256460137731020e-01, 6.9012083935779145e-01,
          4.3171409950208857e-02, -1.7364018369985018e-01,
          2.2776059280527766e-01, -2.0486706231167487e-01,
          -3.7690824156214936e-01, 2.7101595174936682e-02,
          1.3738170478299844e-01, -3.7941966258110926e-01,
          -1.7987960634706149e-01, -1.5766353604732519e-01,
          3.8454166410694396e-01, -2.0614359619163988e-01,
          -9.1286013536521979e-02, -1.0121483257529864e+00,
          5.2797637017740935e-02, 8.8263384240107531e-02,
          -1.8727508284460695e-01, -4.3394742589870444e-01,
          -5.0537423367864964e-01, 1.1063181479157656e-01,
          1.2261877972551531e-01, 9.9334513630838428e-01,
          5.1961349491088737e-01, -2.4673249112905271e-01,
          9.1780424592984666e-01, 5.8970950889502619e-02,
          -6.6268501527167845e-01, 5.5517838278058940e-01,
          4.7674204063248571e-01, 4.8915967218473788e-01,
          -2.3909497690192044e-01, 7.6653593589443653e-02,
          -2.5527464993270910e-01, -4.0300772609623781e-01,
          -6.2856416867709297e-01, 3.9748398851179777e-02,
          -1.6711933560335206e+00, -2.5306565845083362e-01,
          -6.3183588726039358e-03, -3.5853332451511155e-01,
          -3.4968748146177664e-01, 9.9546370656584671e-02,
          -2.1125996808044484e-01, 3.7035440497397315e-01,
          -1.0005984212149541e+00, -3.8284238662585796e-01,
          -6.1746839494100902e-01, -1.0337818432108108e-01,
          3.0988993401643283e-01, -7.9003769745453353e-02,
          1.2089251940829901e-01, 3.5449636193579648e-01,
          3.5414306595924101e-02, 1.8424184741319138e-01,
          -1.3755458214851607e-01, -2.8832876940140448e-02,
          -6.2929777685751009e-01, 2.9225473549176373e-02,
          4.1343504049321370e-02, -2.3441863430126036e-01,
          8.1208527821114013e-02, -1.0318958931255097e-01,
          6.0923622471440575e-01, -4.1508490004003040e-01,
          -8.1210027444695310e-01, -5.2984361084970044e-01,
          1.2186943526198014e-01, 2.7233117678330193e-01,
          6.3361663289255282e-03, 5.4867896893263568e-01,
          -1.4763899732220052e-02, 1.0263787003954301e+00,
          -1.6401644655322017e-01, -4.5015731174141849e-01,
          -3.8988407946392178e-01, -3.8338910795834158e-01,
          8.0289957307093562e-01, -1.3285009935939002e-01,
          -1.3772537994564699e-01, 1.8998159856298416e-01,
          -1.2342696051140828e-01, 3.4895461719091470e-02,
          -3.2935196848971193e-01, -3.8157950431810544e-01,
          3.5188390010956483e-01, -6.9230944865316757e-01,
          -1.2156229555079361e-01, -3.1508219674596993e-02,
          -3.2063593612813995e-01, -4.0225213804011045e-01,
          5.8373093058993117e-02, 1.8686472444470362e-01,
          5.5065249574177494e-02, 1.2134625073265153e+00,
          -1.0175792206049955e-01, -1.9826514596522773e-01,
          -1.2265382234056722e-01, -1.4461461524498403e-01,
          6.1091351236862546e-02, -6.0919887087438607e-01,
          -5.7209674719613135e-01, 2.8095996323467742e-01,
          3.4462008204435474e-01, -2.6321671875884228e-01,
          2.9579735634891888e-02, 1.4176816216179081e-01,
          1.5741765967432558e-01, 2.0558064364780249e-01,
          1.5272222751853851e-01, 6.7102971314848225e-01,
          8.3599489515543923e-01, 3.0382408525055110e-02,
          3.1966179754720248e-01, 3.9678221410287573e-01,
          -1.1366952735966054e+00, -1.1414061291507194e-01,
          2.7928306198868430e-01, 7.9410160097725890e-01,
          9.7322937482518773e-02, -9.6091078627748805e-01,
          -1.6558313250218323e-01, -3.3795775344188506e-01,
          -6.1265519853619066e-01, 4.0165426206254920e-02,
          4.1302500284501664e-01, 2.5226011337257032e-01,
          -9.1280399189054645e-02, 1.4908840424083337e-02,
          -4.1105139490158288e-01, -6.9640964216094592e-01,
          2.3002424394240867e-01, 2.6560382341375394e-01,
          1.1668201474117175e-01, -1.2612585923351531e+00,
          -5.0825141627562787e-01, -3.6955552242639043e-02,
          1.9563320137014745e-01, -5.9344537533801485e-02,
          1.0714052937320517e-01, 8.2399021124709715e-01,
          4.5855461417896765e-01, 4.4125622983889090e-01,
          -8.0764517529947899e-03, 1.6166280576621858e-01,
          4.3623430290692833e-01, -4.7209024611023352e-02,
          -8.5304734910395721e-03, 1.4287216375135242e-01,
          6.3191706311715723e-01, 9.9925336021255848e-02,
          -1.2666572741124851e+00, -9.4802813165038205e-02,
          5.8598704949468582e-02, 2.3295869858759863e-01,
          5.5981901361773945e-01, -5.3602502672096888e-02,
          -3.6333378209181028e-01, -3.4463561913712171e-01,
          -6.3822516277867214e-01, -6.3479825573480961e-02,
          -9.4057440632086889e-02, -5.6007051143672038e-01,
          -7.3851804936931087e-01, 3.0502777925865526e-01,
          -9.5052372202139010e-02, 5.6829605811149719e-01,
          8.3153306574094019e-02, -1.3285211150545295e-01,
          -6.1837775357412264e-02, -1.0013674733099993e-01,
          -3.9685663376934271e-02, -9.7601159432958418e-01,
          6.6057785901970967e-01, 9.9970774131654860e-01,
          4.8207518527288162e-02, -3.1656060538742786e-02,
          3.8373453329399926e-01, -7.8011438254798515e-01,
          1.1660360091336959e-01, 8.1729390121306622e-01,
          3.9266917675094500e-02, -1.4663777805841618e-01,
          6.3512487443450760e-01, -5.8656114897217237e-01,
          -2.7195799780089425e-01, 2.2624048797771976e-01,
          -7.8446994166154832e-02, 1.3402995443921789e-01,
          1.0039511005866782e-02, -5.1162723518237585e-01,
          -4.8398728749764745e-02, -4.1647158797870892e-01,
          1.1542454083857390e+00, 3.6235860148482714e-02,
          -1.9852503092226215e-01, -5.1788288250829151e-02,
          -8.8899810710032889e-02, -2.4091648394216691e-01,
          8.0570552930365624e-01, -4.8248551604300027e-01,
          -4.3974879982570081e-01, 6.4986845622947886e-01,
          2.6186900432668908e-01, 2.8312775669232504e-01,
          5.4324468217718302e-02, -3.4081333463319052e-01,
          2.1629135866186414e-01, 8.9718639341569462e-01,
          3.7993950187765496e-01, -1.4969786727436771e-01,
          -2.6405505002485252e-01, 3.9046901960095616e-02,
          5.6813176337853222e-01, -8.4471830168085082e-01,
          -2.2111166180391278e-01, -1.0643712873672491e-01,
          6.2543879206190101e-01, 4.4409353673783453e-01,
          -8.7827787946582214e-01, 2.5950902746180854e-01,
          9.3485343483298664e-02, 2.5855826088573247e-01,
          -8.6355617689694783e-02, -7.5987497270826032e-01,
          -4.7642937442154321e-01, 2.7223379817907473e-01,
          -1.7856091150620851e-01, 1.2427468049409891e-01,
          4.4261138374764963e-01, -3.4849640813682153e-01,
          1.2289778190760581e-01, 3.1701881619024895e-02,
          1.5255716595658480e-02, 1.7272289562632423e-02,
          -1.7310921516382166e-01, -6.3598654743440342e-02,
          1.5523324976630909e-01, -1.3040538330257440e-01,
          -5.1159033717426350e-01, -2.5919317828656901e-01,
          -4.0199330908534980e-01, 6.0697517950477002e-02,
          -4.5001826354304791e-01, 4.2947875747426900e-01,
          -3.3161771765731995e-01, 6.3246993034199742e-02,
          1.6084132601391873e-01, 9.3687832484562444e-02,
          -4.2504763187103184e-01, 2.9717965612041086e-01,
          -1.7890111709877504e-01, 9.4619304748100305e-02,
          -9.7228379049761324e-02, 8.2829409514823138e-01,
          -5.7392986459792239e-01, -1.5071226646891187e+00,
          -6.7120515325169994e-01, 5.8327475843531609e-02,
          -4.7117978547980360e-01, 4.3388221941758681e-01,
          2.5731889605304224e-02, 2.8005813790889100e-01,
          1.3440705857750382e-01, -2.5029030889518245e-01,
          -2.4805148782877295e-01, 2.2375558354408751e-01,
          -8.7150178957483740e-02, -5.5047876680385199e-01,
          1.6512783395412862e-02, 4.6439400224146686e-02,
          1.3881875341740140e-02, 1.2685225877423454e+00,
          1.7724146999495094e-01, 8.2992487847351998e-02,
          3.5403426117109232e-01, 1.1384480770141785e-01,
          4.2958569880417763e-01, -4.3484032299903413e-02,
          1.5106554906546879e-01, 4.5986515338945176e-02,
          2.1218597450422352e-01, 3.2575594005867498e-01,
          3.5327553562688940e-01, 1.8682758573292665e-01,
          -2.4570016369224149e-01, -3.0450430645864467e-02,
          6.5185474368186425e-01, -3.2734041395238800e-01,
          1.2361639365214735e-01, -3.2519796174518190e-01,
          4.7372919482919398e-02, -4.4303563461873235e-01,
          -9.1258064818456686e-01, 6.5995164821920471e-01,
          -2.5127555510481675e-01, 6.6887920137141829e-02,
          -3.5849188686013489e-01, 1.1298862165873812e-01,
          6.0008986049843827e-01, 2.4194550204842316e-01,
          5.6675236802572804e-01, -1.4554110945347543e+00,
          7.2907980947596596e-02, 2.5078297183120263e-01,
          2.7682398050730322e-01, 1.0811322501244991e-01,
          -1.7580332888392844e-01, 3.2924876456467261e-01,
          1.0192648720611509e-01, 7.0313975606857138e-01,
          7.3495752140674842e-01, 1.3279728653927632e+00,
          4.1564892078084163e-02, 1.4126824774999228e-01,
          4.0521602181189020e-01, -2.9093250665563897e-01,
          5.5907566332362546e-02, -7.1945028707116865e-01,
          -1.5528347169113030e-01, 6.9196070865804560e-01,
          -5.9596064570442586e-02, 3.7489164952024284e-02,
          -9.5830264989255134e-02, -5.3730129650243097e-01,
          -9.3930018620107705e-02, -7.2844728541137965e-02,
          -1.2311024623040032e+00, 5.2781924337850072e-01,
          -3.5687140538932871e-01, 7.4408865011676473e-01,
          5.4738387366005425e-01, -4.7993984708542027e-02,
          1.2610471700286703e-02, -4.2328364939556318e-01,
          -1.4195763586445653e-01, -5.0140342126381510e-01,
          -1.1575236520412080e-04, 2.8204464241836258e-01,
          -1.0388167664760866e+00, 7.4072626579550860e-01,
          4.6921434077156793e-01, 9.7589093143269845e-01,
          -9.3712504089549187e-01, 3.0881111658448628e-02,
          7.0861102241667728e-01, -4.7613021754251736e-02,
          6.7363662518656597e-01, -1.4270504676781237e-01,
          -3.6828494387859423e-01, 3.6817878692614209e-01,
          -5.1820657531802583e-01, 1.2092077419094938e-01,
          2.2252655022565904e-01, 2.3410485003028997e-01,
          -6.2916520450152535e-01, -2.5137947923809617e-01,
          -8.3068797591783400e-02, -1.7873658098099346e-01,
          -1.3640166904414455e-01, 4.4953274536298837e-01,
          7.9349557198044218e-01, 2.3350773984913806e-01,
          1.8587750740299402e-01, 6.4895580588144819e-02,
          -4.4058210306410821e-02, -4.6614524861969087e-01,
          -4.5852998456677729e-02, 1.3265150397634195e-02,
          3.1063301194724602e-01, -3.9501899725760581e-01,
          2.3189142609481982e-02, 8.7592966457047824e-02,
          1.0506836652498988e-01, -4.2731056538975032e-01,
          1.5337695667754292e-01, -3.6934672656985029e-01,
          1.8022311982677598e-02, -5.6086473744374955e-02,
          -4.0215122015927626e-02, 8.8247159667440470e-02,
          -1.8801791965190734e-01, -1.7090361750634991e-01,
          -3.8615799100575617e-02, 2.6275809811062550e-01,
          6.1224768554973352e-01, 6.1072884915876324e-01,
          3.1405197611240970e-01, -4.2083083291016626e-01,
          -3.4430088384491214e-01, -3.7985501585678184e-02,
          -1.0896526594815301e+00, -7.9277501855617516e-01,
          2.4842542643542190e-01, 3.3855155332142089e-01,
          2.3058804894578613e-01, 5.1495821345973768e-02,
          -4.5761932867546157e-01, -1.9592103965195459e-01,
          3.9890271535742892e-02, -6.9913437454077562e-02,
          -1.8195594109105662e-01, 1.9745719897476652e-01,
          -1.4853684583654934e+00, -2.0240436183172697e-01,
          2.9563405881385074e-01, 5.6204271032981534e-01,
          -1.9519853676180827e-02, -6.0844696799888152e-02,
          1.0490827295568947e+00, 5.5581237468430099e-02,
          1.1110465127158093e+00, 4.1650060350733514e-01,
          -1.1618454610699967e-01, -7.9937500354895483e-02,
          7.0611239461424974e-02, 1.1566678540748716e-01,
          -4.8712929407288746e-01, 2.0059748120453910e-01,
          1.2242133382087358e-01, 7.9137862868841197e-02,
          6.3173852771734706e-02, -1.5821931644671355e-01,
          4.0597291608452440e-03, 8.0354024903459653e-01,
          -3.2622153250722352e-01, 1.4577528155918684e-01,
          -3.2826844433740132e-01, 5.6176974572053084e-01,
          -8.7464804205731425e-02, -1.0782269326204511e-01,
          -4.1268920424885908e-01, -4.4049960948646333e-01,
          4.8134878461724317e-01, -3.5692725276014969e-01,
          -1.0035451420932301e-01, 8.6947828883409559e-02,
          1.1382763885089091e+00, 5.3879104955398094e-01,
          -6.5368552078525335e-02, 1.3234189024817938e-01,
          -2.4559421959482693e-02, 1.5112954467274378e-01,
          -2.2240613594405642e-01, 1.4353134013091604e-01,
          -1.9527031071666354e-01, 7.4452168799125931e-02,
          -3.5082875599849898e-02, -1.6896901661906918e-01,
          7.1236053932248111e-03, -4.2154235510944819e-02,
          4.9352863330231717e-01, 1.4761718197943760e-01,
          2.2365457578978464e-02, -6.0171912800235344e-02,
          2.0845276953032796e-01, -2.5603309736251527e-03,
          2.0861297702336770e-01, -3.7810031779210956e-01,
          -2.5149486717916331e-01, -1.0006948607522146e+00,
          4.1526301798811692e-02, 2.4205394226511098e-01,
          -1.2344607126917878e-01, -3.0004500311924226e-01,
          -1.3182091986365047e-01, -9.6469793652257718e-02,
          -8.4545124468217117e-02, -2.3853133199184035e-01,
          8.4451092212663215e-01, -2.3561258982229688e-01,
          -7.3945648021393182e-02, -1.0783294302710615e-01,
          -2.7854672847914697e-01, 3.0995903684094672e-02,
          -2.1350054780777054e-02, -2.1808291024766352e-01,
          -1.6307461525939057e-01, 1.3012124750027379e-01,
          6.3261760789501395e-02, 5.8109463437986265e-02,
          6.4999385586995984e-01, -3.6392383512197146e-01,
          7.7624591433119638e-01, -2.3486116024395404e-01,
          4.8279931536392462e-01, -3.2514511024496312e-01,
          1.4312289584310389e-01, 5.5136100274343847e-01,
          4.9966954797135515e-01, -7.0902872749508808e-02,
          -1.5319239496123929e-01, -2.2204259080128370e-02,
          -4.7408573410310206e-01, 6.9513662814106048e-01,
          4.5430981659634462e-01, -2.4654350404685554e-01,
          8.2380188189779147e-01, 9.7461725755521533e-01,
          1.4268504687159722e-01, 8.6731675867672042e-01,
          1.0222302319127810e+00, 5.5490368526855988e-02,
          7.9573428456065597e-03, -1.7236103841181158e-01,
          -6.3595439645390592e-02, -4.4217440371081101e-01,
          2.3599456854922102e-01, 8.3975092394520323e-01,
          -1.4729080675865033e-01, -1.5826121153422152e-02,
          4.5479460636714758e-01, -2.6740795352814239e-01,
          -1.5198253188318225e-01, -9.0556313053938953e-01,
          8.0804208329438271e-02, 1.2393087857162038e-02,
          -1.7677128725929464e-01, -3.4660435075495188e-01,
          -7.3556580997198950e-01, 1.9644358020471261e-01,
          1.1118344586169966e-01, 1.0018097041735012e+00,
          4.3446222006484553e-01, -3.6327410029869839e-01,
          9.8152499136219440e-01, -8.4033463427037308e-03,
          -6.6306805743440711e-01, 4.3660406460038265e-01,
          4.0176283774059035e-01, 7.1565987109174967e-01,
          -2.2568016082642223e-01, 4.6713073656369342e-02,
          -1.6269576768498112e-01, -4.4838694448811095e-01,
          -5.3357469202318775e-01, 1.3397142447630089e-01,
          -1.6577312684317276e+00, -3.5394425711957156e-01,
          -1.0993334366560578e-01, -3.3273683763219636e-01,
          -3.9459942000201442e-01, 2.3001718068415344e-01,
          -2.9276058166276531e-01, 3.1809110480602076e-01,
          -1.2797238314278869e+00, -7.0646804139313157e-01,
          -6.7809332053158333e-01, -2.8609607006550200e-02,
          2.6660752191640280e-01, -1.1083820110751282e-01,
          1.6736306971387599e-01, 3.6331102653838981e-01,
          6.6406861992183222e-02, 1.5376664091506900e-01,
          -3.3229545577869390e-02, -5.0576824389390471e-02,
          -7.0013168691070327e-01, 3.9764068151060747e-02,
          1.3866462859977802e-01, -1.6568846447248289e-01,
          2.6059898693371775e-01, -1.2007226637700728e-01,
          6.9143644478976174e-01, -5.4547124211800180e-01,
          -5.4556978545510915e-01, -4.8285101691595322e-01,
          2.9718219125284845e-01, 2.9585779991619204e-01,
          1.5359656545594897e-02, 5.6703633379302543e-01,
          -1.8303439043414943e-01, 1.1086689458625367e+00,
          -6.8902540952264835e-02, -5.7007273096205802e-01,
          -5.0141164087305956e-01, -3.7661567510725608e-01,
          6.5759830134345154e-01, -2.4213751315122142e-01,
          -2.9935820396587115e-01, 2.4065088306864024e-01,
          -2.1574111409377525e-01, -2.1177442901027646e-02,
          -3.5139782193483943e-01, -5.0512670615476007e-01,
          4.2778994897501510e-01, -7.2612336673175082e-01,
          9.6903427813129668e-03, -1.1192480953403337e-01,
          -9.2164897509606172e-02, -6.3876422261716759e-01,
          5.0814973744540498e-02, 1.2160216805791783e-01,
          2.7946538094111201e-02, 1.3427432099566754e+00,
          -6.9453214064711097e-02, -4.5033215792653250e-02,
          -9.8182260481042075e-02, -2.6610228128480007e-01,
          -6.7807889782837388e-02, -5.3159163896885908e-01,
          -4.9083759670457128e-01, 4.8581054508901245e-01,
          2.3863157659900294e-01, -4.9513036753012502e-01,
          1.2736271461532350e-01, -3.0217903780910892e-02,
          1.2844283923300368e-01, 1.2197742124529680e-01,
          1.1480590150436751e-01, 7.9712269472529917e-01,
          7.8844802712704554e-01, -1.5631948354866321e-01,
          4.4731565747976393e-01, 3.5995343513553835e-01,
          -1.1557578098661341e+00, -2.2037473116721054e-01,
          4.0265536040546707e-01, 6.6760600678554671e-01,
          4.0155392377853198e-02, -1.0504405691618441e+00,
          -7.9569966767484596e-02, -2.9298796928608045e-01,
          -8.1113950675644442e-01, 1.8644743924308549e-01,
          4.8252688444048003e-01, 2.5523294520830364e-01,
          -1.8290660246185469e-01, 7.0913489096498236e-02,
          -3.2248484305217101e-01, -4.0796076417272426e-01,
          4.0407578256101410e-02, 3.1042660412133888e-01,
          3.3914568693622998e-02, -1.3058145258236646e+00,
          -4.7723115657554305e-01, -1.0169444244366668e-01,
          1.9595523379880936e-01, -1.6170519384850551e-01,
          4.7046438985878167e-02, 8.9650741731920136e-01,
          5.2064919618041117e-01, 6.3865371742815169e-01,
          -5.5503719026035132e-02, 2.4232280811731324e-01,
          3.2089399199927671e-01, -2.0271190602667288e-01,
          1.9055120938298029e-03, 2.1591875466318286e-01,
          7.2756550489244387e-01, 1.2852425050437696e-01,
          -1.2523801233415506e+00, -7.8732492386268102e-02,
          6.0599785365804348e-02, 3.4258643619148627e-01,
          6.0795110352955417e-01, -9.3842940126349958e-02,
          -3.9616653493999870e-01, -2.0723588004364943e-01,
          -7.0391731436279814e-01, -1.7501435708441843e-02,
          1.8181681242758857e-01, -5.0461279040742379e-01,
          -7.2462201084305589e-01, 3.2061683770588556e-01,
          -2.3070032837164647e-02, 7.2267610735986088e-01,
          7.7994842223912064e-02, -8.1483167895017292e-02,
          -5.5743932745869619e-02, -1.9071385314497766e-01,
          -1.8150327567048533e-01, -1.0377682885951718e+00,
          5.9616602298023191e-01, 1.0853821663365391e+00,
          1.3734118552072794e-01, -7.4060328037238332e-02,
          2.9570204330480088e-01, -8.3932448246364655e-01,
          8.3800541044621799e-02, 6.9627268156975974e-01,
          6.6995445836476722e-02, -2.2005843100947342e-01,
          4.7046644734274895e-01, -6.5978225099478860e-01,
          -2.1159540040886798e-01, 1.8356703580557646e-01,
          -2.9561828338319956e-01, 1.9438647001782552e-01,
          -2.6610964538658282e-02, -6.6100791358863553e-01,
          -1.0353085403159723e-01, -2.1657081710958642e-01,
          1.0986031121767388e+00, -2.7904690098375486e-03,
          -2.0482736828472897e-01, -1.9288346606709020e-01,
          -1.0244462295841297e-01, -2.0114206263604351e-01,
          8.5745102273467544e-01, -3.6075400452575185e-01,
          -4.0839155576033903e-01, 5.5040640001636587e-01,
          3.4720528362067693e-01, 2.9432218740611121e-01,
          2.1298031103241824e-01, -1.7649506681193614e-01,
          3.0997595585675147e-01, 8.9417659692757911e-01,
          3.3335102430077912e-01, -1.6952301795212907e-01,
          -4.9571198947457318e-01, 4.0822966093215514e-02,
          5.8908148682354444e-01, -7.1505386421892325e-01,
          3.6769318644585013e-02, 2.4121632660552994e-01,
          5.4589888511908957e-01, 3.0798239168021785e-01,
          -1.0316223786010739e+00, 3.3012317750628473e-01,
          1.1001931104432325e-01, 4.2057038140709063e-01,
          1.6967087369856370e-02, -8.0442766122747411e-01,
          -5.0715404161997424e-01, 2.7483953707952241e-01,
          -2.5818372887310126e-01, -8.1332582885143070e-02,
          2.9240842906285963e-01, -2.8226842277777847e-01,
          1.5486567971197845e-01, 3.9817717319631032e-03,
          4.5344385043983429e-02, 2.1322129849084815e-02,
          -2.2492232185266295e-01, 2.2170497610441944e-01,
          2.4543641394006321e-01, -1.4689248640160429e-01,
          -3.7093647897450960e-01, 9.4498360520834782e-02,
          -5.7358744726549338e-01, 6.5122393797175201e-02,
          -5.5335367246349654e-01, 2.7951276296608657e-01,
          -2.0265377103345167e-01, 9.6823191834310724e-03,
          3.6780701561248585e-01, 2.2895685774482449e-01,
          -3.7444614014486227e-01, 3.7034077126072418e-01,
          -4.0234242091019856e-01, 1.4555426723963460e-01,
          -1.8995621532406767e-01, 8.2885192058630563e-01,
          -7.7251474301105694e-01, -1.4943202006469851e+00,
          -7.4348320832426895e-01, 2.4810809493325096e-02,
          -3.9594347661748552e-01, 5.1918106311774004e-01,
          -4.3560168657685056e-02, 1.5904660606164570e-01,
          2.2109273922856931e-01, -2.3694863126594423e-01,
          -2.4836115483149779e-01, 3.5865515838407186e-01,
          -9.6468512654451388e-02, -1.9274120982944618e-01,
          6.5763128039807842e-02, 1.4591517023437256e-01,
          5.9982197050092528e-02, 1.3619398090994941e+00,
          1.4559627030561334e-01, 9.3950110511793264e-02,
          2.8517722583550520e-01, 3.7584469637864282e-01,
          5.3412457079846265e-01, -1.1630574743991959e-01,
          4.0097772505939772e-01, -2.3418214483416130e-03,
          3.8770280806217544e-01, 1.5139168629696470e-01,
          2.9614583246978765e-01, 2.1690613170499271e-01,
          -1.7513576877627621e-01, -5.7609867363596308e-02,
          7.0817538072972475e-01, -2.1390307473926357e-01,
          -1.3152243383298884e-01, -2.9606119732731689e-01,
          3.0129540368083251e-02, -6.0973578690991048e-01,
          -1.0232838128699235e+00, 7.9586579824560544e-01,
          -3.5683593879272052e-01, 9.2175181624865571e-02,
          -2.9501349743914401e-01, 2.3703129841491752e-01,
          6.4798695479228086e-01, 1.7543461574320277e-01,
          4.8570124202169879e-01, -1.5155739095145100e+00,
          1.3116454355570772e-01, 6.1648713731504858e-02,
          6.1555835058600294e-01, 8.5357730739081664e-02,
          -2.2557104703958153e-01, 3.0050111709508748e-01,
          -4.5568279627253370e-04, 8.2793338487563473e-01,
          7.2993564072730799e-01, 1.4876726780431189e+00,
          1.5623972567360406e-01, -3.1774510404791380e-02,
          3.9772353922165721e-01, -3.3050133295195133e-01,
          -1.4419956173396895e-02, -1.0130836292305527e+00,
          -2.4340213535774768e-01, 7.9885313578970119e-01,
          -9.5877657862485699e-02, -6.2295563249091974e-02,
          -2.5315280765795245e-01, -6.2043177422343088e-01,
          -1.7030548596812833e-01, 1.4194650347075458e-03,
          -1.2612676406600032e+00, 6.5475984321045255e-01,
          -1.4596566760063834e-01, 4.4181157729439940e-01,
          8.0270740107449057e-01, -5.6863744644257704e-02,
          -7.7140666249090412e-02, -4.3171107920299745e-01,
          -2.5944419534435942e-01, -4.9293488567490878e-01,
          -1.0265651560592122e-02, 3.6003788791182856e-01,
          -1.2008553113821117e+00, 6.3496876257948454e-01,
          3.3681646789906633e-01, 1.1555765658771120e+00,
          -9.5123527903758565e-01, -1.2639507203052544e-01,
          8.4460729434232684e-01, -8.8680005972707254e-02,
          8.0824985028779284e-01, 6.1515730485739474e-02,
          -3.9993392590790966e-01, 2.6812315214939852e-01,
          -6.0011726296471757e-01, 1.0254657497692021e-01,
          3.4937265912070792e-01, 2.2655625320744921e-01,
          -7.0428369794514833e-01, -2.7986848996927222e-01,
          2.2704565314118932e-01, -2.6594578119491130e-01,
          -9.6957381828629854e-02, 4.1041802002345168e-01,
          4.8445671379292554e-01, 2.1130726735339883e-01,
          1.9756881691425787e-01, 2.4485257262021269e-02,
          -1.1390148088039888e-01, -4.4391416056917155e-01,
          9.6623014763229167e-03, 8.6198387287585110e-02,
          1.7859771515266956e-01, -2.7000473384915907e-01,
          1.0041939779455454e-01, 1.6942110510921829e-01,
          4.2262813686170214e-01, -6.1215634119352380e-01,
          1.8706803411035619e-01, -5.1456065074560520e-01,
          -2.2935512473977965e-01, -1.8109945876262554e-01,
          -5.8742448315249406e-02, 2.6043282840799153e-01,
          -1.8745204620412095e-01, -3.3096663714900798e-01,
          -2.5678462886772304e-02, 1.4765641145161421e-01,
          7.9689999428471148e-01, 5.7245576282413757e-01,
          2.5473061769805849e-01, -5.8101740354181308e-01,
          -1.3223668565524647e-02, -1.2456276686439649e-01,
          -1.1089698159195227e+00, -9.5125801484426675e-01,
          2.3746367705814711e-01, 4.3365482046391196e-01,
          3.1254841038422798e-01, 2.0555870131589951e-02,
          -6.8552338420467651e-01, -1.6029101209828861e-01,
          -2.2376599862661682e-02, -9.4871276294151263e-02,
          -2.5128667033594559e-01, 4.2985353431870577e-01,
          -1.5671742535979754e+00, -1.2438543588407429e-01,
          2.6842361267558568e-01, 4.5248281713139626e-01,
          -1.2861982937375668e-01, -1.0092601697213012e-01,
          1.1927890595118809e+00, 2.2064899032401220e-02,
          1.1918323746893724e+00, 4.1707453366491853e-01,
          -1.2146739382303062e-01, 2.1744751400072381e-02,
          -3.4582114453269655e-02, 1.9260858692661482e-02,
          -5.2220939699102942e-01, 2.8556091870879530e-01,
          7.8243757051021282e-02, 1.2114406801985268e-01,
          -5.2385332487011285e-02, -1.5521849822333186e-01,
          -8.4942926345580125e-03, 6.6701117623346207e-01,
          -2.6760123498844179e-01, 1.8680450885980784e-01,
          -5.0394591973951885e-01, 5.4164722101372154e-01,
          -1.5367610516603908e-01, -5.6177981990792707e-02,
          -5.5269042903564725e-01, -5.1709123426866954e-01,
          4.2416698034008504e-01, -4.9520847849977317e-01,
          -1.7351770947664191e-01, 1.3235793183024691e-01,
          1.0924908894502403e+00, 5.9902610891056274e-01,
          -7.3328745411255114e-02, 1.8215725407243374e-01,
          -1.1880661632720917e-01, 2.1956106650841042e-01,
          -3.3283355829394884e-01, 1.4909222053256921e-01,
          -1.9643775186401966e-01, 2.4150565289200082e-01,
          8.2753547816011255e-02, -1.4128527195244847e-01,
          -3.2598802578317231e-02, -8.1501752478193770e-03,
          5.7932736109240734e-01, 2.2391187320366410e-01,
          -1.1057761690715531e-01, 8.6983176950580776e-04,
          4.5719835352981231e-01, 4.6986854504374474e-02,
          1.7051557389387065e-01, -2.7808722989511064e-01,
          -4.4408568285434985e-01, -9.1282445419130043e-01,
          1.1689269442907339e-01, 1.8964727702404421e-01,
          1.0695040272991232e-01, -4.6791335615145579e-01,
          -9.6631922829610542e-02, 2.5356426242057347e-03,
          -5.0537215084407651e-02, -2.3270020876458805e-01,
          8.1198506347809207e-01, -2.1571311215988326e-01,
          2.2522768240270394e-01, -1.4939797524463314e-01,
          -2.4358797645295727e-01, 4.2496863593975052e-02,
          -6.8883730237621163e-02, -2.1578433817775575e-01,
          -9.8599384267959472e-02, 2.7290888652819317e-01,
          1.9754827166388703e-01, 1.7026726092364583e-01,
          6.8548704685041129e-01, -3.3830202640811774e-01,
          6.0043149517715277e-01, -3.2232525260960482e-01,
          5.9936684203649426e-01, -3.7129474676509117e-01,
          8.6536396820751510e-02, 4.7201535433333752e-01,
          4.6873395954047264e-01, -5.0854336238964404e-02,
          -1.9795691092330425e-01, 3.5721997092405283e-02,
          -5.4564846419781787e-01, 7.9605835867802321e-01,
          4.5736254642622232e-01, -2.0770621213457524e-01,
          7.2259126000277440e-01, 1.0719787855038039e+00,
          2.3165807828669660e-01, 6.3466163115769791e-01,
          1.1504480719710286e+00, 1.0842237706051011e-01,
          -4.1779219163265380e-02, -1.3987464974701300e-01,
          1.5667052278720792e-01, -3.1028929510792219e-01,
          1.8105278817119294e-01, 7.4514511122953109e-01,
          -9.2235137084031679e-02, 9.2051317411476583e-02,
          5.3244689093156405e-01, -2.1854848471840133e-01,
          -1.7079430515024888e-01, -9.9233982813970412e-01,
          1.0013073840751070e-01, -5.6658056479690778e-02,
          -1.4831461855329597e-01, -2.1458314606552947e-01,
          -9.1665940040216587e-01, 1.5589610388825342e-01,
          7.3744741779759787e-02, 1.1764603270075180e+00,
          2.9103861876348236e-01, -4.9168333681128074e-01,
          1.0452705125316775e+00, -1.4501733783591725e-01,
          -6.5714971208904771e-01, 1.2807617298199664e-01,
          2.6936240931101058e-01, 9.4507638257843540e-01,
          -2.3945942469889853e-01, -1.5893137476519503e-02,
          -7.0366131981384916e-02, -5.1851476320085788e-01,
          -3.3384836587497735e-01, 1.9186333112160475e-01,
          -1.7108595189091660e+00, -4.3579088511066527e-01,
          -1.8754543693617101e-01, -3.4695514131255584e-01,
          -4.4964022242383445e-01, 3.2782839082479087e-01,
          -3.5706418392711392e-01, 2.8236886485718832e-01,
          -1.5422168667550979e+00, -1.0617445040653120e+00,
          -6.8094347300555014e-01, 5.7077102544121489e-02,
          2.2016636000947554e-01, -1.5077016566999016e-01,
          2.2378612974575304e-01, 3.3165550859656828e-01,
          4.6158679660328411e-02, 9.1947611172487342e-02,
          1.4150419148451829e-01, -8.4101953567861362e-02,
          -7.4033801638906249e-01, 4.0331288894297379e-02,
          2.1701829587290178e-01, -8.8166254542677222e-02,
          4.5140764682112683e-01, -1.3689452003207864e-01,
          7.8887603577076071e-01, -7.6668747296251794e-01,
          -8.8891662343345612e-02, -4.2339355592548011e-01,
          4.4817743941512012e-01, 3.1752210441727391e-01,
          4.9551312844933859e-02, 6.3697911988026334e-01,
          -3.8641865228541927e-01, 1.1855464757009040e+00,
          6.7928141522743388e-02, -6.8736621682583865e-01,
          -6.9658269020757746e-01, -3.2883921269819583e-01,
          4.5061376391648639e-01, -3.2669291352347013e-01,
          -4.5374479405653045e-01, 3.4076050489702059e-01,
          -2.8533199355845718e-01, -1.1022595422981007e-01,
          -3.9378435424051511e-01, -5.8773062389914588e-01,
          4.9893076797275621e-01, -7.4587075459513841e-01,
          1.9080279476817430e-01, -1.9787182860098490e-01,
          1.9459443363965473e-01, -9.1643866148390141e-01,
          6.7731363239248138e-02, -5.4725212128710959e-03,
          -1.0996056960911291e-01, 1.5144455576660001e+00,
          2.7584443171854277e-02, 1.1686871500910706e-01,
          -5.1488698097852184e-02, -4.0791981084951490e-01,
          -3.0216777202234735e-01, -3.6826639142128231e-01,
          -3.3209300705023315e-01, 7.6297808733576411e-01,
          7.2853909732553276e-02, -6.7553026683313377e-01,
          2.0165676002789970e-01, -2.7851379579257579e-01,
          7.5587174324940332e-02, -4.9937636646424409e-04,
          5.2683913002955204e-02, 9.5108530022079041e-01,
          7.4111413793010683e-01, -3.1596169226556781e-01,
          6.0951369243509268e-01, 3.0974724365236395e-01,
          -1.2247201681466100e+00, -3.7371471666838019e-01,
          5.9090252616223449e-01, 5.1921262056250372e-01,
          -2.5176928096448586e-01, -1.2834266325122619e+00,
          2.0633369669799961e-02, -1.8917511323320393e-01,
          -1.0105594438351573e+00, 2.8811150091308174e-01,
          4.8038802342535247e-01, 1.8871780057796539e-01,
          -2.8735140787073415e-01, 1.8708436221792932e-01,
          -1.7667731894511318e-01, -4.8623307247935607e-02,
          -1.8312842063840057e-01, 3.7205031143145023e-01,
          -3.6995117284002108e-02, -1.4061882479432639e+00,
          -4.1765209038914664e-01, -1.4423572609250326e-01,
          1.8164096188511658e-01, -2.4611397268035443e-01,
          -8.8677222610946807e-02, 8.9933144667983855e-01,
          6.7443770496003164e-01, 7.8415940677507523e-01,
          -7.8415947060154617e-02, 3.3855142974828561e-01,
          9.9522186618758599e-02, -3.4556760494104022e-01,
          8.3259887391328433e-02, 3.0448786544506301e-01,
          7.7971667962522806e-01, 1.8847464336085393e-01,
          -1.3064462960748622e+00, -5.8244995415074607e-02,
          5.4550150419632286e-02, 4.2439343885182323e-01,
          6.3881130320102109e-01, -1.0926275844170973e-01,
          -4.1419917634198195e-01, -8.1863901725347896e-02,
          -7.9054532866079663e-01, 2.9463669860453862e-02,
          5.2357260242086834e-01, -4.1942681216118699e-01,
          -7.2967804674422232e-01, 3.4378585823352903e-01,
          1.0819689222785758e-01, 8.4761804542078756e-01,
          2.8277008828872758e-02, 5.0087916917952037e-02,
          5.3385197842349841e-03, -3.0598012251109119e-01,
          -3.6593556259953136e-01, -1.0860313558944001e+00,
          4.6481552126298892e-01, 1.1562167572490241e+00,
          2.3107753388522537e-01, -8.2366917863210723e-02,
          1.2174270890814869e-01, -9.5913580256741549e-01,
          7.8052895387690654e-02, 5.6195620495837495e-01,
          1.2304417212236324e-01, -3.0237304062515025e-01,
          3.4026416158318701e-01, -7.8744693913889452e-01,
          -2.2955144795774210e-01, 8.2090173700782948e-02,
          -5.9465710488332890e-01, 2.0527284302067605e-01,
          -6.4460777680553347e-02, -7.4589092844429650e-01,
          -2.0850699682482085e-01, 8.5683687733618424e-02,
          1.0180089183562651e+00, -5.5976389457405651e-03,
          -2.0625284889441955e-01, -3.1873403878557305e-01,
          -7.0919374768777799e-02, -1.0223521559350064e-01,
          9.0210217950033300e-01, -1.1419385729657794e-01,
          -3.2475002606339826e-01, 3.0499622002474769e-01,
          4.3257213282211254e-01, 2.5099400715132669e-01,
          3.5776352878757856e-01, 1.0708524430922404e-02,
          4.5388165597967361e-01, 7.2819626996180309e-01,
          1.9673210337729233e-01, -1.4993308828546623e-01,
          -7.0260500666443271e-01, 1.6218115512900456e-02,
          5.2444038240150348e-01, -5.4930909024218022e-01,
          2.8501193769497091e-01, 5.8248139204148019e-01,
          3.5512388140248508e-01, 9.2507455120697621e-02,
          -1.2005269755884804e+00, 4.0422970584253826e-01,
          1.1925987182233695e-01, 6.2162065435335856e-01,
          1.8151202702827193e-01, -8.5513681600458324e-01,
          -4.7879990750087564e-01, 3.4492766020418758e-01,
          -3.4918123009518776e-01, -2.7698735672528868e-01,
          1.2485335744595556e-01, -1.1833110341831210e-01,
          1.7342514460698930e-01, -2.1641872609738863e-02,
          5.1000241160569219e-02, 3.4457681355938068e-02,
          -2.4928405912083001e-01, 4.9841265557835268e-01,
          3.6850608675415697e-01, -1.2191798963382658e-01,
          -1.0993408691816905e-01, 4.3146753783713454e-01,
          -7.2824636545369659e-01, 9.2777598364916641e-02,
          -6.6899436430386816e-01, 1.2336356475649132e-01,
          -1.5133464856515837e-02, -7.7362212959509111e-02,
          4.5458015118646211e-01, 3.5797116339027707e-01,
          -3.3062107897341464e-01, 5.5147211710337429e-01,
          -5.8919198650564875e-01, 2.0466887793316543e-01,
          -2.3282568378224619e-01, 8.4329312816313895e-01,
          -9.1841767246387251e-01, -1.4538916364635708e+00,
          -8.4936176150772502e-01, -4.3973176069728032e-03,
          -3.3142514413960555e-01, 6.6959995405203654e-01,
          -1.0756100737198095e-01, 4.7895858386877528e-03,
          3.8042477469064545e-01, -2.1136862151726074e-01,
          -4.4465107404337600e-01, 5.3047154921959649e-01,
          -7.9016432949464588e-02, 1.4060544442569878e-01,
          1.0376779797505579e-01, 2.1884460878127074e-01,
          1.0975322163001575e-01, 1.4859417291198194e+00,
          1.1386704190804409e-01, 1.2343455788833051e-01,
          1.7670132131209215e-01, 6.5236216004567460e-01,
          5.4988903746257556e-01, -1.9048031761404086e-01,
          6.7762702122798968e-01, -1.3025678848682746e-02,
          5.6955060843019778e-01, -6.1845310344516416e-02,
          1.8759668565066862e-01, 2.8008660536394603e-01,
          -8.9043525954234010e-02, -7.6659032926969808e-02,
          8.5808449237261430e-01, -5.2717037740437067e-02,
          -4.2115214714337423e-01, -3.1762477065733863e-01,
          4.7351968881231429e-02, -8.0091870160239742e-01,
          -1.1387125522919288e+00, 9.1005277873394741e-01,
          -4.3436747285353988e-01, 1.4653429556675709e-01,
          -1.3288084581995688e-01, 3.6963351394791005e-01,
          7.7749260611389281e-01, 6.9706916279360376e-02,
          3.5295126258697013e-01, -1.6427924780021526e+00,
          1.9452817168289094e-01, -1.4189852079345072e-01,
          8.8167410601203666e-01, 3.1730382278357711e-03,
          -2.9141230199003937e-01, 2.8894972364090366e-01,
          -2.1047979920454990e-01, 8.9024055931057056e-01,
          6.5393117241155074e-01, 1.5787126090408572e+00,
          2.4712682457570562e-01, -2.3160547675039544e-01,
          4.1524813146644418e-01, -3.3993407526008551e-01,
          -2.6499476875576498e-02, -1.2600016023885263e+00,
          -3.2803298916427998e-01, 9.1121619162051604e-01,
          -1.2896971191939424e-01, -2.1525499599711681e-01,
          -4.4003901308272092e-01, -6.9206033260278754e-01,
          -2.3701309242542101e-01, 4.0925836423923827e-02,
          -1.2689501753723587e+00, 7.8351916469545779e-01,
          6.6140879536863526e-02, 9.8335941115841832e-02,
          1.0882665101367128e+00, -1.7565320267167564e-01,
          -5.5326872681886782e-02, -2.6325739068576115e-01,
          -4.1167989109458175e-01, -4.4353534393471977e-01,
          -2.1577008546114801e-02, 2.9844469648419480e-01,
          -1.3086989565782137e+00, 3.5294678918407735e-01,
          1.9822685696348319e-01, 1.3562037705571632e+00,
          -9.1312681870503787e-01, -2.9907831066947049e-01,
          9.5647195861602896e-01, -1.5333383365275111e-01,
          9.3531469228869890e-01, 2.3726663709262383e-01,
          -4.0144589227418281e-01, 1.2009879503731155e-01,
          -6.5688402472366081e-01, 6.0118505950566059e-02,
          4.4971649957597631e-01, 1.6884471574409968e-01,
          -8.2657819278348743e-01, -3.2013054383160622e-01,
          6.2564631171770246e-01, -3.4572365290860141e-01,
          -6.9912970412996017e-02, 3.3832099849026098e-01,
          1.6989148560900813e-01, 2.5603985563565990e-01,
          2.3511739565328221e-01, -2.5268436772631950e-02,
          -1.7697926232956784e-01, -4.6733749387381435e-01,
          1.3672917837864643e-01, 1.3609133102944884e-01,
          6.2345968375859775e-02, -1.6150439343733125e-01,
          1.3374205265266970e-01, 2.2654911695457428e-01,
          6.6408733571681455e-01, -8.0362151434526186e-01,
          7.8503672865134405e-02, -6.8094367973427317e-01,
          -4.6407298078625159e-01, -2.9427312140712608e-01,
          -6.1950385663151475e-02, 5.1214744362177977e-01,
          -1.5971689597362471e-01, -5.1451583574235504e-01,
          1.9630798973672602e-02, 6.6404467736731379e-02,
          9.7844794422262071e-01, 5.2857384193629264e-01,
          1.8072418835531368e-01, -7.7220327292928792e-01,
          3.8218427251628301e-01, -1.8862265252894631e-01,
          -1.1631598517007047e+00, -1.2080405457670924e+00,
          1.8094189672967445e-01, 5.4910407161486186e-01,
          3.8442773553483434e-01, -7.5374642763557903e-02,
          -9.0429996270086876e-01, -1.1457200637030776e-01,
          -1.3151292947414123e-01, -9.1095962304253042e-02,
          -3.1052809561143119e-01, 6.6931752231629915e-01,
          -1.6315995649890769e+00, -2.0291480322671369e-02,
          2.6505709684136025e-01, 2.2561246869459922e-01,
          -3.8084142535955190e-01, -1.7426401878455980e-01,
          1.3136354546338644e+00, -6.7785356329443991e-02,
          1.3295664335592474e+00, 3.1479654301007315e-01,
          -1.5624855086331299e-01, 1.1520271497623995e-01,
          -2.1686449267046615e-01, -9.3103730377409905e-02,
          -5.5285747845505584e-01, 3.7844475188207455e-01,
          7.1129827136594839e-02, 1.7311744435344117e-01,
          -2.1504247912543209e-01, -1.7774947155039611e-01,
          -5.9223697405855119e-02, 5.1435827431132919e-01,
          -1.4978523667954263e-01, 2.3547776772945031e-01,
          -5.6731550338710623e-01, 4.4838662168700172e-01,
          -2.3371872261667767e-01, -1.2496972166261902e-02,
          -7.3501175729016899e-01, -6.2274563167419439e-01,
          2.8048859481375266e-01, -6.9645524798690861e-01,
          -3.2159515367839886e-01, 1.4302781361981487e-01,
          1.1292720743408700e+00, 6.9147445986858036e-01,
          -9.0561213417624326e-02, 2.3528510758655422e-01,
          -2.8406403454317430e-01, 2.6885993405805725e-01,
          -4.5668702310339332e-01, 1.6491836174414617e-01,
          -2.1175205126958999e-01, 3.8286206082613844e-01,
          1.8812159179998134e-01, -1.4411424112138230e-01,
          3.0690063836333785e-03, 2.7714633231569388e-02,
          6.7113177790581868e-01, 3.7345445927698384e-01,
          -2.4217992423091039e-01, 7.2110777090786976e-02,
          6.8813133334153531e-01, 9.5168650615521933e-02,
          1.3099110958188631e-01, -1.5439618505971792e-01,
          -6.7382359946923887e-01, -8.1610978660624967e-01,
          1.8761255614523301e-01, 1.1299530083591570e-01,
          3.1300410818778562e-01, -6.7147720594412741e-01,
          -1.0246116217897562e-01, 1.3467591007574300e-01,
          -7.0099808132818176e-03, -1.3783500470492591e-01,
          6.5846546584888044e-01, -1.0652396061022938e-01,
          5.0839717781592131e-01, -1.9524846605584881e-01,
          -1.5914035136304483e-01, 4.5265507296918826e-02,
          -1.4769948670083763e-01, -2.0080809750340778e-01,
          -1.1075800025319306e-02, 4.7281256800390548e-01,
          3.5553230575717271e-01, 2.6607188809825522e-01,
          7.3196118199943760e-01, -2.8864904627320093e-01,
          4.0494035240714460e-01, -4.7249061599786846e-01,
          6.7457741017366890e-01, -4.3832965411197822e-01,
          -1.2335161303074590e-02, 3.8685890674535939e-01,
          4.2669060202180997e-01, -6.7526711048341301e-03,
          -2.5662724823358440e-01, 7.5405070455841536e-02,
          -6.4023143183070097e-01, 8.1879708506522508e-01,
          4.2283534863670225e-01, -1.1491185535146800e-01,
          5.1978620373036799e-01, 1.1569797958039134e+00,
          3.2209013896560423e-01, 3.5499383422555636e-01,
          1.2459978271954872e+00, 1.5803445389208187e-01,
          -9.1280534452564427e-02, -1.2283878250322322e-01,
          3.6548330505916032e-01, -1.0528892439365646e-01,
          9.5841882897542655e-02, 6.2743219505942449e-01,
          1.1001092129113259e-02, 1.7368892581721254e-01,
          3.7086587529505965e-01, -3.4159043423053709e-01,
          -2.4184276130027399e-01, -9.6954785389061471e-01,
          3.5920217324867103e-02, -6.8651828393042527e-02,
          -1.7126038623374243e-01, -1.4742608471743121e-01,
          -9.4872780443884897e-01, 1.9957204679785862e-01,
          2.2610996771435302e-02, 1.3158159315771358e+00,
          3.2278898782298654e-01, -5.0648205981357552e-01,
          9.7227466446638744e-01, -2.0997422566569846e-01,
          -5.6417107988639159e-01, 1.0852762602346613e-01,
          2.9432128990084255e-01, 9.4885672658811115e-01,
          -1.8325919260047838e-01, 9.9282962828205631e-02,
          -1.9495497541543511e-01, -4.5164951730760888e-01,
          -3.0757869170400914e-01, 2.1048782152194326e-01,
          -1.5534097808084055e+00, -4.5206742359705221e-01,
          -1.9276190523715239e-01, -2.8966372835384091e-01,
          -4.2624785619084282e-01, 2.2469494483087440e-01,
          -3.5988535250939285e-01, 2.6952542185927542e-01,
          -1.6051277023838957e+00, -1.1801537992090105e+00,
          -5.9119671454791944e-01, 7.9470181298682330e-02,
          1.8605548670089853e-01, -1.4482851061040272e-01,
          2.0708194669818433e-01, 2.9485052777848914e-01,
          4.1278904156898125e-02, 8.7735529451003255e-02,
          1.9105290785990481e-01, -8.8767033040148532e-02,
          -5.7239101467886955e-01, 2.9870601763723605e-02,
          2.4829010788588141e-01, -6.4840952583539418e-02,
          3.7472302649937272e-01, -9.6115090394753563e-02,
          6.4307818579114895e-01, -7.9875685410636166e-01,
          1.8229729348702428e-02, -4.2538256090470017e-01,
          5.2271999698918759e-01, 3.3306979474873211e-01,
          2.7072925172434464e-02, 5.9858954341792436e-01,
          -4.3061000641265873e-01, 1.1410469945624551e+00,
          -1.1475105333870948e-02, -5.4086260297718924e-01,
          -7.3243510991301219e-01, -4.4370094508633440e-01,
          4.7624186386483364e-01, -3.0524701295730022e-01,
          -4.3909929696845545e-01, 2.1047552095569921e-01,
          -2.2413195798993432e-01, -7.7396421040638222e-02,
          -2.1174029331474226e-01, -5.5212384921389024e-01,
          4.9769809328635417e-01, -6.5533041559110461e-01,
          3.0895828894878374e-01, -2.0781941388543707e-01,
          2.0842961164624563e-01, -8.8546361510664040e-01,
          8.6908925333287756e-02, -3.8922345713193821e-02,
          -1.8151260908964248e-01, 1.4025111756497439e+00,
          -5.6251739186795623e-02, 1.4957259670544273e-01,
          -6.9735047074644729e-02, -3.9865680913849472e-01,
          -4.2413706949040642e-01, -3.1805180169678482e-01,
          -2.9052338982105214e-01, 8.8101729481715008e-01,
          2.2769965024289227e-02, -7.6653308947975851e-01,
          2.1905267410678128e-01, -3.8897722241599192e-01,
          6.2830279851602291e-02, -7.2613210909699882e-02,
          5.2032580483037411e-02, 8.6916087365000849e-01,
